svm_type c_svc
kernel_type rbf
gamma 0.2
nr_class 2
total_sv 2932
rho -0.120127
label 1 0
nr_sv 1304 1628
SV
0.8797712600112828 1:23.18 2:27.272 3:426 4:721.25 5:0.004792988 
0.876358316673001 1:23.15 2:27.245 3:426 4:713.5 5:0.004779464 
0.8767071783483026 1:23.15 2:27.2 3:426 4:708.25 5:0.004771509 
0.7088895597653282 1:23.1 2:27.2 3:419 4:701.66667 5:0.004756993 
0.7090296171660788 1:23.1 2:27.2 3:419 4:699 5:0.004756993 
0.4834949550108434 1:23.075 2:27.175 3:419 4:688 5:0.004745351 
0.7526633028706405 1:23.1 2:27.1 3:419 4:691 5:0.004739371 
0.6201055948995751 1:23.1 2:27.166667 3:419 4:683.5 5:0.004751119 
0.4705643075482625 1:23 2:27.125 3:419 4:686 5:0.004714942 
0.7360020865856044 1:23 2:27.125 3:418.5 4:680.5 5:0.004714942 
0.8860148240665925 1:20.7 2:22.39 3:356 4:457 5:0.003374666 
0.5084685809609072 1:20.7225 2:22.5 3:419 4:470.75 5:0.003396065 
0.5076732546332975 1:20.73 2:22.5 3:419 4:472 5:0.003397643 
0.8732820641848951 1:20.79 2:22.79 3:411 4:492 5:0.003454488 
0.7066557898621904 1:20.815 2:22.8675 3:411 4:497.75 5:0.00347167 
0.7462148301017988 1:20.823333 2:23.033333 3:408.33333 4:499 5:0.003498792 
0.8797940570177809 1:20.815 2:23.025 3:400 4:507 5:0.003495715 
0.8765449051413368 1:20.89 2:23.175 3:396 4:514.75 5:0.003534987 
0.8763591217923339 1:20.89 2:23.29 3:396 4:520.75 5:0.003552629 
0.6909361796751996 1:20.89 2:23.29 3:396 4:526 5:0.003552629 
0.6717332427276987 1:20.89 2:23.323333 3:398.33333 4:527 5:0.003557743 
0.8658195667543311 1:20.945 2:23.39 3:399.5 4:531.25 5:0.00358013 
0.569231187210398 1:21 2:23.5 3:411 4:542.75 5:0.003609319 
0.5709385759637811 1:21 2:23.5 3:411 4:541 5:0.003609319 
0.8718989630233895 1:21 2:23.566667 3:411 4:548.5 5:0.003619618 
0.8729367776334946 1:21 2:23.6 3:412.2 4:553.25 5:0.003624768 
0.8798502174058349 1:21 2:23.6 3:405 4:559.25 5:0.003624768 
0.5600489470128127 1:21 2:23.6 3:405 4:567.33333 5:0.003624768 
0.5591213566305013 1:21 2:23.7 3:405 4:569 5:0.003640217 
0.7212508120421907 1:21 2:23.7 3:405 4:576 5:0.003640217 
0.7209415807109755 1:21.025 2:23.7225 3:405 4:578.75 5:0.003649329 
0.8799575051516416 1:21.025 2:23.7225 3:412 4:585.75 5:0.003649329 
0.8712178644050969 1:21.05 2:23.745 3:419 4:590 5:0.003658459 
0.00748908316293579 1:21.025 2:23.7225 3:419 4:590 5:0.003649329 
0.8802722883312883 1:21.033333 2:23.666667 3:419 4:602.33333 5:0.003642565 
0.6928630811299346 1:21.075 2:23.7675 3:419 4:611 5:0.003667608 
0.3979986377311731 1:21.1 2:23.79 3:419 4:613 5:0.003676776 
0.7752185318435597 1:21.15 2:23.7225 3:419 4:615.75 5:0.003677624 
0.871728519541294 1:21.2 2:23.745 3:419 4:620.5 5:0.003692515 
0.8798509089828952 1:21.2 2:23.79 3:419 4:630.66667 5:0.003699555 
0.8797805740050982 1:21.2 2:23.79 3:419 4:640.5 5:0.003699555 
0.8093405816100383 1:21.29 2:23.865 3:422.5 4:650.75 5:0.00373196 
0.8112523248475145 1:21.29 2:23.89 3:419 4:651 5:0.003735893 
0.8794356609507559 1:21.323333 2:23.926667 3:428.33333 4:654.66667 5:0.003749364 
0.8802564243657106 1:21.29 2:24 3:424.6 4:664.25 5:0.003753199 
0.8123264870682467 1:21.34 2:24 3:426 4:675.4 5:0.003764793 
0.8120288337462745 1:21.29 2:24.05 3:429.5 4:675 5:0.003761065 
0.8395539548979614 1:21.29 2:24.1 3:419 4:679 5:0.003768932 
0.8798535725877109 1:21.315 2:24.175 3:426 4:685.5 5:0.003786568 
0.8029029602768407 1:21.29 2:24.2 3:419 4:689.33333 5:0.003784666 
0.7211099967253518 1:21.29 2:24.2 3:433 4:692.75 5:0.003784666 
0.7210895976418454 1:21.34 2:24.15 3:433 4:695.5 5:0.003788467 
0.552611333225042 1:21.34 2:24.2225 3:433 4:703 5:0.003799909 
0.5126927428300648 1:21.29 2:24.29 3:433 4:704.5 5:0.003798827 
0.8705621220476906 1:21.34 2:24.29 3:433 4:709 5:0.003810563 
0.8798674545122578 1:21.323333 2:24.29 3:426.66667 4:727 5:0.003806647 
0.8291994695978215 1:21.356667 2:24.29 3:436.33333 4:733 5:0.003814482 
0.8740430375517227 1:21.365 2:24.29 3:429 4:736.25 5:0.003816443 
0.4519787919677406 1:21.39 2:24.29 3:429 4:742 5:0.003822332 
0.4666225089833883 1:21.356667 2:24.29 3:429 4:742.66667 5:0.003814482 
0.8628582982657056 1:21.323333 2:24.29 3:434 4:737 5:0.003806647 
0.6644752724492738 1:21.323333 2:24.29 3:444 4:752 5:0.003806647 
0.2671020112754903 1:21.39 2:24.29 3:444 4:753.75 5:0.003822332 
0.8776698241792398 1:21.365 2:24.2225 3:441.75 4:746.25 5:0.003805773 
0.6456550724092071 1:21.39 2:24.26 3:446 4:754.66667 5:0.003817582 
0.8255159200109949 1:21.39 2:24.26 3:439 4:755.33333 5:0.003817582 
0.8315475189225202 1:21.39 2:24.29 3:446.5 4:758.25 5:0.003822332 
0.6519920372758412 1:21.445 2:24.34 3:444 4:787.5 5:0.003843257 
0.657724143492016 1:21.463333 2:24.356667 3:455.66667 4:787.66667 5:0.003850253 
0.6845963385294292 1:21.5 2:24.39 3:454 4:782.5 5:0.003864276 
0.5821813475528316 1:21.5 2:24.39 3:454 4:786 5:0.003864276 
0.3203279974655538 1:21.5 2:24.356667 3:465.66667 4:786.66667 5:0.003858962 
0.982915359100424 1:21.5 2:24.365 3:465.5 4:785.25 5:0.003860291 
0.8175546170253822 1:21.5 2:24.29 3:469.66667 4:788 5:0.003848335 
0.8228373090558503 1:21.55 2:24.5175 3:471.25 4:808.75 5:0.003896587 
0.801920918912622 1:21.6 2:24.39 3:473 4:812 5:0.00388815 
0.6476134931884278 1:21.6 2:24.55 3:484.5 4:811 5:0.003913817 
0.8689575023460249 1:21.7 2:24.7 3:482.5 4:817.75 5:0.003962194 
0.8785888876385418 1:21.7 2:24.696667 3:487.5 4:833.25 5:0.003961656 
0.8714045390920431 1:21.7675 2:24.865 3:490 4:847.75 5:0.004005429 
0.8531976780987626 1:21.79 2:24.89 3:492 4:854 5:0.004015034 
0.8792544431493765 1:21.815 2:24.9175 3:497.25 4:863.5 5:0.004025682 
0.8796507096185211 1:21.84 2:25.0225 3:495.5 4:869.75 5:0.004048974 
0.56035756261498 1:21.89 2:25.2 3:497 4:895.75 5:0.004090435 
0.2731935350539452 1:21.89 2:25.2 3:497 4:895.5 5:0.004090435 
0.8793544662122325 1:21.89 2:25.2925 3:495.5 4:910.75 5:0.004105549 
0.8799259083388509 1:21.9175 2:25.39 3:494 4:919.25 5:0.00412845 
0.8793806550390733 1:22 2:25.4725 3:504.25 4:933.75 5:0.004162997 
0.7980077482411707 1:22 2:25.519 3:505.75 4:939.375 5:0.004170647 
0.7990357662070086 1:22 2:25.538 3:505.5 4:942.75 5:0.004173773 
0.8798364811811088 1:22.025 2:25.5975 3:518.5 4:948.25 5:0.00418999 
0.8794679453513962 1:22.066667 2:25.793333 3:503.66667 4:969.33333 5:0.004233077 
0.8796903878479447 1:22.066667 2:25.893333 3:496.33333 4:973.66667 5:0.004249601 
0.8800417009062496 1:22.1 2:25.926667 3:503 4:986.33333 5:0.004263823 
0.8796236555806131 1:22.1 2:25.945 3:506 4:994.5 5:0.004266859 
0.5492732579472657 1:22.1 2:25.83 3:478 4:1006.6667 5:0.004247817 
0.5033064779770738 1:22.1 2:25.823333 3:478 4:1009 5:0.004246713 
0.8801056442320706 1:22.1 2:25.8 3:483.25 4:998.75 5:0.00424285 
0.5172380973099865 1:22.1 2:26.05 3:476 4:1008 5:0.004284246 
0.8798966564163792 1:22.1 2:26.1 3:486.5 4:1021 5:0.004292526 
0.8794027060827134 1:22.1 2:26.0725 3:476.25 4:1029.5 5:0.004287972 
0.4955507152855161 1:22.1 2:25.745 3:469 4:1025 5:0.004233743 
0.8388213935431648 1:22.1 2:25.793333 3:459 4:1015 5:0.004241746 
0.8004720118515123 1:22.1 2:25.945 3:459 4:1011 5:0.004266859 
0.8796860635171853 1:22.125 2:26.025 3:460.25 4:1025 5:0.004286677 
0.8354170308630424 1:22.1 2:26.1 3:446.5 4:1026.75 5:0.004292526 
0.7131985002455271 1:22.1 2:26.1 3:466.5 4:1035 5:0.004292526 
0.8795686422610385 1:22.1 2:26.2 3:439 4:1025.6667 5:0.004309086 
0.6570028515662227 1:22.1 2:26.1975 3:450.25 4:1026.5 5:0.004308672 
0.7608954393427927 1:22.075 2:26.2 3:450.25 4:1023.5 5:0.004302479 
0.7564479453732306 1:22.1 2:26.29 3:454 4:1031.3333 5:0.004323991 
0.8205564416127421 1:22.1 2:26.29 3:454 4:1027 5:0.004323991 
0.8690431431102875 1:22.1 2:26.356667 3:462.33333 4:1033 5:0.004335033 
0.736991198248778 1:22.1 2:26.39 3:456.5 4:1038 5:0.004340553 
0.7006886175172895 1:22.1 2:26.39 3:454 4:1034.5 5:0.004340553 
0.3510256333929872 1:22.1 2:26.39 3:461.5 4:1038.5 5:0.004340553 
0.7933488545485893 1:22.1 2:26.39 3:444 4:1037 5:0.004340553 
0.1500254599620398 1:22.1 2:26.5225 3:449.5 4:1037.5 5:0.004362499 
0.8308624663698825 1:22.125 2:26.4425 3:449.5 4:1032.75 5:0.004355927 
0.6015807847915515 1:22.1 2:26.445 3:460 4:1039.25 5:0.004349663 
0.5824401492892114 1:22.1 2:26.445 3:449.5 4:1040.25 5:0.004349663 
0.4600678549949773 1:22.1 2:26.5 3:449.5 4:1036.75 5:0.004358773 
0.6795396501088367 1:22.1 2:26.5 3:453 4:1038 5:0.004358773 
0.8278038691142127 1:22.1 2:26.5 3:454.75 4:1041.75 5:0.004358773 
0.5777220173443027 1:22.15 2:26.6 3:449.5 4:1043 5:0.004388782 
0.6847515754239709 1:22.1 2:26.7 3:455.5 4:1049 5:0.004391901 
0.6804224358287447 1:22.1 2:26.675 3:454 4:1047 5:0.00438776 
0.7682964328418689 1:22.1 2:26.65 3:469 4:1050 5:0.004383619 
0.6658193603387798 1:22.1 2:26.65 3:469 4:1047 5:0.004383619 
0.6180053088040947 1:22.025 2:26.4425 3:469 4:1034.25 5:0.004329269 
0.4977668103810393 1:22 2:26.29 3:469 4:1024 5:0.004297525 
0.8754456915272364 1:22.066667 2:26.26 3:464 4:1016 5:0.004310195 
0.1403649878596085 1:22.05 2:26.245 3:454 4:1009 5:0.00430331 
0.7765654691760416 1:22.075 2:26.2925 3:454 4:1006.25 5:0.004317775 
0.744032860702564 1:22.1 2:26.245 3:461.5 4:1008 5:0.004316539 
0.8405544191365021 1:22.1 2:26.245 3:461.5 4:1002.5 5:0.004316539 
0.7634107576235799 1:22.1 2:26.245 3:464 4:999 5:0.004316539 
0.752316905120812 1:22.1 2:26.245 3:459 4:1006 5:0.004316539 
0.7224846423164346 1:22.1 2:26.2 3:454 4:1014 5:0.004309086 
0.2505295942140937 1:22 2:26.1 3:454 4:1009 5:0.004266253 
0.4656473165429656 1:22.025 2:26.125 3:454 4:1010.5 5:0.004276929 
0.1717311582064095 1:22 2:26.175 3:454 4:1012.5 5:0.004278597 
0.7967087876015251 1:22.025 2:26.34 3:469 4:1031 5:0.004312371 
0.8095057931809195 1:22.033333 2:26.39 3:471 4:1044.3333 5:0.004322825 
0.7623515558137011 1:22.075 2:26.365 3:464 4:1039.5 5:0.004329763 
0.865507160169708 1:22.075 2:26.365 3:464 4:1044 5:0.004329763 
0.8791102552560968 1:22.1 2:26.5 3:479 4:1047 5:0.004358773 
0.6597224338385332 1:22.1 2:26.5 3:464 4:1063.5 5:0.004358773 
0.7418094184964705 1:22.1 2:26.525 3:466.75 4:1061.25 5:0.004362913 
0.5376218252903996 1:22.1 2:26.6 3:465.66667 4:1065.6667 5:0.004375336 
0.8015755036501395 1:22.1 2:26.6 3:464 4:1073.25 5:0.004375336 
0.5742262782947769 1:22.1 2:26.6 3:459 4:1083.6667 5:0.004375336 
0.7187146268964175 1:22.1 2:26.6 3:454 4:1082 5:0.004375336 
0.4899367647720104 1:22.175 2:26.6 3:454 4:1079.5 5:0.004395519 
0.56838182234023 1:22.175 2:26.6 3:450.25 4:1077.75 5:0.004395519 
0.4332526795762667 1:22.175 2:26.6 3:442.75 4:1067.75 5:0.004395519 
0.6209751199027235 1:22.175 2:26.6 3:439 4:1070.25 5:0.004395519 
0.4787715887825792 1:22.2 2:26.6 3:449.5 4:1075.5 5:0.004402265 
0.4992964358885122 1:22.2 2:26.6 3:454.75 4:1076.5 5:0.004402265 
0.4909503696815942 1:22.2 2:26.6 3:448 4:1068 5:0.004402265 
0.7078522036657448 1:22.2 2:26.6 3:444 4:1071.5 5:0.004402265 
0.4448402104504326 1:22.15 2:26.6 3:444 4:1075.75 5:0.004388782 
0.8693636122389604 1:22.2 2:26.6 3:454.66667 4:1069 5:0.004402265 
0.4129076345696695 1:22.175 2:26.675 3:460 4:1062.5 5:0.004408 
0.6306118648932827 1:22.2 2:26.7 3:460 4:1066.25 5:0.004418932 
0.8722401497672106 1:22.2 2:26.763333 3:449.33333 4:1060 5:0.004429489 
0.8783552500171424 1:22.2 2:26.79 3:444 4:1091.75 5:0.004433934 
0.830254555295089 1:22.2 2:26.856667 3:444 4:1097.3333 5:0.004445046 
0.8333649544117648 1:22.175 2:26.9175 3:440.25 4:1096.75 5:0.00444836 
0.8780977481041483 1:22.2 2:26.9175 3:444 4:1104 5:0.004455187 
0.7625078379814987 1:22.2 2:26.89 3:454.66667 4:1105 5:0.004450603 
0.8720305922223575 1:22.2 2:26.9725 3:449.5 4:1104.75 5:0.004464356 
0.8307556190060598 1:22.2 2:27 3:454 4:1108.6667 5:0.00446894 
0.8620924246521403 1:22.2 2:27 3:454 4:1116.25 5:0.00446894 
0.8619935490694223 1:22.2 2:27 3:454 4:1120.6667 5:0.00446894 
0.6674318444665833 1:22.2 2:27 3:454 4:1134.25 5:0.00446894 
0.5235455793745538 1:22.2 2:27 3:454 4:1131.25 5:0.00446894 
0.3408607733035235 1:22.2 2:27 3:454 4:1129.75 5:0.00446894 
0.7668582017671586 1:22.2 2:27.066667 3:454 4:1137.3333 5:0.004480054 
0.8620198168098644 1:22.2 2:27 3:449.5 4:1136.5 5:0.00446894 
0.6372674545094689 1:22.2 2:27.075 3:460 4:1129 5:0.004481443 
0.6506599662770043 1:22.2 2:27.066667 3:444 4:1139 5:0.004480054 
0.6292483372203992 1:22.175 2:27.1 3:444 4:1136.75 5:0.004478736 
0.395785077059295 1:22.2 2:27.1 3:444 4:1131.25 5:0.004485611 
0.5462960685011577 1:22.2 2:27.033333 3:444 4:1132.3333 5:0.004474497 
0.8510302729771014 1:22.2 2:27 3:444 4:1127.5 5:0.00446894 
0.8793861783783954 1:22.2 2:27.025 3:444 4:1114.5 5:0.004473108 
0.8558170302681187 1:22.2 2:27.1 3:460 4:1124 5:0.004485611 
0.7433617371750441 1:22.175 2:27.175 3:454.75 4:1127.25 5:0.004491221 
0.8791373483192545 1:22.175 2:27.125 3:460 4:1136 5:0.004482898 
0.5045495408060522 1:22.175 2:27.125 3:458.5 4:1127.75 5:0.004482898 
0.8799080156246499 1:22.2 2:27.1 3:464 4:1118 5:0.004485611 
0.8802712168049284 1:22.2 2:27.075 3:481.5 4:1115 5:0.004481443 
0.8789278172863069 1:22.2 2:27.1 3:474 4:1119.75 5:0.004485611 
0.5577593829962878 1:22.175 2:27 3:471.5 4:1104.75 5:0.004462091 
0.8797574332613354 1:22.2 2:27.066667 3:474 4:1099.3333 5:0.004480054 
0.8798397127891646 1:22.2 2:27 3:481.5 4:1097.75 5:0.00446894 
0.8794513573203858 1:22.2 2:26.945 3:489 4:1093.5 5:0.004459771 
0.867828532745289 1:22.2 2:27 3:504 4:1088 5:0.00446894 
0.868332297828138 1:22.2 2:27 3:502.33333 4:1083.6667 5:0.00446894 
0.880331523388009 1:22.2 2:26.963333 3:550 4:1086.5 5:0.004462827 
0.8795113943990818 1:22.26 2:26.856667 3:562.33333 4:1081 5:0.004461432 
0.8803463386612567 1:22.29 2:26.865 3:568.5 4:1063.25 5:0.004471042 
0.8796098987376142 1:22.315 2:26.865 3:606.5 4:1063 5:0.004477898 
0.880351939689115 1:22.39 2:26.79 3:696.5 4:1078 5:0.004485874 
0.88018684742676 1:22.39 2:26.9725 3:657.25 4:1086 5:0.004516655 
0.879874529381597 1:22.533333 2:26.823333 3:607 4:1092.3333 5:0.004531083 
0.8802582401700159 1:22.575 2:26.84 3:660 4:1093.5 5:0.004545492 
0.880344692773691 1:22.6 2:26.79 3:688.5 4:1100.5 5:0.004543905 
0.8799080288878181 1:22.6 2:26.815 3:558 4:1102 5:0.004548177 
0.8801281046768561 1:22.6 2:26.856667 3:661.33333 4:1105 5:0.004555296 
0.8798506815431602 1:22.675 2:26.89 3:665.5 4:1111.25 5:0.004581955 
0.8803099862180152 1:22.666667 2:26.963333 3:647.66667 4:1108.3333 5:0.004592203 
0.8802335955439882 1:22.7225 2:26.7475 3:558 4:1125.25 5:0.004570746 
0.8797181035337923 1:22.7 2:26.89 3:534 4:1106 5:0.004588962 
0.8794844682624968 1:22.7 2:26.89 3:520 4:1110.3333 5:0.004588962 
0.879931483463675 1:22.7 2:26.9175 3:513.5 4:1117.5 5:0.00459369 
0.953989601375306 1:22.65 2:26.55 3:521 4:1051 5:0.004516692 
0.8777897474522686 1:22.625 2:26.4975 3:536.25 4:1041 5:0.004500811 
0.8802197420826314 1:22.6 2:26.39 3:548.33333 4:1039 5:0.004475572 
0.8795742016202839 1:22.625 2:26.4975 3:565.75 4:1037.5 5:0.004500811 
0.8797352748410239 1:22.625 2:26.525 3:584.5 4:1043 5:0.004505516 
0.8449366986773796 1:22.6 2:26.5 3:535 4:1046.3333 5:0.004494363 
0.5803660459993785 1:22.6 2:26.5 3:630.5 4:1035.75 5:0.004494363 
0.8797732095850049 1:22.633333 2:26.46 3:570.66667 4:1029.6667 5:0.004496686 
0.5803660459993798 1:22.65 2:26.495 3:630 4:1034 5:0.004507267 
0.8802129114375026 1:22.675 2:26.525 3:732.75 4:1038.5 5:0.004519309 
0.8800462354353724 1:22.7225 2:26.4725 3:686.25 4:1027 5:0.004523411 
0.8802416421725068 1:22.89 2:25.945 3:534 4:987 5:0.004478198 
0.8801320537736675 1:22.84 2:25.9175 3:496.5 4:983 5:0.004459787 
0.879848770712459 1:22.823333 2:25.856667 3:340.66667 4:983 5:0.00444472 
0.8802090508438061 1:22.29 2:26.166667 3:334.33333 4:900.33333 5:0.004354007 
0.8776574614060428 1:22.29 2:26.15 3:472.25 4:893.75 5:0.004351215 
0.6440652043991845 1:22.29 2:25.945 3:484 4:809.5 5:0.004316867 
0.9937751965062694 1:22.2 2:25.96 3:453 4:780 5:0.004295614 
0.9093473771632271 1:22.2 2:26.1225 3:444 4:776.75 5:0.00432269 
0.7848387329922024 1:22.2 2:26.213 3:441.9 4:788.6 5:0.00433777 
0.8798566316287523 1:22.2 2:26.376 3:439.8 4:795.2 5:0.004364933 
0.8797005620214581 1:22.2 2:26.666667 3:447 4:828.33333 5:0.004413376 
0.8412702634952723 1:22.2 2:26.745 3:443.5 4:837 5:0.004426433 
0.8739637801316592 1:22.2 2:26.823333 3:441 4:832.66667 5:0.00443949 
0.6829980798137033 1:22.2 2:26.945 3:438 4:847.5 5:0.004459771 
0.6831611794403106 1:22.2 2:26.9175 3:438 4:850 5:0.004455187 
0.9447835322155823 1:22.2 2:26.9175 3:447 4:842.5 5:0.004455187 
0.8600441306608364 1:22.2 2:27.1 3:441 4:839 5:0.004485611 
0.8790858392138483 1:22.2 2:27.196667 3:441 4:860 5:0.004501727 
0.8781543655732261 1:22.2 2:27.4175 3:438 4:885.75 5:0.004538547 
0.8615753037367858 1:22.2 2:27.5 3:429 4:910 5:0.004552304 
0.8757058644824893 1:22.2 2:26.8975 3:438 4:919.75 5:0.004451853 
0.8798887424590155 1:22.23 2:27.73 3:441 4:932 5:0.004599115 
0.8800917329815997 1:22.2 2:27.745 3:438 4:942 5:0.00459316 
0.8794360938255873 1:22.2 2:28.1 3:451 4:970.66667 5:0.00465237 
0.8803483768009244 1:22.245 2:28.2225 3:454 4:988.75 5:0.004685722 
0.7873141283363347 1:22.2225 2:28.2225 3:465.25 4:996.75 5:0.004679259 
0.8735237537720028 1:22.2225 2:28.3675 3:474.5 4:1012 5:0.004703482 
0.8801902922384306 1:22.29 2:28.39 3:479 4:1021 5:0.004726771 
0.8802237864644044 1:22.29 2:28.39 3:515 4:1020 5:0.004726771 
0.8798135908391512 1:22.29 2:28.5 3:494 4:1037 5:0.004745225 
0.8728709147925346 1:22.29 2:28.426667 3:487.33333 4:1047 5:0.004732922 
0.8787118773904983 1:22.315 2:28.39 3:474.5 4:1051 5:0.004734022 
0.7843527649227154 1:22.323333 2:28.39 3:486 4:1052.3333 5:0.004736442 
0.8570455137338312 1:22.29 2:28.356667 3:502.33333 4:1048.3333 5:0.004721179 
0.8580904120605076 1:22.29 2:28.34 3:540.5 4:1050.5 5:0.004718383 
0.8572514081207958 1:22.34 2:28.39 3:504 4:1052.25 5:0.004741284 
0.5374235441308846 1:22.39 2:28.2 3:489 4:1053 5:0.004723766 
0.6820579431978646 1:22.39 2:28.2 3:490.25 4:1051 5:0.004723766 
0.8230019688199116 1:22.39 2:28.293333 3:536.33333 4:1049.6667 5:0.004739519 
0.8794006385051509 1:22.39 2:28.39 3:532 4:1054 5:0.004755836 
0.5275032969796123 1:22.39 2:28.2925 3:543 4:1067.75 5:0.004739378 
0.5275032969796123 1:22.426667 2:28.2 3:543 4:1066.3333 5:0.00473439 
0.8788596607324404 1:22.463333 2:28.326667 3:527 4:1081.3333 5:0.004766511 
1 1:22.5 2:28.3175 3:534 4:1084.5 5:0.004775668 
0.891989829492712 1:22.525 2:28.39 3:526.25 4:1094 5:0.004795324 
0.8218314779580224 1:22.5 2:28.39 3:522 4:1103.3333 5:0.004787989 
0.771658597795139 1:22.5 2:28.033333 3:517 4:1099.3333 5:0.00472738 
0.9841042371009608 1:22.575 2:28.22 3:524 4:1086.25 5:0.004780998 
0.7226279005340628 1:22.6 2:28.245 3:513.5 4:1106.75 5:0.004792592 
0.713240703778863 1:22.5 2:28.29 3:513.5 4:1104 5:0.004770995 
0.7329652732670036 1:22.6 2:28.315 3:518 4:1102.25 5:0.004804562 
0.5732863318259631 1:22.6 2:28.29 3:525 4:1100 5:0.004800287 
0.3576359080260015 1:22.6 2:28.245 3:524.83333 4:1101 5:0.004792592 
0.8798674681238776 1:22.6 2:28.39 3:489 4:1102.5 5:0.004817386 
0.5192263990269499 1:22.6 2:28.39 3:474 4:1114 5:0.004817386 
0.5212256524716021 1:22.6 2:28.1725 3:472.75 4:1113.5 5:0.004780196 
0.3948052193386609 1:22.6 2:28.1475 3:471.5 4:1105.25 5:0.004775922 
0.8519761267601492 1:22.6 2:28.23 3:464 4:1104.3333 5:0.004790028 
0.758839860925473 1:22.6 2:28.133333 3:469 4:1107.3333 5:0.004773499 
0.8127222360693598 1:22.575 2:28 3:465.25 4:1108.25 5:0.004743442 
0.8154522926489699 1:22.6 2:28 3:454 4:1101.6667 5:0.004750703 
0.4675199135677105 1:22.55 2:27.82 3:450.25 4:1097 5:0.004705513 
0.46092451455248 1:22.5 2:27.745 3:449.5 4:1097 5:0.004678392 
0.8626311072189758 1:22.525 2:27.7 3:454.75 4:1086.3333 5:0.0046779 
0.8773456132328391 1:22.55 2:27.7 3:454.75 4:1092 5:0.004685063 
0.5546584457494328 1:22.5 2:27.6 3:460 4:1085 5:0.004653759 
0.07579192036407646 1:22.5 2:27.7 3:460 4:1084 5:0.004670747 
0.7160318849693993 1:22.5 2:27.6 3:436.5 4:1076.25 5:0.004653759 
0.5753486162420681 1:22.5 2:27.33 3:460 4:1060.6667 5:0.004607896 
0.8577077287053285 1:22.55 2:27.445 3:449.5 4:1051.5 5:0.004641612 
0.1585266076289234 1:22.5 2:27.4725 3:460.75 4:1062 5:0.0046321 
0.6635187830413221 1:22.5 2:27.39 3:461 4:1068.3333 5:0.004618087 
0.7310367160443423 1:22.5 2:27.34 3:454 4:1074 5:0.004609594 
0.8389217173096661 1:22.5 2:27.29 3:469 4:1072 5:0.004601102 
0.6600658846158159 1:22.5 2:27.315 3:469 4:1068 5:0.004605348 
0.6051831681006303 1:22.5 2:27.29 3:479.66667 4:1072 5:0.004601102 
0.703890336469508 1:22.5 2:27.2225 3:476.5 4:1074 5:0.004589637 
0.6770063374564917 1:22.5 2:27.15 3:481.5 4:1068.25 5:0.004577324 
0.8323585104266193 1:22.5 2:27.2225 3:474 4:1079.75 5:0.004589637 
0.8801713318056986 1:22.4725 2:27.1975 3:479 4:1085 5:0.004577678 
0.1049383786910345 1:22.5 2:27.166667 3:469 4:1066 5:0.004580154 
0.8747679640695593 1:22.5 2:27.125 3:474 4:1063.5 5:0.004573078 
0.2527007489595288 1:22.5 2:27.15 3:469 4:1065.5 5:0.004577324 
0.8064805662597507 1:22.5 2:27.125 3:474 4:1071.25 5:0.004573078 
0.6047154711312055 1:22.5 2:27.066667 3:479 4:1068 5:0.004563171 
0.2832271593466169 1:22.5 2:27.1 3:478.5 4:1070.75 5:0.004568832 
0.1330903499507147 1:22.5 2:27.1 3:477 4:1072.3333 5:0.004568832 
0.8326939631070165 1:22.5 2:27.025 3:470.25 4:1079.25 5:0.004556095 
0.6037367687925219 1:22.5 2:27 3:469 4:1063.5 5:0.00455185 
0.8148084345543062 1:22.5 2:27 3:460.66667 4:1074.3333 5:0.00455185 
0.733979157567359 1:22.5 2:26.9725 3:465.25 4:1068.75 5:0.00454718 
0.8153212164718477 1:22.5 2:26.733333 3:452.33333 4:1064 5:0.004506567 
0.8485628807426889 1:22.5 2:26.925 3:446.5 4:1048.5 5:0.004539113 
0.8771319942529594 1:22.5 2:27.05 3:460 4:1055.5 5:0.004560341 
0.3963142951867273 1:22.445 2:26.9 3:456 4:1064 5:0.004519625 
0.4495749488995261 1:22.4175 2:26.82 3:456 4:1063.25 5:0.004498504 
0.4813795789796363 1:22.39 2:26.963333 3:444 4:1067.3333 5:0.004515109 
0.2861363022120029 1:22.39 2:26.823333 3:453 4:1077.3333 5:0.004491496 
0.5380837346713125 1:22.356667 2:26.73 3:449.33333 4:1068.3333 5:0.004466625 
0.517346259785306 1:22.39 2:26.5725 3:444 4:1062.75 5:0.004449194 
0.4672955002743948 1:22.39 2:26.675 3:444 4:1056.5 5:0.004466479 
0.5059119179413464 1:22.39 2:26.695 3:444 4:1054 5:0.004469852 
0.3159725925520716 1:22.39 2:26.79 3:444 4:1074 5:0.004485874 
0.738726641667565 1:22.4175 2:26.65 3:444 4:1078.75 5:0.004469785 
0.4400429358328002 1:22.4725 2:26.745 3:429 4:1077.5 5:0.004500966 
0.43900937874998 1:22.445 2:26.695 3:429 4:1077.5 5:0.004484933 
0.8693962405072577 1:22.445 2:26.745 3:429 4:1083.25 5:0.004493394 
0.8706544584794654 1:22.426667 2:26.696667 3:429 4:1088 5:0.004480183 
0.3540017347735711 1:22.39 2:26.5475 3:438 4:1075 5:0.004444978 
0.4897669909268793 1:22.39 2:26.533333 3:441 4:1064 5:0.004442589 
0.7744828727287612 1:22.39 2:26.456 3:438 4:1063.25 5:0.004429549 
0.8771752291645535 1:22.39 2:26.26 3:432.75 4:1065.5 5:0.0043965 
0.04063411753149595 1:22.39 2:26.4175 3:444 4:1073.25 5:0.004423057 
0.6774987990640936 1:22.39 2:26.323333 3:444 4:1060.3333 5:0.004407179 
0.1993489510417331 1:22.39 2:26.015 3:444 4:1056.25 5:0.004355195 
0.879837924346536 1:22.39 2:26.045 3:429 4:1046 5:0.004360252 
0.8167293929846877 1:22.39 2:26.2675 3:438 4:1052.75 5:0.004397765 
0.6606814147475865 1:22.39 2:26.29 3:438 4:1044.5 5:0.004401559 
0.04159714618375985 1:22.39 2:26.323333 3:441 4:1053.6667 5:0.004407179 
0.6809293898916483 1:22.365 2:26.29 3:438 4:1067.25 5:0.004394824 
0.1030891989979532 1:22.34 2:26.39 3:438 4:1068.75 5:0.004404907 
0.5078807389329053 1:22.34 2:26.39 3:447 4:1074.75 5:0.004404907 
0.506706819416431 1:22.365 2:26.4725 3:447 4:1077.5 5:0.004425549 
0.5680890680534127 1:22.315 2:26.3425 3:438 4:1073 5:0.004390193 
0.796764455548995 1:22.29 2:25.7 3:441 4:1045.6667 5:0.004275822 
0.7637004542623885 1:22.29 2:26.22 3:438 4:1041.5 5:0.004362944 
0.7765976247911961 1:22.29 2:26.2425 3:442.5 4:1051 5:0.004366714 
0.3052745421001411 1:22.29 2:26.175 3:442.5 4:1064.75 5:0.004355404 
0.6202580518856866 1:22.29 2:26.1 3:441 4:1054.6667 5:0.004342837 
0.6747274544391962 1:22.29 2:25.995 3:447 4:1042.5 5:0.004325244 
0.5942095695000088 1:22.29 2:25.89 3:447 4:1036.3333 5:0.004307653 
0.8786569208604675 1:22.29 2:25.856667 3:433 4:1038.6667 5:0.004302068 
0.8532828666714064 1:22.23 2:25.666667 3:433 4:1023.6667 5:0.004254563 
0.8537129115207078 1:22.29 2:25.6 3:433 4:1019.5 5:0.004259071 
0.8798446113945338 1:22.245 2:25.55 3:433 4:1010 5:0.004238989 
0.7788008676994889 1:22.29 2:25.566667 3:433 4:1002.3333 5:0.004253488 
0.06598093742128755 1:22.29 2:25.5 3:433 4:1001.5 5:0.004242321 
0.827848610126079 1:22.29 2:25.445 3:433 4:998.5 5:0.004233108 
0.2936636772115676 1:22.29 2:25.2 3:433 4:990.75 5:0.004192075 
0.583703295748996 1:22.29 2:25.23 3:433 4:991 5:0.004197099 
0.8726736731301785 1:22.245 2:25.15 3:433 4:986 5:0.00417218 
0.880331300004263 1:22.29 2:25.2675 3:433 4:976.25 5:0.004203379 
0.879964345095268 1:22.29 2:25.2 3:433 4:966.33333 5:0.004192075 
0.765527981733603 1:22.2225 2:24.865 3:433 4:954.75 5:0.004118903 
0.765738264752815 1:22.26 2:24.826667 3:433 4:951.66667 5:0.004121974 
0.4007039792751664 1:22.245 2:24.89 3:433 4:935.5 5:0.004128762 
0.7261296349886754 1:22.2225 2:24.84 3:433 4:933.25 5:0.004114734 
0.7576511865505268 1:22.2 2:24.7 3:433 4:938 5:0.004085752 
0.4701549217637344 1:22.2 2:24.65 3:433 4:921 5:0.004077427 
0.4409008404738558 1:22.2 2:24.566667 3:433 4:920.33333 5:0.004063552 
0.8620774032058328 1:22.2 2:24.334 3:429.5 4:913 5:0.004024818 
0.5211186714608925 1:22.2 2:24.34 3:433 4:903 5:0.004025817 
0.7217866094836891 1:22.2 2:24.395 3:433 4:905.5 5:0.004034973 
0.255768033545292 1:22.2 2:24.365 3:433 4:900.5 5:0.004029979 
0.6915909948612802 1:22.133333 2:24.29 3:433 4:898.66667 5:0.004001106 
0.8730856192896587 1:22.15 2:24.2225 3:433 4:892 5:0.003993996 
0.433166770036117 1:22.1 2:24.2675 3:433 4:884.25 5:0.003989211 
0.7699815929091228 1:22.1 2:24.245 3:433 4:887 5:0.003985489 
0.7219391819871595 1:22.125 2:24.2675 3:433 4:878.5 5:0.003995333 
0.6104891353068854 1:22.125 2:24.15 3:433 4:882.25 5:0.003975865 
0.1360464518451513 1:22.1 2:24.0725 3:433 4:879.25 5:0.003956952 
0.2435440952165487 1:22.1 2:23.996667 3:433 4:866 5:0.003944408 
0.5143204859898141 1:22.1 2:24.12 3:433 4:866 5:0.00396481 
0.7498359292280071 1:22.066667 2:23.926667 3:433 4:863 5:0.003924796 
0.7128080629017093 1:22.025 2:23.945 3:433 4:853.25 5:0.003917793 
0.8669136625005648 1:22 2:23.926667 3:433 4:858 5:0.003908772 
0.5926982274440645 1:22 2:23.89 3:433 4:850.66667 5:0.003902744 
0.6771676211772557 1:22.025 2:23.9175 3:433 4:847 5:0.003913265 
0.7427180553431899 1:22 2:23.89 3:433 4:840.66667 5:0.003902744 
0.8795401097073476 1:22.075 2:23.9725 3:426 4:839 5:0.003934372 
0.8801197894091045 1:20.2 2:18.6 3:401.33333 4:439 5:0.002715358 
1 1:20.2 2:18.89 3:411 4:459.75 5:0.002757882 
0.854738679803383 1:20.2 2:19.05 3:411 4:464 5:0.002781346 
0.8803526791166856 1:20.2675 2:19.2175 3:400 4:470.25 5:0.0028177 
0.8800602200482167 1:20.29 2:19.2225 3:400 4:483.5 5:0.002822377 
0.8766188780344999 1:20.315 2:19.245 3:413 4:488.66667 5:0.002830085 
0.7366041493319909 1:20.39 2:19.22 3:412.2 4:496.25 5:0.002839577 
0.7477609705354591 1:20.39 2:19.26 3:409 4:496.25 5:0.002845514 
0.03387434025781398 1:20.4175 2:19.29 3:411 4:497 5:0.002854832 
0.6261741804067859 1:20.426667 2:19.163333 3:413 4:504 5:0.002837614 
0.6277355359547144 1:20.4725 2:19.0975 3:411 4:503.25 5:0.00283587 
0.8784829264877585 1:20.525 2:19.315 3:411 4:509.25 5:0.002877666 
0.8798433711672815 1:20.5 2:19.2425 3:405 4:515 5:0.002862376 
0.8802206650255592 1:20.625 2:19.4175 3:405 4:524.5 5:0.002910988 
0.8800322209068945 1:20.65 2:19.4725 3:408.5 4:531 5:0.002923796 
0.8263908154493899 1:20.7 2:19.5 3:418.33333 4:530.33333 5:0.002937022 
0.5216079793668537 1:20.7 2:19.5 3:419 4:533.66667 5:0.002937022 
0.6589513098639266 1:20.7 2:19.575 3:419 4:535.75 5:0.002948372 
0.1672207741987837 1:20.7225 2:19.6 3:419 4:546.25 5:0.00295627 
0.4621581864774415 1:20.7 2:19.533333 3:419 4:547 5:0.002942066 
0.3010286729725637 1:20.79 2:19.4725 3:419 4:546.25 5:0.00294924 
0.8454410056161195 1:20.79 2:19.533333 3:419 4:560 5:0.002958497 
0.8366888307110208 1:20.79 2:19.525 3:419 4:564 5:0.002957229 
0.788710026233697 1:20.815 2:19.625 3:419 4:568.75 5:0.002977048 
0.6698245907980344 1:20.79 2:19.633333 3:419 4:572 5:0.002973716 
0.02308896192015379 1:20.84 2:19.65 3:419 4:573 5:0.002985471 
0.7909760648824375 1:20.89 2:19.72 3:419 4:575.25 5:0.003005434 
0.7802786265851827 1:20.89 2:19.633333 3:423.66667 4:585.33333 5:0.002992162 
0.7546550514333288 1:20.89 2:19.7 3:426 4:587.5 5:0.003002371 
0.8584092397470242 1:20.89 2:19.65 3:422.5 4:591.5 5:0.002994714 
0.6875718248910894 1:20.89 2:19.7 3:426 4:594 5:0.003002371 
0.7029029673487813 1:20.89 2:19.633333 3:428.33333 4:595.33333 5:0.002992162 
0.3959775024669829 1:20.865 2:19.675 3:429.5 4:590.75 5:0.002993912 
0.4782492708671427 1:20.865 2:19.7425 3:429.5 4:589.75 5:0.003004233 
0.8101267001087721 1:20.823333 2:19.666667 3:433 4:591 5:0.002984937 
0.4477833426313796 1:20.89 2:19.7225 3:433 4:595.75 5:0.003005817 
0.5059932061635877 1:20.865 2:19.7225 3:433 4:596.75 5:0.003001175 
0.8103820706363398 1:20.865 2:19.7675 3:433 4:605.5 5:0.003008055 
0.8046106375007847 1:20.84 2:19.745 3:433 4:609 5:0.002999974 
0.7900680352528558 1:20.84 2:19.745 3:433 4:614 5:0.002999974 
0.603585349850794 1:20.865 2:19.7675 3:433 4:617.5 5:0.003008055 
0.723026465108939 1:20.865 2:19.7675 3:433 4:621.25 5:0.003008055 
0.1353791113743141 1:20.89 2:19.79 3:433 4:616.66667 5:0.003016154 
0.1626660689790386 1:20.865 2:19.7675 3:433 4:620 5:0.003008055 
0.7430567339685874 1:20.84 2:19.7675 3:433 4:635.25 5:0.003003409 
0.3162814897886528 1:20.865 2:19.7675 3:433 4:637.5 5:0.003008055 
0.8780929609232561 1:20.84 2:19.745 3:433 4:629.75 5:0.002999974 
0.7385201147057299 1:20.865 2:19.7675 3:433 4:646 5:0.003008055 
0.6005909941130874 1:20.89 2:19.79 3:433 4:655 5:0.003016154 
0.8295474234307744 1:20.9175 2:19.79 3:433 4:650.5 5:0.003021285 
0.314096383329244 1:20.926667 2:19.79 3:433 4:643.66667 5:0.003022998 
0.5300850181109413 1:20.9175 2:19.79 3:433 4:642 5:0.003021285 
0.5569273888126651 1:20.963333 2:19.79 3:433 4:639.33333 5:0.003029855 
0.8785901596769363 1:20.89 2:19.815 3:426 4:649 5:0.003019983 
0.3155855519424038 1:20.89 2:19.79 3:433 4:654 5:0.003016154 
0.8756918222878715 1:20.89 2:19.926667 3:433 4:660 5:0.003037085 
0.880103737662062 1:20.89 2:20.133333 3:442.33333 4:677.33333 5:0.003068739 
0.8798564980478942 1:20.926667 2:20.39 3:442.33333 4:712 5:0.003115109 
0.4484308262647878 1:20.945 2:20.445 3:447 4:708 5:0.003127095 
0.4536266770183118 1:20.945 2:20.55 3:447 4:707.5 5:0.003143236 
0.8800032103118914 1:20.945 2:20.6975 3:447 4:725.75 5:0.003165912 
0.8417865886668326 1:20.9725 2:20.7675 3:438 4:733.25 5:0.003182078 
0.8100413004138675 1:21 2:20.815 3:438 4:740.75 5:0.003194817 
0.8075628670784123 1:21 2:20.865 3:438 4:744.25 5:0.003202531 
0.5106366805257121 1:21 2:20.79 3:440 4:759 5:0.00319096 
0.6816770785899728 1:21 2:20.815 3:437.25 4:752.25 5:0.003194817 
0.5921175126229754 1:21 2:20.865 3:438 4:754.5 5:0.003202531 
0.3848848466095864 1:21.025 2:20.945 3:440.25 4:758.5 5:0.003219843 
0.8669926566816788 1:21.05 2:21 3:436.5 4:764 5:0.003233331 
0.8683435432241084 1:21.05 2:21.05 3:441 4:765.25 5:0.003241069 
0.8540899078028976 1:21.1 2:21.15 3:436.5 4:769.75 5:0.003266618 
0.3969499165469654 1:21.1 2:21.29 3:444 4:786 5:0.003288355 
0.1233648016513788 1:21.1 2:21.2225 3:444 4:783.25 5:0.003277875 
0.5339406155459915 1:21.1 2:21.2 3:444 4:787.66667 5:0.003274381 
0.623299991311715 1:21.1 2:21.2 3:448 4:786.75 5:0.003274381 
0.7295726802506298 1:21.1 2:21.2 3:444 4:782.5 5:0.003274381 
0.6982384990861344 1:21.1 2:21.1 3:454.75 4:779.75 5:0.003258855 
0.8764668220383653 1:21.1 2:21.1 3:460 4:779.33333 5:0.003258855 
0.8578123740877335 1:21.175 2:21.075 3:449.5 4:782.75 5:0.003270077 
0.1875118843302431 1:21.15 2:21.05 3:449.5 4:787.5 5:0.003261142 
0.7348582605841461 1:21.2 2:21.075 3:454.75 4:777 5:0.003275125 
0.6889229143392737 1:21.2 2:21.066667 3:449.33333 4:789.66667 5:0.003273823 
0.4830998075369191 1:21.175 2:21.075 3:460 4:805.25 5:0.003270077 
0.8746913564499246 1:21.2 2:20.9975 3:456 4:801.25 5:0.003263018 
0.7930344436983084 1:21.29 2:20.963333 3:453 4:788.33333 5:0.003275814 
0.6951964212376037 1:21.2675 2:21 3:460 4:794.5 5:0.003277024 
0.7653351636682261 1:21.29 2:21 3:460 4:797.5 5:0.003281574 
0.5634037044028025 1:21.29 2:21 3:450.75 4:812.5 5:0.003281574 
0.8574446580602041 1:21.29 2:21.033333 3:454.66667 4:813.66667 5:0.00328681 
0.7651619820083004 1:21.315 2:20.9725 3:444 4:809.25 5:0.003282309 
0.7645086274679121 1:21.29 2:21 3:444 4:812.33333 5:0.003281574 
0.5389543929317295 1:21.29 2:21.033333 3:454.66667 4:807.66667 5:0.00328681 
0.8710951768378357 1:21.315 2:21 3:460 4:810.5 5:0.003286635 
0.4936701241225287 1:21.325 2:20.978 3:456 4:808 5:0.003285198 
0.4237833550121933 1:21.31 2:20.956 3:460 4:804.5 5:0.003278702 
0.8799961137007615 1:21.34 2:20.995 3:449.5 4:801.25 5:0.003290916 
0.6141185722379107 1:21.34 2:21.1 3:449.5 4:811 5:0.003307462 
0.8746275022694388 1:21.29 2:21.245 3:460 4:821.5 5:0.003320063 
0.8698562324100547 1:21.34 2:21.2675 3:455.5 4:830.25 5:0.003333858 
0.8791717650063937 1:21.34 2:21.2 3:449.5 4:831 5:0.003323221 
0.812510810679848 1:21.29 2:21.29 3:460 4:837 5:0.003327133 
0.8436170124026533 1:21.315 2:21.29 3:460 4:841 5:0.003332265 
0.797606379584435 1:21.39 2:21.34 3:460 4:847 5:0.003355608 
0.8724187442092447 1:21.39 2:21.2475 3:449.5 4:839.5 5:0.003340985 
0.7631701239484125 1:21.365 2:21.3175 3:454.75 4:844.5 5:0.003346891 
0.4584374866227283 1:21.39 2:21.2 3:457 4:847 5:0.003333476 
0.5421906927207674 1:21.39 2:21.2675 3:454 4:847.75 5:0.003344147 
0.4290786030948314 1:21.39 2:21.34 3:449.5 4:848.5 5:0.003355608 
0.4436595963881317 1:21.34 2:21.445 3:449.5 4:848.5 5:0.003361833 
0.8791375879340053 1:21.39 2:21.39 3:454 4:854.25 5:0.003363513 
0.2869573225857667 1:21.34 2:21.1475 3:455.5 4:848.25 5:0.003314947 
0.7091209002394476 1:21.356667 2:21.2 3:468 4:844.33333 5:0.003326636 
0.5426130980142733 1:21.29 2:21.2 3:454 4:836.5 5:0.003312993 
0.523202630024005 1:21.323333 2:21.2 3:454 4:838 5:0.003319808 
0.7618541540226903 1:21.315 2:21.125 3:469 4:841.5 5:0.003306302 
0.6090780117087186 1:21.34 2:21 3:469 4:832 5:0.003291704 
0.2647151608099199 1:21.315 2:20.865 3:469 4:825 5:0.003265396 
0.3055215081158656 1:21.315 2:20.9175 3:465.25 4:824 5:0.003273655 
0.5143378744895882 1:21.29 2:21.175 3:475.25 4:826.75 5:0.003309066 
0.3816801805326177 1:21.29 2:21.1 3:464 4:824 5:0.003297283 
0.8531931889106877 1:21.29 2:21.2 3:459 4:827.5 5:0.003312993 
0.7704636426041012 1:21.365 2:21.17 3:474 4:845.6 5:0.00332361 
0.8676558215338877 1:21.39 2:20.79 3:492.33333 4:837.33333 5:0.003268669 
0.4089199173254011 1:21.323333 2:21.066667 3:474 4:825.66667 5:0.003298818 
0.8803269136016807 1:21.4725 2:21.0475 3:504 4:832.25 5:0.003326228 
0.8799402196153966 1:21.5 2:21.1 3:539.5 4:843 5:0.00334022 
0.8688668318942506 1:21.5 2:20.725 3:509 4:839 5:0.003280543 
0.8783339748521414 1:21.5 2:20.84 3:528.5 4:832.5 5:0.003298842 
0.8793696756891319 1:21.6 2:21.0225 3:499 4:840 5:0.003348428 
0.836558222983284 1:21.65 2:20.9175 3:497.75 4:850 5:0.003341874 
0.8652242967199809 1:21.675 2:21.1 3:500.25 4:853.75 5:0.003376376 
0.820338231572458 1:21.7 2:21 3:489 4:852 5:0.003365456 
0.8274754890385682 1:21.7 2:20.9725 3:490.25 4:856.25 5:0.003361025 
0.8339869851141184 1:21.7 2:20.945 3:494 4:854.5 5:0.003356594 
0.4438869705415499 1:21.7 2:20.815 3:481.5 4:850.75 5:0.003335649 
0.8249656032250869 1:21.7 2:20.8925 3:484 4:844.5 5:0.003348135 
0.1830467071663113 1:21.7 2:21.075 3:482.75 4:850.75 5:0.00337754 
0.50040201040642 1:21.73 2:20.89 3:477.33333 4:861 5:0.003353911 
0.3189835856108347 1:21.73 2:20.93 3:477.33333 4:865 5:0.003360367 
0.8776215808758311 1:21.7675 2:20.795 3:485.25 4:860.75 5:0.003346278 
0.8082460923267134 1:21.754 2:20.896 3:485.25 4:853.25 5:0.00335983 
0.3049552374629015 1:21.73 2:20.7 3:482.75 4:849.75 5:0.003323243 
0.8402069149384109 1:21.79 2:20.945 3:464 4:844.5 5:0.003375208 
0.5813898663767501 1:21.7225 2:20.87 3:479 4:846.75 5:0.003349138 
0.687182808787677 1:21.745 2:20.7225 3:476.75 4:852.5 5:0.003329942 
0.6783149080827205 1:21.7 2:20.7675 3:480 4:854.75 5:0.003327996 
0.2298740063997668 1:21.73 2:20.73 3:479 4:852.66667 5:0.003328085 
0.4466289025064871 1:21.7225 2:20.7 3:479 4:848.25 5:0.003321712 
0.7417098564675274 1:21.7225 2:20.7 3:485.25 4:848 5:0.003321712 
0.4944793182077009 1:21.7 2:20.6 3:489 4:846 5:0.003301012 
0.5535858767841283 1:21.7 2:20.745 3:489 4:844.5 5:0.003324371 
0.4569875220316308 1:21.7675 2:20.7925 3:471.5 4:846.75 5:0.003345873 
0.7088769718071097 1:21.76 2:20.73 3:471 4:849 5:0.003334225 
0.8660247213666874 1:21.79 2:20.55 3:487.75 4:837 5:0.003311217 
0.4183117335884359 1:21.79 2:20.5 3:467.66667 4:830.33333 5:0.003303117 
0.4357651507636477 1:21.79 2:20.65 3:469.25 4:829.5 5:0.003327416 
0.8005326696843542 1:21.73 2:20.566667 3:462.33333 4:830.66667 5:0.003301723 
0.7507900059205153 1:21.79 2:20.6 3:462.75 4:834.25 5:0.003319316 
0.04006572264036028 1:21.79 2:20.6225 3:462.75 4:833.5 5:0.003322961 
0.6691504305862856 1:21.79 2:20.5 3:472.33333 4:827.66667 5:0.003303117 
0.5262974238505482 1:21.79 2:20.678 3:485 4:821.25 5:0.003331952 
0.8149856151944126 1:21.745 2:20.5 3:479 4:822.33333 5:0.003293999 
0.8263499161135408 1:21.745 2:20.6 3:471.5 4:821.75 5:0.003310153 
0.5913862995856576 1:21.7 2:20.666667 3:464 4:826 5:0.003311751 
0.7271620016956994 1:21.7 2:20.6 3:479 4:832 5:0.003301012 
0.3525125406654165 1:21.7 2:20.6 3:469 4:824 5:0.003301012 
0.3825699655123576 1:21.7 2:20.6 3:467.75 4:825.25 5:0.003301012 
0.7251204565103143 1:21.7 2:20.625 3:481.5 4:830.75 5:0.003305039 
0.7943652595236456 1:21.7225 2:20.6 3:479 4:826 5:0.003305579 
1 1:21.76 2:20.533333 3:490.66667 4:818.33333 5:0.003302425 
0.8796263912783719 1:21.7225 2:20.525 3:502.75 4:815.75 5:0.003293481 
0.7822791690020737 1:21.7 2:20.46 3:507 4:801 5:0.003278459 
0.8544718971989768 1:21.7 2:20.4425 3:467.75 4:801 5:0.00327564 
0.8408701232369076 1:21.7 2:20.39 3:464 4:803 5:0.003267184 
0.8745295667295481 1:21.7 2:20.39 3:469 4:795.66667 5:0.003267184 
0.8320121023892697 1:21.7 2:20.4175 3:464 4:794 5:0.003271613 
0.6709347187199539 1:21.7 2:20.5 3:471 4:787 5:0.003284903 
0.7431399049818691 1:21.7 2:20.39 3:481.5 4:788 5:0.003267184 
0.7439840816547929 1:21.7 2:20.39 3:479 4:786.5 5:0.003267184 
0.5790110163305389 1:21.7 2:20.39 3:469 4:788.33333 5:0.003267184 
0.8792703237000149 1:21.7 2:20.39 3:469 4:781 5:0.003267184 
0.7962580501510439 1:21.65 2:20.365 3:457.75 4:788.75 5:0.003253143 
0.7644388735558447 1:21.633333 2:20.323333 3:460.66667 4:790.66667 5:0.003243127 
0.8225229159986615 1:21.65 2:20.34 3:465.5 4:789.5 5:0.003249129 
0.8787754667093371 1:21.675 2:20.4175 3:477.75 4:792.5 5:0.00326659 
0.8474104152883236 1:21.65 2:20.2475 3:487.75 4:789.5 5:0.003234276 
0.7824126335700832 1:21.7 2:20.4725 3:490.25 4:792.6 5:0.003280473 
0.7535024921431744 1:21.7 2:20.426667 3:484 4:800 5:0.00327309 
0.5927213170935726 1:21.7 2:20.32 3:491.5 4:795.75 5:0.003255909 
0.5456280286362415 1:21.675 2:20.4175 3:501.5 4:802 5:0.00326659 
0.6801936232110924 1:21.7 2:20.39 3:494 4:796.25 5:0.003267184 
0.409258741780784 1:21.7 2:20.4175 3:513.75 4:800.25 5:0.003271613 
0.8763440955749766 1:21.7 2:20.39 3:514 4:793 5:0.003267184 
0.4062955297444491 1:21.7 2:20.5 3:514 4:800.5 5:0.003284903 
0.8796470914967047 1:21.7 2:20.426667 3:507.33333 4:808 5:0.00327309 
0.8337909963257196 1:21.7 2:20.39 3:512.75 4:804 5:0.003267184 
0.8795153109824131 1:21.7 2:20.34 3:528.5 4:798.5 5:0.00325913 
0.7670241663880515 1:21.7225 2:20.315 3:541.5 4:806.25 5:0.003259607 
0.8763644053813507 1:21.7 2:20.2475 3:533.75 4:802.5 5:0.003244231 
0.8791503680470554 1:21.73 2:20.293333 3:504 4:794.33333 5:0.003257613 
0.8395194614536752 1:21.79 2:20.3425 3:494 4:800.25 5:0.003277606 
0.5455571794488429 1:21.7675 2:20.3175 3:496.5 4:806 5:0.003269036 
0.524660579835011 1:21.79 2:20.245 3:496.5 4:804.5 5:0.003261814 
0.572957864775585 1:21.79 2:20.295 3:504 4:801 5:0.003269913 
0.582643008584646 1:21.79 2:20.295 3:489 4:801.5 5:0.003269913 
0.8289437557849293 1:21.79 2:20.2675 3:489 4:805 5:0.003265458 
0.875783304019375 1:21.79 2:20.23 3:518.66667 4:802.33333 5:0.003259385 
0.4468994361239285 1:21.79 2:20.2925 3:486.5 4:799.5 5:0.003269508 
1 1:21.79 2:20.245 3:471.5 4:806 5:0.003261814 
0.8528343884696816 1:21.73 2:20.356667 3:474 4:812.66667 5:0.003267833 
0.668893647568001 1:21.745 2:20.34 3:484 4:816.5 5:0.003268155 
0.8659804357842077 1:21.7675 2:20.545 3:479 4:817.5 5:0.003305835 
0.8753099464270997 1:21.79 2:20.39 3:479 4:811.33333 5:0.0032853 
0.4513714419744751 1:21.745 2:20.39 3:484 4:820.75 5:0.003276231 
0.7727791370910786 1:21.745 2:20.4725 3:486.5 4:815.5 5:0.003289557 
0.8796546075503984 1:21.745 2:20.445 3:499 4:821 5:0.003285115 
0.8802004897925578 1:21.745 2:20.4425 3:511.5 4:821.5 5:0.003284711 
0.8801623116532491 1:21.7 2:20.495 3:521.5 4:813 5:0.003284097 
0.5612255015405259 1:21.73 2:20.29 3:489 4:799 5:0.003257076 
0.6758798659174252 1:21.7 2:20.356667 3:500.66667 4:799.66667 5:0.003261815 
0.8515065831453564 1:21.7 2:20.2675 3:511 4:797.25 5:0.003247453 
0.8417493996405689 1:21.7 2:20.2 3:494 4:780.25 5:0.003236581 
0.8414698095544495 1:21.7 2:20.166667 3:497.33333 4:782.33333 5:0.003231212 
0.8801101557264044 1:21.7 2:20.14 3:492 4:773.5 5:0.003226917 
0.7090612454183916 1:21.7 2:20.15 3:509 4:771.66667 5:0.003228528 
0.7098969119942889 1:21.7 2:20 3:509 4:769 5:0.00320437 
0.8709188286399379 1:21.7 2:20 3:495.25 4:763 5:0.00320437 
0.8710675135522197 1:21.7 2:20 3:499 4:760 5:0.00320437 
0.8797716463791706 1:21.7 2:20.1 3:489 4:752 5:0.003220475 
0.8802298961460396 1:21.7 2:20.125 3:481.25 4:757.5 5:0.003224501 
0.8797328368506562 1:21.7 2:20 3:377.75 4:757.75 5:0.00320437 
0.8798391147044213 1:21.29 2:19.745 3:293.5 4:662.25 5:0.003084488 
0.8800863344880402 1:21.29 2:19.7 3:440 4:660 5:0.003077424 
0.5042419037140988 1:21.29 2:19.625 3:483.75 4:662.5 5:0.00306565 
0.8691078281709373 1:21.29 2:19.575 3:492.75 4:658.75 5:0.003057801 
0.8541137037967389 1:21.29 2:19.6 3:499 4:659.25 5:0.003061725 
0.8798573265482194 1:21.29 2:19.6 3:479 4:653.5 5:0.003061725 
0.808707493487325 1:21.29 2:19.55 3:486.5 4:658.5 5:0.003053876 
0.7495934481122332 1:21.29 2:19.4175 3:489 4:656 5:0.003033078 
0.8326335461095562 1:21.29 2:19.525 3:490.25 4:652.5 5:0.003049952 
0.4862336655177235 1:21.39 2:19.5 3:495 4:665.25 5:0.003064852 
0.8570851262721619 1:21.39 2:19.5 3:480.66667 4:660 5:0.003064852 
0.5859763549188874 1:21.39 2:19.5 3:485.25 4:663.25 5:0.003064852 
0.4868685469090551 1:21.445 2:19.5 3:494 4:665 5:0.003075249 
0.8799754059902393 1:21.5 2:19.5 3:500.66667 4:668.66667 5:0.003085676 
0.4647538948071466 1:21.5 2:19.4725 3:508.5 4:667 5:0.003081303 
0.7988388988759033 1:21.5 2:19.445 3:508.5 4:664 5:0.00307693 
0.8551241146169036 1:21.5 2:19.4175 3:500.25 4:655.25 5:0.003072557 
0.874082631373187 1:21.5 2:19.445 3:516.5 4:659 5:0.00307693 
0.9942927711996634 1:21.5 2:19.365 3:536.5 4:656.25 5:0.003064209 
0.8744543975695891 1:21.5 2:19.29 3:516.25 4:654 5:0.003052283 
0.8800134761751148 1:21.7 2:19.34 3:541.5 4:640 5:0.003098099 
0.91201781607407 1:21.64 2:19.31 3:549.4 4:645.5 5:0.003081885 
0.8793955975471944 1:21.7 2:19.166667 3:509 4:646 5:0.003070196 
0.8802012398897103 1:21.675 2:19.125 3:523.75 4:637.25 5:0.003058786 
0.8697004452672286 1:21.7 2:19.12 3:559.5 4:632.25 5:0.003062684 
0.7856952597758849 1:21.633333 2:19.03 3:549.25 4:623.25 5:0.003035734 
0.4859123800490068 1:21.666667 2:19.2 3:525.33333 4:624 5:0.003069269 
0.8798838453692917 1:21.7 2:19.075 3:545.5 4:634.25 5:0.00305544 
0.7852295205592191 1:21.7 2:19.1 3:551 4:626 5:0.003059464 
0.8713306647515722 1:21.7225 2:19.1 3:586 4:629 5:0.003063696 
0.871315057115853 1:21.745 2:19.05 3:581.75 4:626.75 5:0.003059863 
0.8299902232540941 1:21.76 2:19.066667 3:557.66667 4:626.66667 5:0.003065375 
0.8798511691899288 1:21.79 2:18.993333 3:571 4:631 5:0.003059158 
0.8204242676724737 1:21.79 2:19.05 3:555.5 4:629.75 5:0.00306833 
0.4865347742920493 1:21.7675 2:19 3:525.25 4:625 5:0.003056012 
0.8794990038689906 1:21.7675 2:19 3:543.75 4:626 5:0.003056012 
0.8788695343499824 1:21.79 2:19 3:563.5 4:627 5:0.003060237 
0.8743818092019446 1:21.76 2:19.033333 3:553.33333 4:642.33333 5:0.00305999 
0.8822664650837623 1:21.79 2:19.1 3:546.5 4:654.5 5:0.003076423 
0.8798472440380547 1:21.79 2:19.2 3:524 4:658.5 5:0.00309261 
0.6824851930002068 1:21.79 2:19.2 3:509 4:669 5:0.00309261 
0.8798448207100062 1:21.823333 2:19.23 3:537.66667 4:673 5:0.003103811 
0.8798376201142314 1:21.89 2:19.323333 3:524 4:680 5:0.003131738 
0.879962791760973 1:21.815 2:19.3675 3:543.25 4:683.5 5:0.003124517 
0.880351612737165 1:21.89 2:19.5 3:534.66667 4:688.33333 5:0.003160516 
0.87986657542688 1:21.89 2:19.55 3:526 4:709.75 5:0.003168661 
0.8798658852109874 1:21.89 2:19.675 3:522 4:717.75 5:0.003189025 
0.8798481709895161 1:21.89 2:19.5 3:549.5 4:717 5:0.003160516 
0.8148570450187415 1:21.89 2:19.76 3:552.33333 4:731 5:0.003202874 
0.8617522812122221 1:21.945 2:19.79 3:551 4:735.5 5:0.003218604 
0.8246113497302116 1:22 2:19.79 3:538.33333 4:735.66667 5:0.003229478 
0.8178163268093877 1:22 2:19.7175 3:555.25 4:733.25 5:0.003217586 
0.8571866074579876 1:22 2:19.7675 3:570 4:724.75 5:0.003225787 
0.8568297867074269 1:22 2:19.84 3:570 4:729 5:0.00323768 
0.8242344939000471 1:22 2:19.87 3:535.5 4:738 5:0.003242601 
0.8803157009411564 1:22 2:20 3:559.33333 4:756.33333 5:0.003263927 
0.8204681582619963 1:22 2:20 3:566 4:763.75 5:0.003263927 
0.8681720618549295 1:22.05 2:20.05 3:557.25 4:773.75 5:0.003282176 
0.6717009522384165 1:22.066667 2:20.066667 3:562 4:766 5:0.003288276 
0.831294825782714 1:22.1 2:20.075 3:566.25 4:760 5:0.003296375 
0.6852724164520827 1:22.1 2:20.1975 3:562 4:768.5 5:0.003316597 
0.7447826653420767 1:22.1 2:20.133333 3:554.33333 4:767.66667 5:0.003306005 
0.723578018066065 1:22.125 2:20.3175 3:556.75 4:769.25 5:0.003341523 
0.8801480053498061 1:22.15 2:20.5 3:555 4:790 5:0.003376868 
0.8775793493518037 1:22.166667 2:20.463333 3:543.66667 4:799.66667 5:0.003374239 
0.5205423504768528 1:22.2 2:20.445 3:539 4:804.5 5:0.003378088 
0.6774388942945271 1:22.2 2:20.65 3:539 4:802.25 5:0.003412146 
0.8797797181056969 1:22.2 2:20.7225 3:539 4:816.75 5:0.003424191 
0.8546183383859763 1:22.2 2:20.55 3:541.75 4:810.33333 5:0.003395532 
0.8730151671437814 1:22.2 2:20.7225 3:530.5 4:827 5:0.003424191 
0.8727262207487042 1:22.175 2:20.745 3:534.25 4:830.25 5:0.003422685 
0.8798495428113728 1:22.2 2:20.663333 3:512 4:832 5:0.003414361 
0.8687800186509237 1:22.2 2:20.745 3:513.5 4:840 5:0.00342793 
0.8517361663077717 1:22.133333 2:20.823333 3:498.66667 4:846 5:0.003426922 
0.8535490041557477 1:22.166667 2:20.856667 3:528 4:853.33333 5:0.003439455 
0.853350880781975 1:22.175 2:20.8975 3:528 4:857.5 5:0.003447985 
0.8802243801349335 1:22.2 2:20.7 3:513 4:860 5:0.003420453 
0.5363486220317931 1:22.2 2:20.945 3:523.5 4:863.5 5:0.003461162 
0.5384624652695197 1:22.2 2:20.92 3:523.5 4:865 5:0.003457008 
0.8800572247229925 1:22.2 2:21.1475 3:526 4:875 5:0.003494813 
0.8791478611102073 1:22.2 2:21.34 3:528.75 4:888.25 5:0.003526806 
0.5154604586819012 1:22.2 2:21.3175 3:528.75 4:894 5:0.003523066 
0.5192171446448582 1:22.2 2:21.29 3:528.66667 4:895.33333 5:0.003518496 
0.7467926437203801 1:22.2 2:21.4175 3:518 4:893 5:0.003539687 
0.7563222368275504 1:22.175 2:21.445 3:518 4:890 5:0.003538834 
0.8451871489454059 1:22.166667 2:21.463333 3:518 4:898 5:0.003540069 
0.7743166186637529 1:22.175 2:21.39 3:513.5 4:899.25 5:0.003529707 
0.7781441411659162 1:22.2 2:21.5 3:513.5 4:896 5:0.0035534 
0.8664610668311028 1:22.2 2:21.2925 3:518.75 4:902.5 5:0.003518911 
0.4482866700986355 1:22.2 2:21.445 3:509 4:904.5 5:0.003544258 
0.4540689917304947 1:22.2 2:21.5 3:509 4:905 5:0.0035534 
0.8801207375825124 1:22.2 2:21.575 3:512.75 4:910.75 5:0.003565866 
0.8758307385766758 1:22.2 2:21.666667 3:509 4:923.66667 5:0.003581104 
0.8761088465876519 1:22.2 2:21.7675 3:508.75 4:930 5:0.003597866 
0.8731456684715369 1:22.15 2:21.745 3:514 4:930.5 5:0.003583133 
0.8727186883487315 1:22.2 2:21.7 3:514 4:925.25 5:0.003586645 
0.3813385497302572 1:22.125 2:21.7475 3:499 4:922 5:0.003578061 
0.6986987596078392 1:22.1 2:21.77 3:499 4:924 5:0.0035763 
0.7768394856465041 1:22.1 2:21.496667 3:499 4:919.33333 5:0.003531142 
0.316976640713914 1:22.1 2:21.1475 3:499 4:893.5 5:0.003473466 
0.6363001887534795 1:22.1 2:21.67 3:496.5 4:884.5 5:0.003559778 
0.8764222388188351 1:22.1 2:21.84 3:499 4:914 5:0.003587865 
0.8801957779360446 1:22.1 2:21.633333 3:490.66667 4:925 5:0.00355372 
0.8421257474018914 1:22.1 2:21.575 3:500.25 4:884.25 5:0.003544083 
0.4591050641975805 1:22.1 2:21.6 3:499 4:893.33333 5:0.003548213 
0.6936824964794771 1:22.1 2:21.625 3:496.5 4:895 5:0.003552343 
0.8833312050999262 1:22.1 2:21.2925 3:489 4:889.75 5:0.003497416 
0.7987683719223756 1:22.1 2:21.15 3:489 4:880.5 5:0.003473879 
0.877869168424944 1:22.075 2:21.2225 3:489 4:864.75 5:0.003480516 
0.8741078969029594 1:22.05 2:21.3975 3:484 4:868.5 5:0.003504003 
0.8630529896807124 1:22.066667 2:21.493333 3:487.33333 4:876.33333 5:0.003523384 
0.8553753376998229 1:22.075 2:21.3925 3:484 4:880.5 5:0.003508554 
0.8075784626711393 1:22.033333 2:21.566667 3:487.33333 4:883.66667 5:0.003528255 
0.8729973678945289 1:22.1 2:21.595 3:484 4:892 5:0.003547387 
0.7040044926409693 1:22.1 2:21.225 3:494 4:884.5 5:0.003486267 
0.4275219943335208 1:22.1 2:21.533333 3:479 4:882.33333 5:0.0035372 
0.8801885762597301 1:22.1 2:21.3925 3:486.5 4:908.5 5:0.003513935 
0.8742932189884639 1:22.1 2:21.163333 3:479 4:892.33333 5:0.003476081 
0.8603418503934868 1:22.1 2:21.365 3:479 4:878.25 5:0.003509392 
0.7965664632381125 1:22.1 2:21.066667 3:479 4:870 5:0.003460116 
0.6167219461852781 1:22.1 2:20.963333 3:479 4:866.66667 5:0.00344305 
0.5768433649078323 1:22.1 2:21.26 3:479 4:863.33333 5:0.003492048 
0.5504162739048728 1:22.1 2:21.445 3:479 4:883.5 5:0.003522607 
0.8793182904138792 1:22.1 2:21.445 3:475.25 4:901.75 5:0.003522607 
0.8286424523766425 1:22.1 2:21.2475 3:471.5 4:896.5 5:0.003489983 
0.8740787806919297 1:22.066667 2:21.066667 3:464 4:876.33333 5:0.003453053 
0.7548309467667103 1:22 2:20.795 3:474.5 4:873.5 5:0.003394376 
0.159145816244461 1:22 2:20.963333 3:478 4:854 5:0.003422005 
0.7998292049002116 1:22 2:21.2425 3:474.5 4:865.25 5:0.003467829 
0.7401206272290879 1:22 2:20.94 3:474.5 4:870.5 5:0.003418175 
0.6973883617490736 1:22 2:21.156667 3:478 4:858.66667 5:0.003453739 
0.06324321576342785 1:22.008333 2:21.084167 3:478.3 4:861.63333 5:0.003443598 
0.2634044274353358 1:22 2:21.15 3:469 4:877.75 5:0.003452645 
0.5186926689890878 1:22 2:20.8675 3:469 4:867.75 5:0.003406275 
0.8800442871940052 1:22 2:20.945 3:469 4:861 5:0.003418996 
0.5121664314827411 1:22 2:21.32 3:469 4:866.5 5:0.003480552 
0.6885528351881622 1:22 2:21.3925 3:469 4:880.75 5:0.003492454 
0.7795402440005103 1:22 2:21.2725 3:469 4:874 5:0.003472754 
0.8661124147850539 1:21.9725 2:21.3925 3:469 4:901.25 5:0.003486567 
0.8223813285541559 1:21.963333 2:21.29 3:469 4:893.66667 5:0.003467818 
0.4874761130033827 1:21.89 2:21.1725 3:469 4:886.5 5:0.003433088 
0.1266068028421484 1:21.89 2:21.323333 3:469 4:879 5:0.003457681 
0.6380217659715632 1:21.89 2:21.39 3:469 4:884.25 5:0.003468552 
0.02708450734306057 1:21.89 2:21.22 3:469 4:875.75 5:0.003440832 
0.3947714022780136 1:21.89 2:21.34 3:469 4:877 5:0.003460399 
0.875982334589087 1:21.89 2:21.1725 3:454 4:871.75 5:0.003433088 
0.875960421937796 1:21.89 2:21.5225 3:454 4:880.5 5:0.003490158 
0.4941339388040668 1:21.89 2:21.39 3:454 4:895.66667 5:0.003468552 
0.8784126474056726 1:21.865 2:21.32 3:459.25 4:883 5:0.003451835 
0.7014371859159825 1:21.89 2:21.496667 3:468 4:889 5:0.003485945 
0.5238833957976616 1:21.865 2:21.3175 3:464.5 4:890.5 5:0.003451428 
0.8768152884215241 1:21.84 2:21.4425 3:464.5 4:913.75 5:0.003466454 
0.8591260809118224 1:21.79 2:21.1975 3:464.5 4:902.5 5:0.003416121 
0.8736653579613392 1:21.745 2:21.1725 3:457 4:876 5:0.003402649 
0.3326864901678569 1:21.79 2:21.445 3:464.5 4:890 5:0.003456229 
0.324929318014516 1:21.745 2:21.34 3:453.25 4:893 5:0.003429717 
0.6385599256866654 1:21.73 2:21.293333 3:453 4:891.66667 5:0.003419022 
0.6525424214637299 1:21.7225 2:21.5225 3:454.75 4:897.5 5:0.00345443 
0.7902366720927049 1:21.7225 2:21.5225 3:460 4:903.75 5:0.00345443 
0.1260926447599606 1:21.7 2:21.34 3:460 4:908.5 5:0.003420244 
0.6386587417497852 1:21.73 2:21.566667 3:460 4:907 5:0.003463155 
0.7666277771187928 1:21.7225 2:21.525 3:460 4:910.5 5:0.003454834 
0.8624251808037831 1:21.745 2:21.675 3:460 4:917.25 5:0.003483859 
0.618863403401575 1:21.79 2:21.6 3:460 4:926.5 5:0.00348135 
0.3971442389110287 1:21.79 2:21.55 3:460 4:925 5:0.003473246 
0.813421765657579 1:21.79 2:21.633333 3:460 4:921.66667 5:0.003486752 
0.8802689372541126 1:21.7675 2:21.7675 3:460 4:934 5:0.003503651 
0.8789211621785705 1:21.7675 2:21.865 3:460 4:947.25 5:0.003519434 
0.8788030876417159 1:21.79 2:21.823333 3:460 4:953 5:0.003517549 
0.8793037886871841 1:21.79 2:21.945 3:460 4:959.5 5:0.003537271 
0.7277572024516837 1:21.76 2:21.826667 3:449.33333 4:944 5:0.00351161 
0.7076513041623449 1:21.7225 2:21.8925 3:444 4:953.5 5:0.003514152 
0.6263068601222278 1:21.7 2:21.823333 3:444 4:948.66667 5:0.003498145 
0.4574801906422397 1:21.7225 2:21.97 3:444 4:951.25 5:0.003526663 
0.7226436089266837 1:21.79 2:22.05 3:444 4:961.5 5:0.003554292 
0.7230026170992401 1:21.79 2:21.775 3:444 4:964.25 5:0.003509714 
0.7696352873853021 1:21.79 2:21.793333 3:444 4:945.66667 5:0.003512686 
0.6231191057168166 1:21.7675 2:21.79 3:444 4:935 5:0.003507293 
0.7685640477868931 1:21.79 2:21.745 3:444 4:938 5:0.003504852 
0.7763501528561941 1:21.7675 2:21.89 3:444 4:932 5:0.00352348 
0.7088561421949365 1:21.79 2:21.79 3:447.4 4:942 5:0.003512146 
0.7577614662126229 1:21.79 2:21.79 3:450.66667 4:935 5:0.003512146 
0.7419442156460194 1:21.79 2:21.79 3:449 4:937.5 5:0.003512146 
0.8597608888001336 1:21.79 2:21.65 3:438 4:927.25 5:0.003489454 
0.720789120873138 1:21.79 2:21.6 3:438 4:916.5 5:0.00348135 
0.8800024173900656 1:21.79 2:21.7 3:441 4:910 5:0.003497558 
0.841029679525871 1:21.79 2:21.65 3:437.25 4:923 5:0.003489454 
0.6846746282216415 1:21.84 2:21.65 3:436.5 4:918.75 5:0.003500188 
0.8646614340004912 1:21.84 2:21.6 3:429 4:904 5:0.003492059 
0.7483950199113941 1:21.79 2:21.395 3:432.75 4:901 5:0.003448126 
0.7661746008894785 1:21.79 2:21.6 3:438 4:893 5:0.00348135 
0.6795398300400722 1:21.745 2:21.575 3:438 4:890 5:0.003467696 
0.6035280567960428 1:21.7225 2:21.5475 3:438 4:886.5 5:0.003458465 
0.758446583653873 1:21.7 2:21.426667 3:441 4:887 5:0.003434211 
0.7978300298911555 1:21.7 2:21.525 3:438 4:883.25 5:0.003450059 
0.8798879162843166 1:21.7 2:21.445 3:438 4:874 5:0.003437165 
0.6540214816569039 1:21.7 2:21.575 3:447 4:874 5:0.003458117 
0.6598945445315307 1:21.7 2:21.533333 3:447 4:871.66667 5:0.003451402 
0.8772305303343642 1:21.7 2:21.6 3:447 4:879.25 5:0.003462147 
0.8794859645054436 1:21.7 2:21.5 3:443.5 4:859.75 5:0.00344603 
0.6830366740399125 1:21.7 2:21.2675 3:433 4:848.25 5:0.00340856 
0.5511370770365761 1:21.6 2:21.39 3:433 4:841.66667 5:0.003407283 
0.6612284499939165 1:21.6 2:21.323333 3:433 4:844.33333 5:0.003396605 
0.8801834381266569 1:21.6 2:21.29 3:433 4:831.66667 5:0.003391267 
0.7809562872295508 1:21.6 2:21.2675 3:433 4:822.25 5:0.003387663 
0.6506462237230111 1:21.6 2:21.2 3:433 4:817.5 5:0.003376853 
0.4151798839087634 1:21.65 2:21.2 3:433 4:819.5 5:0.003387254 
0.6277971450799349 1:21.65 2:21.125 3:433 4:811.75 5:0.003375206 
0.5581755296458135 1:21.675 2:21.175 3:433 4:813.75 5:0.003388442 
0.005872549816754322 1:21.7 2:21.05 3:433 4:801 5:0.003373512 
0.08949849161757822 1:21.633333 2:20.963333 3:433 4:801 5:0.003345806 
0.7882035039749657 1:21.675 2:21.175 3:433 4:798.75 5:0.003388442 
0.8207862540625566 1:21.7 2:21.08 3:433 4:805.75 5:0.003378346 
0.6734447322472826 1:21.7 2:20.89 3:433 4:802.25 5:0.003347732 
0.4836876325333631 1:21.625 2:20.9975 3:433 4:791.5 5:0.003349571 
0.4843953860072975 1:21.65 2:20.9175 3:433 4:790.5 5:0.003341874 
0.07229451654821005 1:21.7 2:20.856667 3:433 4:778 5:0.003342362 
0.8179346540838153 1:21.7 2:20.945 3:433 4:780.75 5:0.003356594 
0.8501987839576127 1:21.7 2:20.84 3:433 4:772 5:0.003339676 
0.7656888749400733 1:21.7 2:20.89 3:433 4:777 5:0.003347732 
0.879489640394697 1:21.7 2:20.89 3:426 4:780.5 5:0.003347732 
0.8800484357660471 1:19.525 2:27.025 3:289.75 4:473.75 5:0.003790078 
0.8803529784131877 1:19.525 2:27.125 3:412 4:479 5:0.003804188 
0.8803014528124158 1:19.575 2:27.675 3:397 4:496.5 5:0.003893964 
0.879534699255732 1:19.575 2:27.6 3:405 4:501.5 5:0.003883346 
0.8774781656584963 1:19.666667 2:27.73 3:405 4:510.66667 5:0.003924175 
0.8779844251149065 1:19.633333 2:27.73 3:399.66667 4:512 5:0.003916008 
0.6243419899195513 1:19.625 2:27.745 3:393 4:517 5:0.003916099 
0.619898747629071 1:19.633333 2:27.79 3:393.66667 4:515 5:0.003924535 
0.879441782751219 1:19.7 2:27.9175 3:389 4:528.75 5:0.003959116 
0.8803042799278842 1:19.7 2:27.963333 3:393.66667 4:534.33333 5:0.003965658 
0.8792922946918613 1:19.745 2:28.05 3:389 4:541 5:0.003989226 
0.8792973841636913 1:19.7675 2:28.175 3:392.5 4:546 5:0.004012754 
0.8801310455335378 1:19.79 2:28.1 3:393.66667 4:553 5:0.00400763 
0.8799944302196575 1:19.79 2:28.2675 3:392.5 4:559.75 5:0.004031674 
0.87950770609123 1:19.79 2:28.323333 3:389 4:572.33333 5:0.004039689 
0.879627525439211 1:19.84 2:28.6975 3:389 4:578.75 5:0.004106207 
0.8455279889372318 1:19.89 2:28.625 3:389 4:595 5:0.004108567 
0.8457531076729853 1:19.89 2:28.65 3:389 4:599 5:0.004112179 
0.8797709660910935 1:19.963333 2:28.96 3:399.66667 4:622 5:0.004176036 
0.879704474224175 1:19.945 2:29.05 3:397 4:636 5:0.004184313 
0.8791917019330028 1:20 2:29.1975 3:405 4:655.5 5:0.004220155 
0.8789415462108591 1:20 2:29.39 3:405 4:661.33333 5:0.004248169 
0.8794442742769795 1:20 2:29.445 3:405 4:680.8 5:0.004256173 
0.8802326689843168 1:20.1 2:29.79 3:405 4:701 5:0.004333322 
0.8794140287349901 1:20.1 2:29.823 3:406.75 4:710.125 5:0.004338155 
0.8802999405599984 1:20.1 2:29.856 3:408.5 4:719.25 5:0.004342989 
0.8800225213812372 1:20.2 2:29.945 3:419 4:736 5:0.004383252 
0.8801563789537703 1:20.125 2:29.9725 3:419 4:743.75 5:0.004366853 
0.8797892461040753 1:20.15 2:30.15 3:419 4:759 5:0.004399746 
0.8798711582259067 1:20.175 2:30.15 3:419 4:765.75 5:0.004406604 
0.8798483432598841 1:20.23 2:30.26 3:419 4:780.33333 5:0.004437973 
0.8802639000594872 1:20.29 2:30.445 3:422.5 4:814.75 5:0.004482014 
0.8800880106774863 1:20.29 2:30.34 3:433 4:816 5:0.004466445 
0.8798649072056975 1:20.29 2:30.4725 3:433 4:822.75 5:0.004486091 
0.879634081232291 1:20.29 2:30.533333 3:433 4:843.66667 5:0.004495112 
0.4521287870487606 1:20.29 2:30.495 3:433 4:850.5 5:0.004489428 
0.4535639191347166 1:20.39 2:30.7 3:433 4:850 5:0.004548042 
0.8798509681639501 1:20.381667 2:30.705833 3:433 4:856.7 5:0.004546555 
0.8793492931765556 1:20.373333 2:30.711667 3:433 4:863.4 5:0.004545068 
0.7550949960981886 1:20.39 2:30.84 3:433 4:886 5:0.004568935 
0.7556528492762217 1:20.39 2:30.695 3:433 4:889 5:0.004547296 
0.8798804928589927 1:20.39 2:30.795 3:433 4:898 5:0.004562219 
0.4474360074749121 1:20.445 2:30.795 3:433 4:922 5:0.004577853 
0.4556987658243392 1:20.4725 2:30.9175 3:433 4:921.5 5:0.004604064 
0.8801627494691961 1:20.5 2:31.1225 3:433 4:929.25 5:0.00464275 
0.8797409756530034 1:20.5 2:31.1 3:447 4:953 5:0.004639369 
0.8798468037257554 1:20.5 2:31.1 3:437.66667 4:954 5:0.004639369 
0.8798644558126437 1:20.5 2:31.1475 3:447 4:959.75 5:0.004646507 
0.5844434194633116 1:20.5 2:31.245 3:440 4:967.75 5:0.004661161 
0.844459017325245 1:20.5 2:31.26 3:442.33333 4:974.33333 5:0.004663416 
0.8622477015413021 1:20.5 2:31.1 3:447 4:977 5:0.004639369 
0.6039309596469162 1:20.5 2:31.163333 3:441 4:970.33333 5:0.004648887 
0.584482430385874 1:20.5 2:31.2225 3:442.5 4:968 5:0.004657779 
0.8643684544078936 1:20.55 2:31.245 3:438 4:975.5 5:0.00467567 
0.8649982919425666 1:20.55 2:31.245 3:447 4:981.5 5:0.00467567 
0.8798545358400119 1:20.6 2:31.245 3:438 4:1007 5:0.004690218 
0.8740326194489845 1:20.6 2:31.323333 3:447 4:1013 5:0.004702066 
0.8100292801084591 1:20.6 2:31.2675 3:438 4:1016 5:0.004693621 
0.8739607097367499 1:20.633333 2:31.26 3:447 4:1018 5:0.004702213 
0.8102513846544958 1:20.6 2:31.295 3:438 4:1019.5 5:0.004697781 
0.8776215102139601 1:20.675 2:31.4725 3:438 4:1041.5 5:0.004746688 
0.8789197014522709 1:20.6 2:31.445 3:438 4:1050.5 5:0.004720468 
0.8796128538594478 1:20.7 2:31.5225 3:438 4:1056.75 5:0.004761672 
0.8779649808453046 1:20.65 2:31.5225 3:438 4:1066.5 5:0.004746911 
0.8773507741512648 1:20.7 2:31.575 3:442.5 4:1075.25 5:0.004769663 
0.8796624688314081 1:20.7 2:31.745 3:438 4:1080.75 5:0.004795541 
0.8784257098632713 1:20.7 2:31.79 3:438 4:1106.75 5:0.004802391 
0.8786141642368571 1:20.7 2:31.7925 3:441.75 4:1111 5:0.004802772 
0.8803483721350721 1:20.7 2:31.84 3:432.75 4:1119.25 5:0.004810003 
0.8794479676633759 1:20.7 2:31.79 3:429 4:1127.6667 5:0.004802391 
0.8801852074173347 1:20.745 2:31.895 3:433.5 4:1136 5:0.004831855 
0.8798889180596434 1:20.79 2:31.895 3:429 4:1142.5 5:0.004845367 
0.7860702267441653 1:20.79 2:31.8225 3:438 4:1143.75 5:0.004834268 
0.7750837558185351 1:20.79 2:31.945 3:438 4:1147 5:0.004853022 
0.8793999144531133 1:20.79 2:31.8925 3:429 4:1157.5 5:0.004844984 
0.8711362578659483 1:20.79 2:31.99 3:435 4:1150.6667 5:0.004859912 
0.8800158782937423 1:20.79 2:31.993333 3:441 4:1159.3333 5:0.004860422 
0.8796532479992842 1:20.79 2:31.963333 3:441 4:1167 5:0.004855829 
0.8798361633233803 1:20.79 2:32.066667 3:434 4:1177.6667 5:0.00487165 
0.8683591254180387 1:20.79 2:31.995 3:444 4:1178 5:0.004860678 
0.868275670001512 1:20.815 2:31.9925 3:440.25 4:1175.25 5:0.004867839 
0.8796642574213691 1:20.823333 2:32.06 3:439 4:1184.3333 5:0.004880713 
0.4640645902645393 1:20.865 2:32.1675 3:444 4:1198.25 5:0.00490988 
0.8795010196347877 1:20.84 2:32.245 3:432.75 4:1204 5:0.004914177 
0.4652854138497081 1:20.89 2:32.2 3:444 4:1199 5:0.004922506 
0.8794835995405762 1:20.89 2:32.26 3:439 4:1204.3333 5:0.004931751 
0.873724660216892 1:20.89 2:32.3725 3:437.25 4:1224.75 5:0.004949086 
0.8307114832744084 1:20.89 2:32.1675 3:432.75 4:1218.75 5:0.004917498 
0.8800004383824278 1:20.89 2:32.333333 3:439 4:1212 5:0.004943051 
0.8794747853372974 1:20.89 2:32.25 3:444 4:1222.5 5:0.00493021 
0.8308207417276178 1:20.89 2:32.29 3:429 4:1218.5 5:0.004936373 
0.8736025806350819 1:20.89 2:32.2725 3:441 4:1228 5:0.004933677 
0.871247536072116 1:20.89 2:32.475 3:436.5 4:1237.75 5:0.004964881 
0.8714329816155161 1:20.89 2:32.4725 3:440.25 4:1240.75 5:0.004964496 
0.7456375460467399 1:21 2:32.4 3:444 4:1262 5:0.004987213 
0.7457173208420891 1:21 2:32.4 3:446.75 4:1261 5:0.004987213 
0.8746636400197171 1:20.926667 2:32.526667 3:469 4:1276.6667 5:0.004984162 
0.832322521532352 1:21 2:32.5675 3:469 4:1294 5:0.005013203 
0.8323596560661592 1:21 2:32.52 3:465.25 4:1294.5 5:0.005005833 
0.5482790303547626 1:21 2:32.526667 3:454 4:1287.6667 5:0.005006867 
0.5477764811245632 1:21 2:32.4725 3:454 4:1289.25 5:0.004998462 
0.8798915370821875 1:21 2:32.545 3:454 4:1300.75 5:0.005009712 
0.4415523181475844 1:21 2:32.56 3:454 4:1315 5:0.00501204 
0.4401063796129815 1:21.025 2:32.7 3:454 4:1315 5:0.005041568 
0.7150908955132126 1:21 2:32.645 3:454 4:1323 5:0.00502523 
0.6900346726059886 1:21.066667 2:32.863333 3:454 4:1325.6667 5:0.005080051 
0.8305000632738794 1:21.075 2:32.8725 3:454 4:1330 5:0.005084103 
0.510583988861797 1:21.1 2:32.845 3:454 4:1338 5:0.005087686 
0.8243817324529933 1:21.05 2:32.775 3:454 4:1334 5:0.005061057 
0.5868357499470715 1:21.1 2:32.966667 3:454 4:1339.6667 5:0.005106686 
0.8703741167357828 1:21.1 2:33.0225 3:454 4:1349.25 5:0.005115406 
0.8704040859518869 1:21.1 2:33.09 3:454 4:1354 5:0.005125949 
0.8802317656495722 1:21.1 2:33.045 3:454 4:1361.75 5:0.005118921 
0.50602682571429 1:21.1 2:33.0675 3:454 4:1369.75 5:0.005122435 
0.8802743552979024 1:21.1 2:33.126667 3:458 4:1379.3333 5:0.005131676 
0.8750397589851241 1:21.1 2:33.0725 3:449.5 4:1384.5 5:0.005123216 
0.8792328562790622 1:21.1 2:33.025 3:464.5 4:1382 5:0.005115797 
0.6315078190016079 1:21.1 2:32.7675 3:465.25 4:1371.2 5:0.005075583 
0.8129440784854721 1:21.125 2:33.0675 3:471.75 4:1352 5:0.00513037 
0.8151015132848625 1:21.1 2:32.975 3:474.5 4:1349.75 5:0.005107988 
0.8777512312603386 1:21.125 2:33.0425 3:474.5 4:1357 5:0.00512646 
0.6355310505813836 1:21.125 2:33.1175 3:464 4:1364.75 5:0.005138192 
0.5384143729158674 1:21.133333 2:33.033333 3:464 4:1369.6667 5:0.005127671 
0.7423806232293823 1:21.166667 2:32.996667 3:469 4:1377.3333 5:0.005132512 
0.8395253082014138 1:21.133333 2:33.09 3:479 4:1379.3333 5:0.00513654 
0.8103839709158381 1:21.175 2:33.09 3:479 4:1387.25 5:0.005149805 
0.8106942859602861 1:21.2 2:33.126667 3:480.66667 4:1390.3333 5:0.005163542 
0.8801802204562018 1:21.2 2:33.1725 3:496.5 4:1390.25 5:0.005170746 
0.8795640190348649 1:21.2 2:33.163333 3:504 4:1402.6667 5:0.005169305 
0.8800192550373661 1:21.2225 2:33.145 3:495.25 4:1404.75 5:0.005173622 
0.8786107100699507 1:21.245 2:33.1725 3:489 4:1408.5 5:0.005185163 
0.5567324257695836 1:21.29 2:33.2 3:489 4:1414 5:0.005203962 
0.3394018775832119 1:21.29 2:33.2 3:489 4:1415 5:0.005203962 
0.8803385510379592 1:21.29 2:33.2 3:500.25 4:1417.25 5:0.005203962 
0.8224720084328399 1:21.29 2:33.126667 3:492.33333 4:1416 5:0.005192371 
0.8734556135420505 1:21.29 2:33.1725 3:485.25 4:1417.75 5:0.005199615 
0.6705499494420888 1:21.29 2:33.145 3:464 4:1421.75 5:0.005195269 
0.6133220402397263 1:21.29 2:33.23 3:464 4:1427.3333 5:0.005208704 
0.7178401085820109 1:21.29 2:33.145 3:464 4:1430.25 5:0.005195269 
0.7619978159087343 1:21.323333 2:33.163333 3:479 4:1441 5:0.005208892 
0.6724262916667294 1:21.29 2:33.195 3:479 4:1432.75 5:0.005203172 
0.5056099473224404 1:21.365 2:33.24 3:479 4:1435.5 5:0.005234501 
0.3351698801984939 1:21.323333 2:33.23 3:479 4:1437.6667 5:0.005219451 
0.282194963362142 1:21.39 2:33.35 3:479 4:1438.5 5:0.005260091 
0.2796684921746158 1:21.39 2:33.29 3:474 4:1453 5:0.005250548 
0.8507423214054957 1:21.39 2:33.2675 3:475.25 4:1449.25 5:0.005246969 
0.7383455645248814 1:21.39 2:33.296667 3:469 4:1441 5:0.005251608 
0.7450224465418587 1:21.39 2:33.3 3:471.5 4:1442.5 5:0.005252138 
0.8236941581321244 1:21.4175 2:33.2725 3:464 4:1441.75 5:0.00525669 
0.7909611719185567 1:21.39 2:33.2675 3:464 4:1449.75 5:0.005246969 
0.8081366896163396 1:21.39 2:33.363333 3:464 4:1453.3333 5:0.005262212 
0.5152925344362902 1:21.39 2:33.3725 3:464 4:1458 5:0.00526367 
0.4973832380619079 1:21.39 2:33.4 3:478 4:1456.6667 5:0.005268044 
0.4379490793539086 1:21.39 2:33.3725 3:474.5 4:1454 5:0.00526367 
0.5293492810062111 1:21.39 2:33.466667 3:478 4:1458 5:0.005278649 
0.8774669551211682 1:21.4175 2:33.5425 3:469.25 4:1465.5 5:0.00529971 
0.5694075183533091 1:21.4175 2:33.5675 3:464 4:1470.5 5:0.005303694 
0.6689641870302473 1:21.426667 2:33.5 3:464 4:1476 5:0.005295937 
0.3069102146254979 1:21.445 2:33.3725 3:464 4:1460.25 5:0.005281589 
0.3580688162674061 1:21.5 2:33.59 3:464 4:1462 5:0.005334397 
0.7265498786196336 1:21.5 2:33.595 3:464 4:1464.25 5:0.005335198 
0.8801847296504276 1:21.5 2:33.84 3:456.5 4:1455.5 5:0.005374442 
0.1170469425461013 1:21.5 2:33.793333 3:464 4:1460.3333 5:0.005366967 
0.6128893971903543 1:21.5 2:33.4475 3:464 4:1445.75 5:0.005311573 
0.2258625008677512 1:21.525 2:33.52 3:464 4:1445 5:0.005331409 
0.8329623089537073 1:21.5 2:33.7975 3:475.25 4:1435.25 5:0.005367634 
0.6523655993752786 1:21.5 2:33.693333 3:479 4:1429 5:0.005350948 
0.2344805560192168 1:21.533333 2:34.1 3:479 4:1430 5:0.005427256 
0.8762848033626512 1:21.55 2:33.895 3:479 4:1399 5:0.0053999 
0.5479107271254569 1:21.566667 2:33.79 3:474 4:1399 5:0.005388569 
0.8394107530143071 1:21.575 2:33.595 3:479 4:1375.5 5:0.00535996 
0.7429774257531172 1:21.6 2:33.8 3:471.5 4:1378.5 5:0.005401279 
0.5632349494228753 1:21.566667 2:34.43 3:464 4:1366.5 5:0.005491532 
0.6848303345931332 1:21.6 2:34.475 3:462.75 4:1419.75 5:0.0055101 
0.8771357376262325 1:21.566667 2:34.5 3:469 4:1422.6667 5:0.005502796 
0.7095385718350896 1:21.575 2:34.5 3:461.5 4:1428 5:0.005505628 
0.8793277255565342 1:21.525 2:34.475 3:454 4:1424.75 5:0.005484643 
0.7955037276756201 1:21.5 2:34.4475 3:460.75 4:1423 5:0.005471774 
0.8793150029334331 1:21.5 2:34.45 3:464.5 4:1401 5:0.005472174 
0.8794274058218536 1:21.5 2:34.396667 3:463 4:1407 5:0.005463628 
0.8719170573237973 1:21.5 2:34.4 3:468 4:1395 5:0.005464162 
0.8731164215059325 1:21.5 2:34.4225 3:464.5 4:1391.5 5:0.005467768 
0.8566341443940183 1:21.5 2:34.245 3:454 4:1390.75 5:0.005439327 
0.8516544058268443 1:21.445 2:34.195 3:454 4:1386.5 5:0.005412892 
0.5050915767572692 1:21.5 2:34.2 3:454 4:1370 5:0.005432117 
0.7206061825548581 1:21.426667 2:34.06 3:469 4:1367.6667 5:0.005385233 
0.8750761017957829 1:21.39 2:34.0675 3:471.75 4:1362 5:0.005374236 
0.6566083384215193 1:21.4175 2:34.0225 3:467.75 4:1365.25 5:0.005376206 
0.8789621450567497 1:21.445 2:34.045 3:481.5 4:1361.5 5:0.005388942 
0.8791735756182698 1:21.39 2:33.95 3:482.75 4:1355.5 5:0.00535554 
0.8802331969516558 1:21.39 2:33.9 3:489 4:1340 5:0.005347585 
0.880199383593496 1:21.4725 2:33.8975 3:499 4:1337.25 5:0.005374516 
0.8442620963735035 1:21.39 2:33.7 3:514 4:1326.5 5:0.005315766 
0.8440672707611898 1:21.426667 2:33.693333 3:510.66667 4:1324.3333 5:0.005326762 
0.8796376175381444 1:21.5 2:33.7 3:514 4:1315.6667 5:0.005352016 
0.8553522694014042 1:21.5 2:33.626667 3:499 4:1312.6667 5:0.00534027 
0.8610501229829739 1:21.5 2:33.59 3:496.5 4:1316.25 5:0.005334397 
0.8746694365314517 1:21.5 2:33.59 3:504 4:1312 5:0.005334397 
0.8798592931617244 1:21.5 2:33.56 3:480.66667 4:1312.3333 5:0.005329592 
0.8798663865663394 1:21.5 2:33.5 3:486.5 4:1305.75 5:0.005319982 
0.8798494565247688 1:21.5 2:33.5 3:479 4:1290.75 5:0.005319982 
0.8779110921488466 1:21.5 2:33.5 3:475.25 4:1281.5 5:0.005319982 
0.8716835425894846 1:21.5 2:33.425 3:464 4:1279.25 5:0.00530797 
0.871658898509301 1:21.5 2:33.4 3:464 4:1274.3333 5:0.005303966 
0.8777438365666193 1:21.5 2:33.3725 3:469.25 4:1267.5 5:0.005299562 
0.8381173091282746 1:21.5 2:33.3175 3:474.5 4:1257 5:0.005290753 
0.8383069859940213 1:21.5 2:33.29 3:471 4:1255.3333 5:0.005286349 
0.8779167017581029 1:21.5 2:33.29 3:469 4:1262 5:0.005286349 
1 1:21.5 2:33.2225 3:31 4:1246 5:0.00527554 
0.8794334683796531 1:21.15 2:32.845 3:365.75 4:1121 5:0.005103459 
0.7089009080733349 1:21.2 2:32.745 3:454 4:1108 5:0.005103563 
0.8786996517486751 1:21.133333 2:32.79 3:454 4:1094 5:0.00508959 
0.5965877594335941 1:21.2 2:32.845 3:454 4:1104.25 5:0.005119277 
0.6573250123353213 1:21.2 2:32.845 3:454 4:1102 5:0.005119277 
0.7153733432353975 1:21.2 2:32.9 3:454 4:1113.75 5:0.00512792 
0.8244452851604177 1:21.2 2:32.9 3:454 4:1117.3333 5:0.00512792 
0.6055701116867426 1:21.2 2:32.9 3:454 4:1110.75 5:0.00512792 
0.8803032775094939 1:21.2 2:32.9 3:461.5 4:1113.25 5:0.00512792 
0.6050144188902278 1:21.245 2:32.925 3:469 4:1123.25 5:0.005146156 
0.4722539311638786 1:21.29 2:32.966667 3:467.33333 4:1123.3333 5:0.005167084 
0.5612739893559854 1:21.245 2:32.925 3:474.5 4:1126.5 5:0.005146156 
0.2846798778532463 1:21.26 2:32.966667 3:478 4:1125.3333 5:0.005157506 
0.8789491968017786 1:21.29 2:33 3:474.5 4:1119.5 5:0.005172352 
0.5699431581712968 1:21.29 2:33 3:478 4:1125 5:0.005172352 
0.8429421117283978 1:21.29 2:32.975 3:464 4:1124.75 5:0.005168401 
0.8658003196995359 1:21.29 2:32.975 3:469.25 4:1130.5 5:0.005168401 
0.7145802830233559 1:21.29 2:32.95 3:474.5 4:1131.5 5:0.00516445 
0.3205971843903077 1:21.29 2:32.95 3:474.5 4:1129.5 5:0.00516445 
0.5401524419755734 1:21.29 2:32.933333 3:472.66667 4:1127.6667 5:0.005161816 
0.8796462411363036 1:21.29 2:33.05 3:451.5 4:1129 5:0.005180254 
0.8796626783918642 1:21.29 2:33.045 3:459 4:1143.5 5:0.005179464 
0.8802610681052779 1:21.365 2:33.1725 3:466.5 4:1149.5 5:0.005223782 
0.8796589765998429 1:21.39 2:33.3725 3:469.25 4:1164 5:0.00526367 
0.8798271706477765 1:21.39 2:33.5 3:464 4:1171.6667 5:0.005283951 
0.8798827475766414 1:21.39 2:33.663333 3:484 4:1184.6667 5:0.005309933 
0.8653097033529922 1:21.39 2:33.7225 3:484 4:1198.25 5:0.005319346 
0.8651399733281329 1:21.4175 2:33.87 3:484 4:1202.75 5:0.005351901 
0.8792052443673212 1:21.4725 2:33.95 3:474 4:1218 5:0.005382912 
0.8791470680925195 1:21.463333 2:33.966667 3:479 4:1221.3333 5:0.005382529 
0.8763675300714571 1:21.5 2:34.045 3:489 4:1230.25 5:0.005407283 
0.865887552325816 1:21.5 2:34.0675 3:489 4:1235.5 5:0.005410888 
0.5885319362302071 1:21.5 2:34.045 3:489 4:1240 5:0.005407283 
0.6149800312689151 1:21.5 2:34.09 3:489 4:1242 5:0.005414493 
0.8801642595666332 1:21.5 2:34.2 3:479 4:1242 5:0.005432117 
0.8799656220291332 1:21.525 2:34.2 3:477.75 4:1249 5:0.00544051 
0.8107558632686811 1:21.5 2:34.26 3:487.33333 4:1260.3333 5:0.00544173 
0.8071700842197375 1:21.5 2:34.245 3:484 4:1259.25 5:0.005439327 
0.8764721665675274 1:21.525 2:34.295 3:479 4:1261 5:0.005455755 
0.8801439892269761 1:21.566667 2:34.29 3:484 4:1271 5:0.005469006 
0.874916437171442 1:21.6 2:34.345 3:474 4:1276.25 5:0.005489139 
0.6978605123164324 1:21.633333 2:35.256667 3:465.66667 4:1457.6667 5:0.005647775 
0.732325057678035 1:21.666667 2:34.656667 3:479 4:1342.6667 5:0.005562232 
0.8757281680713589 1:21.65 2:34.7675 3:474 4:1341.75 5:0.005574444 
0.7385103479879748 1:21.633333 2:34.693333 3:480.66667 4:1345 5:0.005556728 
0.8795508990918459 1:21.666667 2:34.83 3:489 4:1355.3333 5:0.005590301 
0.87780383020838 1:21.7 2:35.0225 3:474 4:1369.5 5:0.005633051 
0.8801871653390921 1:21.7 2:35.0225 3:489 4:1383.25 5:0.005633051 
0.3061497592319171 1:21.7 2:35 3:472.75 4:1399.75 5:0.005629399 
0.4756655252471671 1:21.7 2:35.09 3:472.33333 4:1398.3333 5:0.005644006 
0.8795403227244198 1:21.745 2:35.24 3:479 4:1418.5 5:0.005684109 
0.8762468804024623 1:21.7 2:35.26 3:474 4:1428.6667 5:0.005671599 
0.6171208589130553 1:21.745 2:35.475 3:474.5 4:1453 5:0.005722362 
0.5322871596327032 1:21.76 2:35.59 3:464 4:1469 5:0.005746398 
0.4163581273143353 1:21.79 2:35.645 3:464 4:1471 5:0.005766018 
0.671743571393508 1:21.79 2:35.6725 3:464 4:1477 5:0.005770507 
0.879497697958328 1:21.79 2:35.6725 3:464 4:1483.5 5:0.005770507 
0.8797222667068889 1:21.815 2:35.845 3:470.75 4:1498 5:0.005807617 
0.8795248916433852 1:21.79 2:35.863333 3:467.33333 4:1503.6667 5:0.005801665 
0.8794032852134827 1:21.84 2:35.9 3:466.5 4:1520.5 5:0.005825583 
0.8799391862130562 1:21.84 2:36.0225 3:469 4:1540 5:0.005845649 
0.6004086941460272 1:21.89 2:36.29 3:457 4:1579.2 5:0.005907648 
0.8800969917169935 1:21.89 2:36.326667 3:464 4:1580 5:0.005913674 
0.5999243116617694 1:21.89 2:36.425 3:457.75 4:1581 5:0.005929834 
0.8719193875057029 1:21.89 2:36.53 3:454 4:1600.6667 5:0.005947091 
0.8715116771552681 1:21.89 2:36.5725 3:455.5 4:1605.25 5:0.005954077 
0.8803090361693923 1:21.89 2:36.595 3:453.25 4:1616.5 5:0.005957775 
0.8795185001008133 1:21.89 2:36.59 3:449.5 4:1625 5:0.005956953 
0.8792580802303791 1:21.89 2:36.663333 3:453 4:1630 5:0.005969006 
0.8798428917221154 1:21.89 2:36.645 3:449.5 4:1636.5 5:0.005965993 
0.8798391147044119 1:21.89 2:36.7 3:449.5 4:1649.25 5:0.005975033 
0.7636555326139506 1:21.89 2:36.76 3:453 4:1661.6667 5:0.005984896 
0.8730597691040739 1:21.89 2:36.833333 3:460 4:1665 5:0.00599695 
0.7543946093994244 1:21.89 2:36.8725 3:456 4:1662.25 5:0.006003389 
0.512418598866881 1:21.9175 2:36.845 3:444 4:1682.75 5:0.006009044 
0.5033787466650846 1:21.89 2:36.95 3:444 4:1684 5:0.006016129 
0.8768022669553988 1:21.9175 2:37.09 3:444 4:1689.5 5:0.00604939 
0.8777996241509174 1:21.945 2:37.045 3:444 4:1695 5:0.006052226 
0.8800702280784805 1:21.89 2:37.0675 3:444 4:1707.5 5:0.006035446 
0.7197619539429122 1:21.89 2:37 3:444 4:1714.3333 5:0.006024349 
0.1470885986674726 1:21.945 2:36.95 3:444 4:1715.2 5:0.006036555 
0.818088511320518 1:21.89 2:37.163333 3:444 4:1718.3333 5:0.006051201 
0.8787387945099525 1:21.9175 2:37.15 3:440.25 4:1727.5 5:0.006059271 
0.4139498189854682 1:21.89 2:37.06 3:444 4:1722.6667 5:0.006034213 
0.5150104207948468 1:21.945 2:37.2 3:444 4:1723.5 5:0.006077797 
0.78529572011225 1:21.89 2:37.3975 3:444 4:1744.75 5:0.006089703 
0.7843965097819756 1:21.945 2:37.425 3:444 4:1748 5:0.006114919 
0.8801370199166609 1:21.926667 2:37.4 3:439 4:1752.3333 5:0.006103894 
0.8643747231469751 1:21.945 2:37.45 3:444 4:1757.75 5:0.006119044 
0.5299390466933755 1:21.9175 2:37.2725 3:444 4:1762 5:0.006079446 
0.4422732262048964 1:21.945 2:37.475 3:444 4:1763.25 5:0.006123169 
0.8498339104256663 1:21.926667 2:37.463333 3:444 4:1767 5:0.006114332 
0.878177042238842 1:21.89 2:37.4725 3:444 4:1774.5 5:0.006102036 
0.872194382693062 1:21.945 2:37.425 3:444 4:1780 5:0.006114919 
0.8739800058156784 1:21.89 2:37.495 3:444 4:1785 5:0.006105736 
0.8798260738112702 1:21.963333 2:37.56 3:434 4:1798.3333 5:0.006144132 
0.8801181138393546 1:22 2:37.6725 3:440.25 4:1802 5:0.006176655 
0.8536686352881466 1:22 2:37.59 3:444 4:1813.25 5:0.006162995 
0.6594871515197928 1:22 2:37.6725 3:440.25 4:1814.75 5:0.006176655 
0.8515783696665595 1:21.9725 2:37.6725 3:440.25 4:1828 5:0.006166199 
0.8802439056447163 1:21.9725 2:37.745 3:444 4:1837.5 5:0.006178184 
0.7013933025454043 1:22 2:37.626667 3:439 4:1817 5:0.006169066 
0.8626784044262319 1:21.9725 2:37.9 3:444 4:1819 5:0.006203807 
0.7246612477644355 1:21.9725 2:37.795 3:444 4:1826.5 5:0.006186449 
0.7451393635712412 1:21.89 2:37.7 3:444 4:1823.5 5:0.006139448 
0.7945496306288184 1:21.963333 2:37.896667 3:444 4:1846.6667 5:0.006199753 
0.7942447341516721 1:22 2:38.03 3:444 4:1850 5:0.006235857 
0.8791569758351904 1:22 2:38.09 3:444 4:1860.5 5:0.006245794 
0.5591607163445921 1:21.963333 2:38.09 3:444 4:1866.6667 5:0.006231699 
0.5594302360730428 1:22 2:38.163333 3:444 4:1868.3333 5:0.00625794 
0.8300143038134821 1:22 2:38.1175 3:444 4:1875.5 5:0.006250349 
0.8302169677417567 1:22 2:38.145 3:444 4:1879.25 5:0.006254903 
0.8802608606641102 1:22 2:38.23 3:439 4:1888.6667 5:0.006268982 
0.4750004566292909 1:22 2:38.296667 3:429 4:1895.6667 5:0.006280024 
0.8801994271927727 1:22 2:38.37 3:441 4:1904 5:0.006292172 
0.88024837022999 1:22 2:38.345 3:438 4:1911 5:0.00628803 
0.5376615380426302 1:22 2:38.47 3:438 4:1932.25 5:0.006308737 
0.5369091602523075 1:22 2:38.5675 3:438 4:1933.75 5:0.006324888 
0.5088170998846432 1:22 2:38.59 3:438 4:1940 5:0.006328616 
0.8097684918141136 1:22.025 2:38.7 3:438 4:1943.5 5:0.006356623 
0.3013265356410345 1:22 2:38.645 3:438 4:1940 5:0.006337727 
0.5368217825262415 1:22 2:38.6175 3:438 4:1949.25 5:0.006333172 
0.5385535702640832 1:22.05 2:38.7675 3:438 4:1950.75 5:0.006377639 
0.5277174348512161 1:22.05 2:38.69 3:438 4:1962.75 5:0.006364759 
0.779484265955052 1:22.025 2:38.8 3:438 4:1959.25 5:0.006373217 
0.8766959480857662 1:22.033333 2:38.656667 3:441 4:1968.3333 5:0.006352694 
0.6037368619058971 1:22.075 2:38.745 3:438 4:1974.5 5:0.006383722 
0.7840114532497509 1:22.075 2:38.895 3:438 4:1981.25 5:0.006408691 
0.6023599582431748 1:22.1 2:38.845 3:438 4:1972.5 5:0.006410229 
0.7789995169636962 1:22.1 2:39 3:438 4:1984.5 5:0.006436072 
0.5417616548322857 1:22.075 2:38.8975 3:438 4:1991.75 5:0.006409107 
0.7213173538181915 1:22.05 2:38.9975 3:438 4:1994.25 5:0.006415866 
0.8738600161436453 1:22.1 2:39.045 3:438 4:2008.25 5:0.006443575 
0.7449279058778576 1:22.1 2:39.0425 3:442.5 4:2014 5:0.006443158 
0.8413875344567134 1:22.1 2:39 3:447 4:2016.3333 5:0.006436072 
0.6790046397765225 1:22.1 2:38.97 3:443.5 4:2011.25 5:0.00643107 
0.5590196817602806 1:22.1 2:38.76 3:447 4:2003.3333 5:0.006396058 
0.5594514672894236 1:22.1 2:38.845 3:447 4:2005 5:0.006410229 
0.3789984972373864 1:22.1 2:38.8 3:447 4:2012.75 5:0.006402727 
0.5336227753016054 1:22.1 2:38.79 3:447 4:2011.5 5:0.006401059 
0.650747200801397 1:22.1 2:38.79 3:447 4:1989 5:0.006401059 
0.4727641490957019 1:22.1 2:38.8225 3:447 4:1993.5 5:0.006406478 
0.6623858869488425 1:22.1 2:38.845 3:447 4:1995.5 5:0.006410229 
0.4455168727608909 1:22.1 2:38.73 3:447 4:1981.6667 5:0.006391057 
0.4445936590184635 1:22.1 2:38.834 3:447 4:1982 5:0.006408395 
0.4219094987767316 1:22.1 2:38.79 3:447 4:1990.8 5:0.006401059 
0.7323258679925712 1:22.1 2:38.6225 3:436.5 4:1989.25 5:0.006373136 
0.4691293720317424 1:22.1 2:38.7675 3:436.5 4:1962.25 5:0.006397308 
0.8510262464069092 1:22.1 2:38.7 3:433 4:1974.5 5:0.006386055 
0.4029356184424104 1:22.1 2:38.745 3:433 4:1988 5:0.006393557 
0.5263647448267564 1:22.1 2:38.845 3:433 4:1987 5:0.006410229 
0.02338171801287049 1:22.1 2:38.79 3:433 4:2000 5:0.006401059 
0.01240566009483731 1:22.1 2:38.845 3:433 4:1997.5 5:0.006410229 
0.2982984233883788 1:22.1 2:38.845 3:433 4:2007.5 5:0.006410229 
0.7944208366637585 1:22.1 2:38.8725 3:433 4:1997.5 5:0.006414814 
0.7620826564553937 1:22.1 2:38.95 3:433 4:2001 5:0.006427735 
0.7252827487026151 1:22.1 2:39 3:433 4:2005 5:0.006436072 
0.298876642069241 1:22.1 2:38.9725 3:433 4:2008.25 5:0.006431487 
0.776739224318878 1:22.1 2:39 3:433 4:2028.5 5:0.006436072 
0.4286295757428168 1:22.1 2:38.975 3:433 4:2021.75 5:0.006431903 
0.5590726756299265 1:22.1 2:39.045 3:433 4:2019.25 5:0.006443575 
0.5176188692822253 1:22.1 2:39.0675 3:433 4:2015.5 5:0.006447327 
0.5025279213256234 1:22.1 2:39 3:433 4:2010.3333 5:0.006436072 
0.4373707398403704 1:22.1 2:39.09 3:433 4:2013 5:0.006451078 
0.3267067300276533 1:22.1 2:39.09 3:433 4:2017.25 5:0.006451078 
0.1455373905420076 1:22.1 2:39.09 3:433 4:2026 5:0.006451078 
0.326158510010669 1:22.133333 2:39.09 3:433 4:2023 5:0.006464333 
0.4996990565640672 1:22.1 2:39.0675 3:433 4:2025.25 5:0.006447327 
0.1779117385456435 1:22.1 2:38.796667 3:433 4:2012.3333 5:0.006402171 
0.8798439256306715 1:22.1 2:38.7225 3:426 4:1984.25 5:0.006389806 
0.8798553563549752 1:22.1 2:38.9 3:413.66667 4:1973.3333 5:0.006419399 
0.8798361313962496 1:22.175 2:38.9725 3:328 4:1986.5 5:0.006461252 
0.8800251429566558 1:22.175 2:38.895 3:397 4:1984.75 5:0.00644827 
0.8798355240945001 1:22.23 2:38.93 3:403.66667 4:1995 5:0.006476013 
0.7859771546875883 1:22.245 2:38.87 3:419 4:1995.75 5:0.006471898 
0.786338520448122 1:22.29 2:38.59 3:419 4:1992.5 5:0.006442602 
0.8556411494941475 1:22.2675 2:38.62 3:433 4:1978.75 5:0.006438747 
0.8643854682308253 1:22.2 2:38.4 3:433 4:1959 5:0.006375165 
0.8735964294706307 1:22.2 2:38.45 3:433 4:1954 5:0.006383551 
0.8798627803747561 1:22.2 2:38.433333 3:429.5 4:1943.5 5:0.006380756 
0.454157579729118 1:22.2 2:38.4 3:433 4:1923.75 5:0.006375165 
0.2613508540840589 1:22.125 2:38.45 3:433 4:1926 5:0.006354154 
0.6848488355626783 1:22.1 2:38.4 3:433 4:1927.5 5:0.006336047 
0.645086005911201 1:22.125 2:38.3175 3:433 4:1921.75 5:0.006332034 
0.8620088477325846 1:22.1 2:38.29 3:433 4:1917.5 5:0.006317712 
0.8798294776954633 1:22.1 2:38.29 3:433 4:1901.75 5:0.006317712 
0.7555529867387173 1:22.1 2:38.29 3:433 4:1893.3333 5:0.006317712 
0.3539008203955407 1:22.1 2:38.27875 3:430.66667 4:1893.8333 5:0.006315837 
0.4546365914082162 1:22.1 2:38.2675 3:428.33333 4:1894.3333 5:0.006313962 
0.8796484082168223 1:22.1 2:38.2 3:433 4:1880 5:0.006302712 
0.8803171338393228 1:22.1 2:38.1175 3:429.5 4:1871.25 5:0.006288963 
0.8624136201928488 1:22.1 2:38.145 3:433 4:1863.75 5:0.006293546 
0.8626622120718108 1:22.1 2:38.09 3:433 4:1859.3333 5:0.00628438 
0.8798489182284573 1:22.1 2:38.09 3:423.66667 4:1855 5:0.00628438 
0.8800076831832822 1:22.1 2:38.0675 3:429.5 4:1845 5:0.00628063 
0.8798174530524486 1:22.1 2:37.975 3:433 4:1839.25 5:0.006265215 
0.6892572523069254 1:22.1 2:37.95 3:426 4:1831 5:0.006261049 
0.689998096249682 1:22.1 2:37.933333 3:428.33333 4:1830 5:0.006258271 
0.8796611222979889 1:22.075 2:37.8975 3:433 4:1819.25 5:0.006242684 
0.8784826442920622 1:22.1 2:37.8175 3:426 4:1801.75 5:0.006238969 
0.8783367208984874 1:22.066667 2:37.76 3:423.66667 4:1796.6667 5:0.006216617 
0.879827198411688 1:22.1 2:37.79 3:209.5 4:1788.5 5:0.006234387 
0.8798383767872506 1:20.323333 2:33.26 3:433 4:463 5:0.004909876 
1 1:20.365 2:33.4975 3:419 4:482.5 5:0.004958063 
0.8199314596211038 1:20.39 2:33.5 3:419 4:484.5 5:0.004966159 
0.8794150976001899 1:20.39 2:33.5 3:419 4:490.33333 5:0.004966159 
0.8802032407105429 1:20.4175 2:33.5225 3:405 4:487.25 5:0.004978035 
0.7456402232200114 1:20.4175 2:33.5675 3:408 4:499 5:0.004984771 
0.8747198802278887 1:20.463333 2:33.663333 3:413 4:499 5:0.005013396 
0.7827136782353266 1:20.5 2:33.6725 3:404.5 4:494.5 5:0.005026224 
0.712923922414093 1:20.5 2:33.7225 3:407.5 4:495.5 5:0.005033748 
0.8118861243746167 1:20.5 2:33.79 3:408 4:502.5 5:0.005043906 
0.7287342687464224 1:20.5 2:33.79 3:405 4:506.66667 5:0.005043906 
0.7333134411750457 1:20.6 2:33.863333 3:405 4:509.5 5:0.005086473 
0.8794890525758408 1:20.575 2:33.925 3:405 4:516 5:0.005087898 
0.8802252494150633 1:20.6 2:33.8725 3:412 4:521.25 5:0.005087861 
0.5082781520359877 1:20.6 2:33.895 3:419 4:525.75 5:0.005091269 
0.5084104871083445 1:20.65 2:33.975 3:419 4:524.5 5:0.005119268 
0.6845275179523068 1:20.65 2:33.975 3:419 4:534.5 5:0.005119268 
0.6846356046404891 1:20.65 2:34.145 3:419 4:532 5:0.005145095 
0.8771591547629551 1:20.7 2:34.4175 3:419 4:568.75 5:0.005202637 
0.8795132647225745 1:20.7 2:34.09 3:419 4:556.66667 5:0.005152722 
0.8798669119505335 1:20.7 2:34.296667 3:419 4:548 5:0.00518422 
0.8772877790165152 1:20.73 2:34.466667 3:419 4:563.33333 5:0.00521985 
0.8798527715882404 1:20.7675 2:34.7175 3:422.5 4:600.75 5:0.00527042 
0.8801886091753272 1:20.79 2:35.09 3:426 4:623 5:0.005334902 
0.8764342672531807 1:20.79 2:34.9725 3:433 4:631 5:0.005316886 
0.4520252670320682 1:20.79 2:34.826667 3:433 4:636 5:0.005294526 
0.4857051764174961 1:20.84 2:35.195 3:433 4:636.75 5:0.005367641 
0.6696001281124877 1:20.89 2:35.3 3:433 4:663 5:0.005400526 
0.6300357641679286 1:20.856667 2:35.096667 3:433 4:665.33333 5:0.005358055 
0.8602201520610196 1:20.89 2:35.32 3:433 4:669.5 5:0.005403613 
0.8773900420413062 1:20.9175 2:35.475 3:433 4:679.25 5:0.005436802 
0.877544094732763 1:20.89 2:35.4 3:433 4:684.66667 5:0.005415958 
0.8795894142880678 1:20.9175 2:35.7175 3:433 4:706.25 5:0.005474294 
0.8792916239131582 1:20.95875 2:35.68375 3:433 4:712.625 5:0.00548309 
0.8795912472185839 1:21 2:35.65 3:433 4:719 5:0.005491891 
0.8799547133077105 1:21 2:35.7 3:433 4:730.25 5:0.005499661 
0.879865953513014 1:21 2:35.76 3:433 4:739 5:0.005508986 
0.8801872747659167 1:21 2:35.7 3:433 4:761 5:0.005499661 
0.8798680543117245 1:21 2:35.86 3:433 4:771.33333 5:0.005524528 
0.8801314081763074 1:21.05 2:36.05 3:433 4:780.25 5:0.005571307 
0.8797894308655445 1:21.05 2:36.0975 3:433 4:787.25 5:0.005578714 
0.8800015206819907 1:21.1 2:36.095 3:433 4:798.5 5:0.005595639 
0.8798564336979102 1:21.1 2:36.2 3:447 4:821 5:0.005612064 
-0.7096478314275033 1:22.945 2:27.29 3:0 4:685 5:0.004727951 
-0.2803915707550526 1:22.945 2:27.39 3:0 4:685 5:0.004745408 
-0.9878912783701781 1:22.89 2:27.445 3:0 4:691 5:0.004739076 
-0.7953801129329575 1:22.79 2:27.5 3:0 4:688 5:0.004719735 
-0.6195938749418871 1:22.745 2:27.5 3:0 4:670 5:0.004706776 
-0.7513051018096153 1:22.7 2:27.5 3:0 4:667 5:0.004693849 
-0.8980655140595616 1:22.666667 2:27.426667 3:0 4:664.5 5:0.004671708 
-0.8329386257330587 1:22.6 2:27.39 3:0 4:672 5:0.004646433 
-0.4844359338940194 1:22.6 2:27.356667 3:0 4:658 5:0.004640736 
-0.5664957914706967 1:22.6 2:27.426667 3:0 4:658 5:0.004652699 
-0.04874095634343705 1:22.6 2:27.445 3:0 4:655 5:0.004655833 
-1 1:22.6 2:27.445 3:0 4:654.25 5:0.004655833 
-0.9030147924814765 1:22.5 2:27.323333 3:0 4:648.66667 5:0.004606763 
-0.8899252078767033 1:22.5 2:27.5 3:0 4:646 5:0.004636772 
-0.7403020205515464 1:22.5 2:27.445 3:0 4:641.5 5:0.004627429 
-0.5588841189135801 1:22.5 2:27.5 3:0 4:640 5:0.004636772 
-1 1:22.39 2:27.34 3:0 4:630.5 5:0.004578647 
-1 1:22.39 2:27.5 3:0 4:636.5 5:0.004605641 
-0.7137370398202952 1:22.34 2:27.39 3:0 4:623.5 5:0.00457305 
-0.02438530245220064 1:22.39 2:27.463333 3:0 4:624.66667 5:0.004599455 
-0.9438344365538829 1:22.34 2:27.39 3:0 4:626.5 5:0.00457305 
-0.2430638966523361 1:22.29 2:27.39 3:0 4:622 5:0.004559056 
-0.8868687546974476 1:22.39 2:27.39 3:0 4:620 5:0.004587082 
-0.9091732002481971 1:22.29 2:27.356667 3:0 4:616.33333 5:0.004553467 
-0.2568874492801783 1:22.29 2:27.34 3:0 4:609 5:0.004550673 
-0.7332168011972854 1:22.29 2:27.34 3:0 4:613.5 5:0.004550673 
-0.6891880093726326 1:22.29 2:27.34 3:0 4:611 5:0.004550673 
-0.5278753258561921 1:22.29 2:27.29 3:0 4:608 5:0.00454229 
-0.7774710682473419 1:22.29 2:27.29 3:0 4:605.5 5:0.00454229 
-0.04266225684632417 1:22.2 2:27.29 3:0 4:608.5 5:0.004517288 
-0.9724961894665338 1:22.245 2:27.29 3:0 4:602.5 5:0.004529774 
-1 1:22.2 2:27.29 3:0 4:598 5:0.004517288 
-0.3422869297000358 1:22.2 2:27.29 3:0 4:595 5:0.004517288 
-0.4019814543915671 1:22.2 2:27.29 3:0 4:591 5:0.004517288 
-0.5870509130390457 1:22.245 2:27.245 3:0 4:591 5:0.00452225 
-0.6165854783748457 1:22.2 2:27.29 3:0 4:594.33333 5:0.004517288 
-0.04324452436858842 1:22.2 2:27.29 3:0 4:592 5:0.004517288 
-0.8526263925229542 1:22.15 2:27.245 3:0 4:586.5 5:0.004495971 
-0.323548184685121 1:22.2 2:27.245 3:0 4:584.5 5:0.004509785 
-0.203996459040211 1:22.1 2:27.245 3:0 4:584.5 5:0.004482195 
-0.365774620247629 1:22.2 2:27.2 3:0 4:577 5:0.004502283 
-0.6979739213474073 1:22.125 2:27.2 3:0 4:582 5:0.00448161 
-0.4701990119436596 1:22.2 2:27.2 3:0 4:580 5:0.004502283 
-0.4764267915468035 1:22.1 2:27.15 3:0 4:578 5:0.004466454 
-0.05072458939388135 1:22.1 2:27.2 3:0 4:580 5:0.004474738 
-0.3273867276738052 1:22.1 2:27.2 3:0 4:568 5:0.004474738 
-0.9567000332436777 1:22.1 2:27.2 3:0 4:574.5 5:0.004474738 
-0.3423891923499057 1:22.1 2:27.2 3:0 4:563 5:0.004474738 
-0.4451381526239264 1:22.1 2:27.15 3:0 4:564.5 5:0.004466454 
-0.5955817676460975 1:22.066667 2:27.166667 3:0 4:566.33333 5:0.004460078 
-0.3834360263661949 1:22.1 2:27.1 3:0 4:562 5:0.004458169 
-0.9151747114113041 1:22 2:27.1 3:0 4:570 5:0.004430876 
-0.6744167603929587 1:22 2:27.1 3:0 4:560 5:0.004430876 
-0.7123634740133993 1:21.945 2:27.1 3:0 4:557.5 5:0.004415927 
-0.1074008837829054 1:21.926667 2:27.1 3:0 4:555 5:0.004410954 
-0.5926390827577175 1:21.89 2:27.1 3:0 4:555 5:0.004401023 
-0.1825684012904402 1:21.89 2:27.1 3:0 4:549.5 5:0.004401023 
-0.6804118117153075 1:21.89 2:27.1 3:0 4:551.5 5:0.004401023 
-0.9416350400575326 1:21.89 2:27.1 3:0 4:548 5:0.004401023 
-0.3370209699625074 1:21.89 2:27.1 3:0 4:553 5:0.004401023 
-0.9621327185825689 1:21.79 2:27.1 3:0 4:540 5:0.004374038 
-0.4773230010371606 1:21.79 2:27.1 3:0 4:537.5 5:0.004374038 
-0.4880995050175057 1:21.79 2:27.1 3:0 4:536 5:0.004374038 
-0.2222777382468763 1:21.745 2:27.1 3:0 4:534.5 5:0.004361943 
-0.08600900796280896 1:21.76 2:27.1 3:0 4:530 5:0.004365971 
-0.6270357677118159 1:21.79 2:27.05 3:0 4:531 5:0.004365912 
-0.07293749821982203 1:21.745 2:27 3:0 4:528.5 5:0.004345735 
-0.08675439749089335 1:21.7 2:27 3:0 4:525 5:0.004333714 
-0.5941295381279074 1:21.7 2:26.89 3:0 4:533.33333 5:0.004315936 
-0.2399702468252946 1:21.7 2:26.89 3:0 4:529 5:0.004315936 
-0.4205700927558668 1:21.7 2:26.89 3:0 4:528 5:0.004315936 
-0.5870017083729513 1:21.7 2:26.89 3:0 4:526 5:0.004315936 
-0.339053425420203 1:21.7 2:26.79 3:0 4:518 5:0.004299774 
-0.4498789980630422 1:21.7 2:26.79 3:0 4:515.5 5:0.004299774 
-0.31140028909766 1:21.7 2:26.79 3:0 4:520 5:0.004299774 
-0.7015307453195903 1:21.7 2:26.7675 3:0 4:523.5 5:0.004296138 
-0.5562961437099503 1:21.6 2:26.7 3:0 4:521 5:0.004258922 
-0.2132096614485767 1:21.6 2:26.6 3:0 4:518 5:0.004242862 
-0.1125280964442711 1:21.6 2:26.6 3:0 4:511.5 5:0.004242862 
-0.2330482058585863 1:21.6 2:26.5 3:0 4:517 5:0.004226803 
-0.5198269458481243 1:21.6 2:26.5 3:0 4:512 5:0.004226803 
-0.4954357432753945 1:21.6 2:26.5 3:0 4:514 5:0.004226803 
-0.5833747303851748 1:21.6 2:26.4725 3:0 4:509.75 5:0.004222387 
-0.1599956797382588 1:21.6 2:26.445 3:0 4:508.5 5:0.004217971 
-0.6981181204168879 1:21.6 2:26.39 3:0 4:507 5:0.004209139 
-0.283901408819548 1:21.6 2:26.39 3:0 4:504 5:0.004209139 
-0.3592933174953867 1:21.575 2:26.315 3:0 4:500.5 5:0.004190637 
-0.5140610610327979 1:21.5 2:26.2 3:0 4:497 5:0.004152962 
-0.4806520394545538 1:21.5 2:26.1 3:0 4:504.5 5:0.004137006 
-0.534635078707534 1:21.5 2:26 3:0 4:499 5:0.00412105 
-0.5382909315586486 1:21.5 2:26 3:0 4:502 5:0.00412105 
-0.002472160575625809 1:21.5 2:26 3:0 4:493 5:0.00412105 
-0.2770835694939907 1:21.5 2:26 3:0 4:492.5 5:0.00412105 
-0.4357539977266141 1:21.5 2:25.89 3:0 4:495.5 5:0.0041035 
-0.05115938851207974 1:21.5 2:25.89 3:0 4:491 5:0.0041035 
-0.4671595323364243 1:21.4725 2:25.865 3:0 4:493.75 5:0.004092568 
-0.04458324712585812 1:21.5 2:25.84 3:0 4:490 5:0.004095523 
-0.332223878177302 1:21.5 2:25.79 3:0 4:487 5:0.004087546 
-0.0007633201639555758 1:21.426667 2:25.73 3:0 4:485.33333 5:0.004059579 
-0.213790091215302 1:21.39 2:25.7 3:0 4:491 5:0.004045656 
-0.4711224200046187 1:21.5 2:25.79 3:0 4:489 5:0.004087546 
-0.002793574892074839 1:21.426667 2:25.73 3:0 4:484.66667 5:0.004059579 
-0.1788284007689442 1:21.39 2:25.7 3:0 4:487 5:0.004045656 
-0.09680463161947719 1:21.39 2:25.7 3:0 4:492 5:0.004045656 
-0.2140734383253464 1:21.39 2:25.7 3:0 4:490.66667 5:0.004045656 
-0.0859672245615274 1:21.39 2:25.7 3:0 4:488 5:0.004045656 
-0.02105755846167409 1:21.39 2:25.7 3:0 4:486 5:0.004045656 
-0.2618783876073902 1:21.39 2:25.7 3:0 4:481 5:0.004045656 
-0.01142605445342083 1:21.39 2:25.7 3:0 4:485.5 5:0.004045656 
-0.5469465950623479 1:21.39 2:25.7 3:0 4:485 5:0.004045656 
-0.2234663446192113 1:21.39 2:25.7 3:0 4:473 5:0.004045656 
-0.1379279614755626 1:21.39 2:25.7 3:0 4:481.5 5:0.004045656 
-0.5607216735805025 1:21.39 2:25.7 3:0 4:483 5:0.004045656 
-0.4415300461692345 1:21.39 2:25.7 3:0 4:477 5:0.004045656 
-0.001478884625733515 1:21.39 2:25.7 3:0 4:477.5 5:0.004045656 
-0.3924433489824505 1:21.39 2:25.7 3:0 4:479 5:0.004045656 
-0.3265707438088606 1:21.39 2:25.7 3:0 4:471 5:0.004045656 
-0.0464172670397555 1:21.39 2:25.7 3:0 4:475 5:0.004045656 
-0.3606233288837287 1:21.2 2:25.39 3:0 4:475 5:0.003949949 
-0.01856173360144232 1:21.2 2:25.39 3:0 4:471 5:0.003949949 
-0.2362343670105002 1:21.2 2:25.39 3:0 4:470 5:0.003949949 
-0.2077591105118988 1:21.2 2:25.39 3:0 4:473 5:0.003949949 
-0.5234267975405199 1:21.2 2:25.29 3:0 4:468 5:0.003934293 
-0.4875027870857301 1:21.2 2:25.29 3:0 4:465.66667 5:0.003934293 
-0.1772308456916474 1:21.245 2:25.245 3:0 4:464 5:0.003938177 
-0.06749150291569828 1:21.29 2:25.2 3:0 4:451 5:0.003942048 
-0.2984975516775779 1:21.29 2:25.2 3:0 4:461.66667 5:0.003942048 
-0.3161905283997388 1:21.29 2:25.2 3:0 4:458 5:0.003942048 
-0.002809094742313928 1:21.29 2:25.2 3:0 4:457 5:0.003942048 
-0.3860326425043096 1:21.29 2:25.2 3:0 4:456 5:0.003942048 
-0.3426859950690228 1:21.29 2:25.2 3:0 4:463 5:0.003942048 
-0.3562705824844987 1:21.29 2:25.2 3:0 4:460 5:0.003942048 
-0.2106072341213812 1:21.29 2:25.2 3:0 4:454.5 5:0.003942048 
-0.3597011693021457 1:21.29 2:25.245 3:0 4:450.5 5:0.003949132 
-0.4052389614376777 1:21.29 2:25.245 3:0 4:453 5:0.003949132 
-0.1152202099662194 1:21.1 2:25.5 3:0 4:449 5:0.003942734 
-0.09005135200469544 1:21.1 2:25.5 3:0 4:445 5:0.003942734 
-0.1133587388557105 1:21.2 2:25.29 3:0 4:449.33333 5:0.003934293 
-0.08541670474838606 1:21.15 2:25.29 3:0 4:448 5:0.003922161 
-0.2384702067423263 1:21.2 2:25.2 3:0 4:447 5:0.003920204 
-0.009964329401248667 1:21.2 2:25.2 3:0 4:444.5 5:0.003920204 
-0.2257401872935781 1:21.2 2:25.2 3:0 4:445 5:0.003920204 
-0.01789507921018496 1:21.2 2:25.2 3:0 4:444 5:0.003920204 
-0.2979928567830192 1:21.2 2:25.2 3:0 4:443 5:0.003920204 
-0.1618962551946132 1:21.2 2:25.15 3:0 4:441.5 5:0.003912377 
-0.2718218077451968 1:21.2 2:25.1 3:0 4:436 5:0.00390455 
-0.2170085370948672 1:21.2 2:25.1 3:0 4:440.5 5:0.00390455 
-0.170036791030232 1:21.2 2:25.05 3:0 4:439.5 5:0.003896723 
-0.3195196001508426 1:21.2 2:25 3:0 4:438 5:0.003888897 
-0.2993195798939936 1:21.1 2:24.89 3:0 4:435 5:0.003847834 
-0.424743780302559 1:21.1 2:24.89 3:0 4:432 5:0.003847834 
-0.6330861504794272 1:20.89 2:24.89 3:0 4:428 5:0.003798181 
-0.2713779399961632 1:20.89 2:24.89 3:0 4:431 5:0.003798181 
-0.1676848405774225 1:20.89 2:23.29 3:0 4:446 5:0.003552629 
-0.06298807551858408 1:20.89 2:23.29 3:0 4:443 5:0.003552629 
-0.2318881435564961 1:20.89 2:23.1 3:0 4:451.33333 5:0.003523482 
-0.02347161114582406 1:20.89 2:23.1 3:0 4:447.75 5:0.003523482 
-0.05117627351808034 1:20.89 2:23.1 3:0 4:452 5:0.003523482 
-0.02047018088454297 1:20.89 2:23 3:0 4:454 5:0.003508143 
-0.1710269961846515 1:20.89 2:23 3:0 4:449 5:0.003508143 
-0.137238117754094 1:20.79 2:22.84 3:0 4:448 5:0.003462109 
-0.4757344059481676 1:20.7 2:22.79 3:0 4:459 5:0.003435287 
-0.4123022937896442 1:20.7 2:22.5 3:0 4:456.5 5:0.003391335 
-0.2955760588346534 1:20.7 2:22.5 3:0 4:453.5 5:0.003391335 
-0.0629290722957685 1:20.7 2:22.5 3:0 4:459 5:0.003391335 
-0.2516567562108564 1:20.7 2:22.39 3:0 4:454.75 5:0.003374666 
-0.01864660848536878 1:20.7 2:22.39 3:0 4:457 5:0.003374666 
-0.1109331910495257 1:20.7 2:22.39 3:0 4:449 5:0.003374666 
-0.08511884728759961 1:20.7 2:22.39 3:0 4:451 5:0.003374666 
-1 1:20.7 2:22.4175 3:426 4:460.25 5:0.003378833 
-1 1:20.7 2:22.5 3:423.66667 4:465.33333 5:0.003391335 
-0.1731916404411868 1:22.05 2:26.575 3:469 4:1039 5:0.004357799 
-0.9683154223373678 1:22.05 2:26.55 3:469 4:1039 5:0.00435367 
-1 1:22.7 2:26.89 3:531.25 4:1120 5:0.004588962 
-1 1:22.7 2:26.89 3:539 4:1113.6667 5:0.004588962 
-1 1:22.7 2:26.89 3:545.75 4:1104.75 5:0.004588962 
-1 1:22.675 2:26.865 3:604.75 4:1103.25 5:0.004577664 
-1 1:22.7 2:26.815 3:597.25 4:1102.75 5:0.004576069 
-1 1:22.7 2:26.7 3:528 4:1090 5:0.0045563 
-1 1:22.7 2:26.7 3:521 4:1086.25 5:0.0045563 
-1 1:22.7 2:26.666667 3:535.66667 4:1083.6667 5:0.00455057 
-1 1:22.675 2:26.575 3:533.25 4:1078.5 5:0.00452789 
-1 1:22.65 2:26.55 3:523.75 4:1064.75 5:0.004516692 
-1 1:22.666667 2:26.566667 3:524 4:1053 5:0.004524155 
-1 1:22.76 2:26.39 3:635.5 4:1022 5:0.004519554 
-1 1:22.856667 2:26.323333 3:676 4:1024.75 5:0.004534741 
-1 1:22.89 2:26.245 3:567.25 4:1020 5:0.004530356 
-1 1:22.89 2:26.2 3:582.5 4:1015.5 5:0.004522532 
-1 1:22.89 2:26.1 3:618.75 4:1007 5:0.004505145 
-1 1:22.89 2:26.175 3:579.25 4:997.5 5:0.004518185 
-1 1:22.89 2:26.133333 3:590.33333 4:1002 5:0.00451094 
-1 1:22.89 2:26.1 3:584.5 4:1000 5:0.004505145 
-1 1:22.79 2:25.865 3:38.75 4:979 5:0.004437124 
-1 1:22.79 2:25.823333 3:31 4:977 5:0.004429925 
-1 1:22.745 2:26 3:22 4:963.25 5:0.004448207 
-1 1:22.7 2:26 3:13 4:974 5:0.004435995 
-1 1:22.7 2:26.075 3:31 4:965.25 5:0.004448882 
-1 1:22.666667 2:26.066667 3:32.666667 4:962.33333 5:0.0044384 
-1 1:22.6 2:26.05 3:33.5 4:957 5:0.004417501 
-0.981998807738609 1:22.6 2:26.1 3:28 4:949.5 5:0.00442604 
-0.4915569361508305 1:22.566667 2:26.1 3:31 4:950.33333 5:0.004417027 
-0.8821035003789253 1:22.525 2:26.1 3:33.5 4:949.5 5:0.004405783 
-0.4407586904785584 1:22.5 2:26.1 3:31 4:948.75 5:0.004399048 
-1 1:22.5 2:26.1 3:31 4:944 5:0.004399048 
-1 1:22.4175 2:26.05 3:33.5 4:934.5 5:0.004368445 
-1 1:22.39 2:26.1 3:28.666667 4:928.66667 5:0.004369525 
-1 1:22.39 2:26.1 3:46 4:930.5 5:0.004369525 
-1 1:22.39 2:26.1 3:53 4:923.25 5:0.004369525 
-1 1:22.34 2:26.1 3:103 4:916.5 5:0.004356163 
-1 1:22.29 2:26.1 3:90 4:902.25 5:0.004342837 
-1 1:22.29 2:26.1 3:81.666667 4:903 5:0.004342837 
-1 1:22.29 2:26.1 3:503.5 4:892.5 5:0.004342837 
-1 1:22.2675 2:26.1725 3:567.5 4:883.5 5:0.004348983 
-1 1:22.29 2:26.26 3:490.66667 4:887.33333 5:0.004369647 
-1 1:22.29 2:26.2 3:487.33333 4:890 5:0.004359593 
-1 1:22.29 2:26.2 3:500 4:891.25 5:0.004359593 
-1 1:22.29 2:26.2 3:524 4:891 5:0.004359593 
-1 1:22.29 2:26.175 3:545.33333 4:881 5:0.004355404 
-1 1:22.315 2:26.1 3:520.6 4:866.25 5:0.004349495 
-1 1:22.29 2:26.1 3:509 4:864.66667 5:0.004342837 
-1 1:22.34 2:26.1 3:476.5 4:870 5:0.004356163 
-1 1:22.315 2:26.1 3:471.5 4:862 5:0.004349495 
-0.8028034924632474 1:22.29 2:26.1 3:459 4:846.75 5:0.004342837 
-0.7707747779983933 1:22.29 2:26.1 3:459 4:844.66667 5:0.004342837 
-1 1:22.29 2:26.1 3:454.75 4:843 5:0.004342837 
-1 1:22.29 2:26.1 3:444 4:840.5 5:0.004342837 
-1 1:22.29 2:26.025 3:456 4:831.25 5:0.004330271 
-1 1:22.29 2:26 3:461 4:829 5:0.004326082 
-1 1:22.29 2:26 3:461.5 4:825.5 5:0.004326082 
-1 1:22.29 2:26 3:464 4:813.66667 5:0.004326082 
-1 1:22.29 2:26 3:476.5 4:819 5:0.004326082 
