svm_type c_svc
kernel_type rbf
gamma 1e-05
nr_class 2
total_sv 1128
rho 4.21424
label 1 0
nr_sv 564 564
SV
1000 1:1 2:-0.058934 3:-0.449019 4:-0.618134 5:0.114637 
1000 1:0.985646 2:-0.0613476 3:-0.449019 4:-0.627727 5:0.107522 
1000 1:0.985646 2:-0.0653704 3:-0.449019 4:-0.634226 5:0.103338 
1000 1:0.961722 2:-0.0653704 3:-0.458073 4:-0.6432 5:0.0957014 
1000 1:0.961722 2:-0.0653704 3:-0.458073 4:-0.642375 5:0.0957014 
1000 1:0.961722 2:-0.0653704 3:-0.458073 4:-0.645675 5:0.0957014 
1000 1:0.961722 2:-0.0653704 3:-0.458073 4:-0.657641 5:0.0957014 
1000 1:0.949761 2:-0.0676053 3:-0.458073 4:-0.659291 5:0.0895771 
1000 1:0.949761 2:-0.0698402 3:-0.458073 4:-0.656506 5:0.087263 
1000 1:0.961722 2:-0.07431 3:-0.458073 4:-0.655578 5:0.0864313 
1000 1:0.961722 2:-0.0683503 3:-0.458073 4:-0.664862 5:0.0926114 
1000 1:0.937799 2:-0.0698402 3:-0.458073 4:-0.65991 5:0.0834649 
1000 1:0.913876 2:-0.0720751 3:-0.458073 4:-0.661767 5:0.0735803 
1000 1:0.913876 2:-0.0720751 3:-0.45872 4:-0.668575 5:0.0735803 
1000 1:-0.186603 2:-0.495363 3:-0.539556 4:-0.945227 5:-0.631478 
1000 1:-0.175837 2:-0.485529 3:-0.458073 4:-0.928207 5:-0.620221 
1000 1:-0.172249 2:-0.485529 3:-0.458073 4:-0.926659 5:-0.619391 
1000 1:-0.143541 2:-0.459604 3:-0.46842 4:-0.901903 5:-0.589487 
1000 1:-0.131579 2:-0.452676 3:-0.46842 4:-0.894786 5:-0.580449 
1000 1:-0.127592 2:-0.437852 3:-0.471869 4:-0.893238 5:-0.566181 
1000 1:-0.131579 2:-0.438596 3:-0.482647 4:-0.883336 5:-0.5678 
1000 1:-0.0956938 2:-0.425187 3:-0.487821 4:-0.873743 5:-0.547141 
1000 1:-0.0956938 2:-0.414907 3:-0.487821 4:-0.866316 5:-0.53786 
1000 1:-0.0956938 2:-0.414907 3:-0.487821 4:-0.859817 5:-0.53786 
1000 1:-0.0956938 2:-0.411927 3:-0.484803 4:-0.85858 5:-0.53517 
1000 1:-0.069378 2:-0.405967 3:-0.483294 4:-0.853319 5:-0.523393 
1000 1:-0.0430622 2:-0.396134 3:-0.46842 4:-0.839084 5:-0.508038 
1000 1:-0.0430622 2:-0.396134 3:-0.46842 4:-0.84125 5:-0.508038 
1000 1:-0.0430622 2:-0.390174 3:-0.46842 4:-0.831967 5:-0.50262 
1000 1:-0.0430622 2:-0.387194 3:-0.466868 4:-0.826087 5:-0.499911 
1000 1:-0.0430622 2:-0.387194 3:-0.47618 4:-0.81866 5:-0.499911 
1000 1:-0.0430622 2:-0.387194 3:-0.47618 4:-0.808654 5:-0.499911 
1000 1:-0.0430622 2:-0.378255 3:-0.47618 4:-0.806591 5:-0.491784 
1000 1:-0.0430622 2:-0.378255 3:-0.47618 4:-0.797927 5:-0.491784 
1000 1:-0.0311005 2:-0.376243 3:-0.47618 4:-0.794523 5:-0.48699 
1000 1:-0.0311005 2:-0.376243 3:-0.467127 4:-0.785858 5:-0.48699 
1000 1:-0.0191388 2:-0.374232 3:-0.458073 4:-0.780597 5:-0.482188 
1000 1:-0.0311005 2:-0.376243 3:-0.458073 4:-0.780597 5:-0.48699 
1000 1:-0.0271132 2:-0.381234 3:-0.458073 4:-0.765331 5:-0.490549 
1000 1:-0.00717703 2:-0.37222 3:-0.458073 4:-0.754603 5:-0.477375 
1000 1:0.00478469 2:-0.370209 3:-0.458073 4:-0.754191 5:-0.472552 
1000 1:0.00478469 2:-0.370209 3:-0.458073 4:-0.752127 5:-0.472552 
1000 1:0.00478469 2:-0.375573 3:-0.458073 4:-0.749652 5:-0.477458 
1000 1:0.0287081 2:-0.376243 3:-0.458073 4:-0.748724 5:-0.472106 
1000 1:0.0526316 2:-0.374232 3:-0.458073 4:-0.742844 5:-0.464272 
1000 1:0.0526316 2:-0.370209 3:-0.458073 4:-0.730259 5:-0.460569 
1000 1:0.0526316 2:-0.370209 3:-0.458073 4:-0.718088 5:-0.460569 
1000 1:0.0956938 2:-0.363504 3:-0.453546 4:-0.7054 5:-0.443522 
1000 1:0.0956938 2:-0.361269 3:-0.458073 4:-0.705091 5:-0.441453 
1000 1:0.111643 2:-0.357992 3:-0.446001 4:-0.700552 5:-0.434367 
1000 1:0.0956938 2:-0.351436 3:-0.45083 4:-0.688689 5:-0.432349 
1000 1:0.119617 2:-0.351436 3:-0.449019 4:-0.674888 5:-0.42625 
1000 1:0.0956938 2:-0.346966 3:-0.444492 4:-0.675383 5:-0.428211 
1000 1:0.0956938 2:-0.342496 3:-0.458073 4:-0.670432 5:-0.424073 
1000 1:0.107656 2:-0.335792 3:-0.449019 4:-0.662386 5:-0.414795 
1000 1:0.0956938 2:-0.333557 3:-0.458073 4:-0.657641 5:-0.415796 
1000 1:0.0956938 2:-0.333557 3:-0.439966 4:-0.653412 5:-0.415796 
1000 1:0.119617 2:-0.338027 3:-0.439966 4:-0.650008 5:-0.413796 
1000 1:0.111643 2:-0.342496 3:-0.439966 4:-0.65269 5:-0.419991 
1000 1:0.0956938 2:-0.342496 3:-0.439966 4:-0.651555 5:-0.424073 
1000 1:0.119617 2:-0.331545 3:-0.439966 4:-0.640724 5:-0.407777 
1000 1:0.0956938 2:-0.325511 3:-0.439966 4:-0.638867 5:-0.408346 
1000 1:0.119617 2:-0.325511 3:-0.439966 4:-0.633297 5:-0.402173 
1000 1:0.111643 2:-0.325511 3:-0.448157 4:-0.611017 5:-0.404233 
1000 1:0.127592 2:-0.325511 3:-0.435654 4:-0.60359 5:-0.400111 
1000 1:0.131579 2:-0.325511 3:-0.445139 4:-0.599567 5:-0.399079 
1000 1:0.143541 2:-0.325511 3:-0.445139 4:-0.592449 5:-0.395981 
1000 1:0.127592 2:-0.325511 3:-0.445139 4:-0.591624 5:-0.400111 
1000 1:0.111643 2:-0.325511 3:-0.438672 4:-0.598638 5:-0.404233 
1000 1:0.111643 2:-0.325511 3:-0.425738 4:-0.580071 5:-0.404233 
1000 1:0.143541 2:-0.325511 3:-0.425738 4:-0.577905 5:-0.395981 
1000 1:0.131579 2:-0.331545 3:-0.428648 4:-0.587189 5:-0.404692 
1000 1:0.143541 2:-0.328193 3:-0.423152 4:-0.57677 5:-0.39848 
1000 1:0.143541 2:-0.328193 3:-0.432205 4:-0.575945 5:-0.39848 
1000 1:0.143541 2:-0.325511 3:-0.422505 4:-0.572335 5:-0.395981 
1000 1:0.169856 2:-0.321041 3:-0.425738 4:-0.536129 5:-0.384974 
1000 1:0.178628 2:-0.319552 3:-0.410649 4:-0.535922 5:-0.381293 
1000 1:0.196172 2:-0.316572 3:-0.412804 4:-0.542318 5:-0.373917 
1000 1:0.196172 2:-0.316572 3:-0.412804 4:-0.537985 5:-0.373917 
1000 1:0.196172 2:-0.319552 3:-0.397715 4:-0.53716 5:-0.376712 
1000 1:0.196172 2:-0.318807 3:-0.397931 4:-0.538914 5:-0.376013 
1000 1:0.196172 2:-0.325511 3:-0.392541 4:-0.53551 5:-0.382302 
1000 1:0.220096 2:-0.305174 3:-0.390494 4:-0.509825 5:-0.356919 
1000 1:0.244019 2:-0.316572 3:-0.38823 4:-0.505802 5:-0.361357 
1000 1:0.244019 2:-0.302268 3:-0.373356 4:-0.50704 5:-0.347855 
1000 1:0.291866 2:-0.288859 3:-0.375943 4:-0.498685 5:-0.322406 
1000 1:0.291866 2:-0.289157 3:-0.369476 4:-0.479499 5:-0.322689 
1000 1:0.324163 2:-0.274109 3:-0.366243 4:-0.46155 5:-0.299662 
1000 1:0.483254 2:-0.163705 3:-0.422505 4:-0.239981 5:-0.148634 
1000 1:0.483254 2:-0.154766 3:-0.432205 4:-0.241322 5:-0.139922 
1000 1:0.483254 2:-0.154989 3:-0.417655 4:-0.240291 5:-0.14014 
1000 1:0.471292 2:-0.154766 3:-0.417655 4:-0.244004 5:-0.143398 
1000 1:0.483254 2:-0.137781 3:-0.425738 4:-0.227294 5:-0.123369 
1000 1:0.483254 2:-0.125936 3:-0.418625 4:-0.226675 5:-0.111824 
1000 1:0.495215 2:-0.133087 3:-0.418625 4:-0.232555 5:-0.115281 
1000 1:0.483254 2:-0.132864 3:-0.418625 4:-0.223271 5:-0.118576 
1000 1:0.483254 2:-0.127947 3:-0.418625 4:-0.227603 5:-0.113784 
1000 1:0.483254 2:-0.121243 3:-0.418625 4:-0.221724 5:-0.107249 
1000 1:0.507177 2:-0.119008 3:-0.418625 4:-0.219867 5:-0.0979977 
1000 1:0.45933 2:-0.150743 3:-0.412804 4:-0.261953 5:-0.142961 
1000 1:0.471292 2:-0.146497 3:-0.412804 4:-0.265357 5:-0.135351 
1000 1:0.483254 2:-0.14672 3:-0.412804 4:-0.263809 5:-0.132081 
1000 1:0.483254 2:-0.150743 3:-0.403104 4:-0.269998 5:-0.136001 
1000 1:0.483254 2:-0.150743 3:-0.406338 4:-0.265666 5:-0.136001 
1000 1:0.483254 2:-0.154766 3:-0.412804 4:-0.255764 5:-0.139922 
1000 1:0.435407 2:-0.163705 3:-0.412804 4:-0.261953 5:-0.162455 
1000 1:0.447368 2:-0.161471 3:-0.412804 4:-0.260096 5:-0.156838 
1000 1:0.451356 2:-0.152084 3:-0.412804 4:-0.256176 5:-0.146577 
1000 1:0.519139 2:-0.119008 3:-0.427355 4:-0.189231 5:-0.0944536 
1000 1:0.519139 2:-0.119008 3:-0.432205 4:-0.186136 5:-0.0944536 
1000 1:0.5311 2:-0.119008 3:-0.425738 4:-0.184589 5:-0.0909049 
1000 1:0.5311 2:-0.104406 3:-0.41884 4:-0.198824 5:-0.0765836 
1000 1:0.837321 2:-0.18002 3:-0.357836 4:-0.294136 5:-0.0606452 
1000 1:0.829346 2:-0.185458 3:-0.559388 4:-0.294136 5:-0.0685712 
1000 1:0.574163 2:-0.157746 3:-0.567579 4:-0.396462 5:-0.116291 
1000 1:0.574163 2:-0.159236 3:-0.3892 4:-0.404611 5:-0.11776 
1000 1:0.574163 2:-0.177562 3:-0.374003 4:-0.508897 5:-0.135829 
1000 1:0.5311 2:-0.176221 3:-0.414098 4:-0.545412 5:-0.147009 
1000 1:0.5311 2:-0.161694 3:-0.425738 4:-0.549435 5:-0.132766 
1000 1:0.5311 2:-0.153604 3:-0.428454 4:-0.534767 5:-0.124833 
1000 1:0.5311 2:-0.139032 3:-0.431171 4:-0.526598 5:-0.110544 
1000 1:0.5311 2:-0.113048 3:-0.421858 4:-0.485585 5:-0.0850599 
1000 1:0.5311 2:-0.106045 3:-0.426385 4:-0.474857 5:-0.0781912 
1000 1:0.5311 2:-0.0990427 3:-0.429618 4:-0.480221 5:-0.0713225 
1000 1:0.5311 2:-0.0881663 3:-0.433499 4:-0.46186 5:-0.0606536 
1000 1:0.5311 2:-0.0832495 3:-0.433499 4:-0.460003 5:-0.0558302 
1000 1:0.5311 2:-0.0906247 3:-0.433499 4:-0.458765 5:-0.063065 
1000 1:0.5311 2:-0.0906247 3:-0.421858 4:-0.468049 5:-0.063065 
1000 1:0.5311 2:-0.07431 3:-0.429618 4:-0.472381 5:-0.0470603 
1000 1:0.552632 2:-0.0720751 3:-0.433499 4:-0.46155 5:-0.0383399 
1000 1:0.5311 2:-0.0656684 3:-0.429618 4:-0.446387 5:-0.0385824 
1000 1:0.5311 2:-0.0459269 3:-0.433499 4:-0.414513 5:-0.0192131 
1000 1:0.5311 2:-0.0385518 3:-0.445139 4:-0.384496 5:-0.0119762 
1000 1:0.5311 2:-0.0924126 3:-0.433499 4:-0.372428 5:-0.0648189 
1000 1:0.545455 2:-0.0179908 3:-0.429618 4:-0.357264 5:0.012649 
1000 1:0.5311 2:-0.0166499 3:-0.433499 4:-0.344886 5:0.00951633 
1000 1:0.5311 2:0.0150855 3:-0.416685 4:-0.309402 5:0.040664 
1000 1:0.552632 2:0.0260364 3:-0.412804 4:-0.287018 5:0.058209 
1000 1:0.541866 2:0.0260364 3:-0.398254 4:-0.277116 5:0.0548091 
1000 1:0.541866 2:0.0389988 3:-0.38629 4:-0.258239 5:0.0675517 
1000 1:0.722488 2:0.00614594 3:-0.412804 4:-0.147248 5:0.0923926 
1000 1:0.698565 2:-0.00994525 3:-0.417655 4:-0.153025 5:0.0686202 
1000 1:0.674641 2:-0.0166499 3:-0.418625 4:-0.153025 5:0.054353 
1000 1:0.686603 2:-0.0206727 3:-0.411834 4:-0.166228 5:0.0540942 
1000 1:0.698565 2:-0.0206727 3:-0.411834 4:-0.159214 5:0.0578623 
726.0781117446414 1:0.674641 2:-0.0296122 3:-0.405044 4:-0.167879 5:0.0413947 
1000 1:0.674641 2:-0.0206727 3:-0.405044 4:-0.169117 5:0.0503313 
1000 1:0.674641 2:-0.0296122 3:-0.435439 4:-0.17871 5:0.0413947 
1000 1:0.674641 2:-0.053749 3:-0.405044 4:-0.197999 5:0.0172683 
1000 1:0.698565 2:-0.0434685 3:-0.418625 4:-0.209346 5:0.0350047 
1000 1:0.674641 2:-0.0410102 3:-0.404074 4:-0.196348 5:0.0300009 
1000 1:0.674641 2:-0.0483853 3:-0.403751 4:-0.188509 5:0.0226293 
1000 1:0.674641 2:-0.0528551 3:-0.412804 4:-0.181495 5:0.0181615 
1000 1:0.674641 2:-0.107088 3:-0.41496 4:-0.193873 5:-0.0360363 
1000 1:0.674641 2:-0.0899542 3:-0.422505 4:-0.213059 5:-0.0189153 
1000 1:0.674641 2:-0.0787798 3:-0.405044 4:-0.204394 5:-0.00774826 
1000 1:0.648325 2:-0.0921891 3:-0.410218 4:-0.193873 5:-0.0291671 
1000 1:0.635167 2:-0.0993407 3:-0.410218 4:-0.194801 5:-0.0402779 
1000 1:0.62201 2:-0.110366 3:-0.425738 4:-0.176543 5:-0.0552026 
1000 1:0.62201 2:-0.0865274 3:-0.425738 4:-0.189747 5:-0.0315428 
1000 1:0.62201 2:-0.0812381 3:-0.411834 4:-0.180566 5:-0.0262933 
1000 1:0.606061 2:-0.107386 3:-0.41884 4:-0.188509 5:-0.057048 
1000 1:0.62201 2:-0.121466 3:-0.425738 4:-0.19542 5:-0.0662177 
1000 1:0.62201 2:-0.112303 3:-0.425738 4:-0.203156 5:-0.0571248 
1000 1:0.62201 2:-0.110515 3:-0.425738 4:-0.206251 5:-0.0553504 
1000 1:0.62201 2:-0.102023 3:-0.425738 4:-0.181495 5:-0.046922 
1000 1:0.635167 2:-0.114538 3:-0.425738 4:-0.175615 5:-0.0553857 
1000 1:0.661483 2:-0.106045 3:-0.445139 4:-0.177162 5:-0.0389828 
1000 1:0.648325 2:-0.110515 3:-0.445139 4:-0.177162 5:-0.047417 
1000 1:0.648325 2:-0.106045 3:-0.445139 4:-0.170045 5:-0.042966 
1000 1:0.639553 2:-0.110366 3:-0.445139 4:-0.164165 5:-0.0499158 
1000 1:0.62201 2:-0.123701 3:-0.433499 4:-0.180257 5:-0.0684355 
1000 1:0.62201 2:-0.135322 3:-0.433499 4:-0.189231 5:-0.0799672 
1000 1:0.62201 2:-0.124967 3:-0.429618 4:-0.193873 5:-0.0696923 
1000 1:0.62201 2:-0.131881 3:-0.433499 4:-0.194801 5:-0.076552 
1000 1:0.62201 2:-0.149402 3:-0.440289 4:-0.192016 5:-0.0939376 
1000 1:0.62201 2:-0.135322 3:-0.425738 4:-0.182423 5:-0.0799672 
1000 1:0.62201 2:-0.142251 3:-0.425738 4:-0.196967 5:-0.0868416 
1000 1:0.62201 2:-0.14374 3:-0.425738 4:-0.198411 5:-0.0883198 
1000 1:0.62201 2:-0.171304 3:-0.425738 4:-0.203466 5:-0.115666 
1000 1:0.62201 2:-0.168622 3:-0.445139 4:-0.216153 5:-0.113006 
1000 1:0.62201 2:-0.148732 3:-0.433499 4:-0.207798 5:-0.0932721 
1000 1:0.62201 2:-0.14672 3:-0.433499 4:-0.21801 5:-0.0912763 
1000 1:0.62201 2:-0.14374 3:-0.429618 4:-0.206664 5:-0.0883198 
1000 1:0.62201 2:-0.142251 3:-0.433499 4:-0.18985 5:-0.0868416 
1000 1:0.610048 2:-0.14672 3:-0.433499 4:-0.18985 5:-0.0948193 
1000 1:0.598086 2:-0.137781 3:-0.433499 4:-0.187993 5:-0.089515 
1000 1:0.598086 2:-0.137781 3:-0.421858 4:-0.180566 5:-0.089515 
1000 1:0.590112 2:-0.131225 3:-0.421858 4:-0.178606 5:-0.0854018 
1000 1:0.610048 2:-0.130406 3:-0.421858 4:-0.177162 5:-0.0786562 
1000 1:0.586124 2:-0.142027 3:-0.433499 4:-0.182732 5:-0.0972554 
1000 1:0.574163 2:-0.199464 3:-0.429618 4:-0.216566 5:-0.157421 
1000 1:0.574163 2:-0.152978 3:-0.433499 4:-0.221724 5:-0.11159 
1000 1:0.574163 2:-0.150967 3:-0.427678 4:-0.209964 5:-0.109607 
1000 1:0.574163 2:-0.157001 3:-0.427678 4:-0.192944 5:-0.115556 
1000 1:0.574163 2:-0.163705 3:-0.429618 4:-0.205426 5:-0.122167 
1000 1:0.574163 2:-0.173092 3:-0.421858 4:-0.220486 5:-0.131422 
1000 1:0.574163 2:-0.182478 3:-0.421858 4:-0.228119 5:-0.140676 
1000 1:0.574163 2:-0.182478 3:-0.421858 4:-0.227913 5:-0.140676 
1000 1:0.574163 2:-0.185458 3:-0.439966 4:-0.225231 5:-0.143614 
1000 1:0.545455 2:-0.202443 3:-0.439966 4:-0.243798 5:-0.168604 
1000 1:0.574163 2:-0.208403 3:-0.439966 4:-0.248956 5:-0.166233 
1000 1:0.552632 2:-0.212873 3:-0.439966 4:-0.260715 5:-0.176797 
1000 1:0.574163 2:-0.211383 3:-0.439966 4:-0.270205 5:-0.16917 
1000 1:0.574163 2:-0.217343 3:-0.439966 4:-0.270308 5:-0.175044 
1000 1:0.574163 2:-0.217343 3:-0.439966 4:-0.271236 5:-0.175044 
1000 1:0.574163 2:-0.222259 3:-0.439966 4:-0.27495 5:-0.179891 
1000 1:0.574163 2:-0.244161 3:-0.439966 4:-0.284543 5:-0.201476 
1000 1:0.574163 2:-0.241479 3:-0.439966 4:-0.284233 5:-0.198833 
1000 1:0.552632 2:-0.248631 3:-0.439966 4:-0.290422 5:-0.211942 
1000 1:0.574163 2:-0.238127 3:-0.439966 4:-0.302491 5:-0.19553 
1000 1:0.574163 2:-0.244161 3:-0.439966 4:-0.314766 5:-0.201476 
1000 1:0.541866 2:-0.274109 3:-0.439966 4:-0.329104 5:-0.239969 
1000 1:0.559809 2:-0.277536 3:-0.439966 4:-0.332921 5:-0.238353 
1000 1:0.552632 2:-0.271874 3:-0.439966 4:-0.352932 5:-0.234782 
1000 1:0.541866 2:-0.276344 3:-0.439966 4:-0.355717 5:-0.242162 
1000 1:0.5311 2:-0.288859 3:-0.439966 4:-0.349838 5:-0.257408 
1000 1:0.5311 2:-0.293329 3:-0.439966 4:-0.37088 5:-0.261787 
1000 1:0.5311 2:-0.300778 3:-0.439966 4:-0.371706 5:-0.269086 
1000 1:0.5311 2:-0.321578 3:-0.444492 4:-0.380783 5:-0.289463 
1000 1:0.5311 2:-0.321041 3:-0.439966 4:-0.393161 5:-0.288937 
1000 1:0.5311 2:-0.316125 3:-0.439966 4:-0.390067 5:-0.284121 
1000 1:0.519139 2:-0.318807 3:-0.439966 4:-0.396565 5:-0.289994 
1000 1:0.5311 2:-0.318807 3:-0.439966 4:-0.396256 5:-0.286748 
1000 1:0.499203 2:-0.325511 3:-0.439966 4:-0.398525 5:-0.301936 
1000 1:0.507177 2:-0.331545 3:-0.439966 4:-0.406777 5:-0.305677 
1000 1:0.499203 2:-0.333557 3:-0.439966 4:-0.414204 5:-0.309785 
1000 1:0.483254 2:-0.327523 3:-0.439966 4:-0.41637 5:-0.308194 
1000 1:0.483254 2:-0.329534 3:-0.439966 4:-0.412966 5:-0.310152 
1000 1:0.483254 2:-0.325511 3:-0.439966 4:-0.41668 5:-0.306235 
1000 1:0.495215 2:-0.327523 3:-0.439966 4:-0.423488 5:-0.304973 
1000 1:0.495215 2:-0.338027 3:-0.439966 4:-0.418846 5:-0.315215 
1000 1:0.483254 2:-0.344955 3:-0.439966 4:-0.422559 5:-0.325164 
1000 1:0.483254 2:-0.351734 3:-0.439966 4:-0.43896 5:-0.331763 
1000 1:0.483254 2:-0.340708 3:-0.439966 4:-0.43896 5:-0.32103 
1000 1:0.467305 2:-0.357992 3:-0.439966 4:-0.442674 5:-0.34208 
1000 1:0.447368 2:-0.356353 3:-0.439966 4:-0.454742 5:-0.345764 
1000 1:0.435407 2:-0.357992 3:-0.439966 4:-0.448863 5:-0.350509 
1000 1:0.435407 2:-0.361269 3:-0.439966 4:-0.45794 5:-0.35368 
1000 1:0.447368 2:-0.358811 3:-0.439966 4:-0.462479 5:-0.348146 
1000 1:0.435407 2:-0.361269 3:-0.439966 4:-0.470318 5:-0.35368 
1000 1:0.471292 2:-0.353894 3:-0.449019 4:-0.472381 5:-0.337042 
1000 1:-0.425837 2:-0.834171 3:-0.480923 4:-0.967507 5:-0.97831 
1000 1:-0.425837 2:-0.808247 3:-0.46842 4:-0.941823 5:-0.95594 
1000 1:-0.425837 2:-0.793943 3:-0.46842 4:-0.936562 5:-0.943597 
1000 1:-0.393541 2:-0.77897 3:-0.482647 4:-0.928826 5:-0.924473 
1000 1:-0.382775 2:-0.778523 3:-0.482647 4:-0.912425 5:-0.922012 
1000 1:-0.370813 2:-0.776511 3:-0.465833 4:-0.906029 5:-0.917958 
1000 1:-0.334928 2:-0.778746 3:-0.466868 4:-0.896642 5:-0.912964 
1000 1:-0.334928 2:-0.77517 3:-0.471007 4:-0.896642 5:-0.909841 
1000 1:-0.32177 2:-0.772489 3:-0.46842 4:-0.895714 5:-0.904939 
1000 1:-0.317384 2:-0.783812 3:-0.465833 4:-0.887049 5:-0.913997 
1000 1:-0.295455 2:-0.789697 3:-0.46842 4:-0.887978 5:-0.914914 
1000 1:-0.270335 2:-0.770254 3:-0.46842 4:-0.880551 5:-0.892927 
1000 1:-0.282297 2:-0.776735 3:-0.47618 4:-0.873433 5:-0.900971 
1000 1:-0.222488 2:-0.761091 3:-0.47618 4:-0.861674 5:-0.875398 
1000 1:-0.210526 2:-0.756174 3:-0.471653 4:-0.853628 5:-0.86866 
1000 1:-0.186603 2:-0.753715 3:-0.458935 4:-0.854454 5:-0.861703 
1000 1:-0.186603 2:-0.753715 3:-0.458073 4:-0.850328 5:-0.861703 
1000 1:-0.186603 2:-0.747011 3:-0.458073 4:-0.847749 5:-0.855732 
1000 1:-0.175837 2:-0.744776 3:-0.458073 4:-0.834752 5:-0.851577 
1000 1:-0.186603 2:-0.750736 3:-0.458073 4:-0.833823 5:-0.859049 
1000 1:-0.143541 2:-0.756174 3:-0.458073 4:-0.834752 5:-0.855276 
1000 1:-0.143541 2:-0.750736 3:-0.458073 4:-0.817732 5:-0.850406 
1000 1:-0.143541 2:-0.751481 3:-0.458073 4:-0.81278 5:-0.851073 
1000 1:-0.131579 2:-0.742541 3:-0.458073 4:-0.806901 5:-0.840647 
1000 1:-0.143541 2:-0.741796 3:-0.458073 4:-0.802878 5:-0.8424 
1000 1:-0.119617 2:-0.740306 3:-0.458073 4:-0.80164 5:-0.836216 
1000 1:-0.0956938 2:-0.734048 3:-0.458073 4:-0.798855 5:-0.825714 
1000 1:-0.0956938 2:-0.741796 3:-0.452037 4:-0.786374 5:-0.832696 
1000 1:-0.0956938 2:-0.735836 3:-0.449019 4:-0.783692 5:-0.827326 
1000 1:-0.0956938 2:-0.740306 3:-0.453546 4:-0.778741 5:-0.831354 
1000 1:-0.0956938 2:-0.735836 3:-0.449019 4:-0.775646 5:-0.827326 
1000 1:-0.0956938 2:-0.741796 3:-0.446001 4:-0.773996 5:-0.832696 
1000 1:-0.107656 2:-0.738071 3:-0.444492 4:-0.779669 5:-0.831776 
1000 1:-0.107656 2:-0.732037 3:-0.444492 4:-0.780907 5:-0.826346 
1000 1:-0.127592 2:-0.738816 3:-0.439966 4:-0.779359 5:-0.836497 
1000 1:-0.0956938 2:-0.733825 3:-0.439966 4:-0.77348 5:-0.825513 
1000 1:-0.107656 2:-0.733825 3:-0.439966 4:-0.772242 5:-0.827955 
1000 1:-0.107656 2:-0.729802 3:-0.439966 4:-0.761411 5:-0.824336 
1000 1:-0.119617 2:-0.731814 3:-0.439966 4:-0.757079 5:-0.828587 
1000 1:-0.119617 2:-0.731814 3:-0.439966 4:-0.75089 5:-0.828587 
1000 1:-0.119617 2:-0.731814 3:-0.439966 4:-0.749961 5:-0.828587 
1000 1:-0.0956938 2:-0.727791 3:-0.439966 4:-0.742225 5:-0.820075 
1000 1:-0.107656 2:-0.729802 3:-0.439966 4:-0.746557 5:-0.824336 
1000 1:-0.107656 2:-0.729802 3:-0.439966 4:-0.741916 5:-0.824336 
1000 1:-0.0956938 2:-0.727791 3:-0.439966 4:-0.747589 5:-0.820075 
1000 1:-0.107656 2:-0.729802 3:-0.439966 4:-0.743463 5:-0.824336 
1000 1:-0.119617 2:-0.729802 3:-0.439966 4:-0.724586 5:-0.82678 
1000 1:-0.107656 2:-0.729802 3:-0.439966 4:-0.723039 5:-0.824336 
1000 1:-0.0956938 2:-0.727791 3:-0.439966 4:-0.724277 5:-0.820075 
1000 1:-0.0956938 2:-0.727791 3:-0.439966 4:-0.723967 5:-0.820075 
1000 1:-0.107656 2:-0.729802 3:-0.439966 4:-0.721801 5:-0.824336 
1000 1:-0.119617 2:-0.731814 3:-0.439966 4:-0.731394 5:-0.828587 
1000 1:-0.107656 2:-0.729802 3:-0.439966 4:-0.72211 5:-0.824336 
1000 1:-0.107656 2:-0.729802 3:-0.439966 4:-0.71128 5:-0.824336 
1000 1:-0.127592 2:-0.733155 3:-0.439966 4:-0.715406 5:-0.831416 
1000 1:-0.0956938 2:-0.727791 3:-0.439966 4:-0.700139 5:-0.820075 
1000 1:-0.0825359 2:-0.727791 3:-0.439966 4:-0.705709 5:-0.817376 
1000 1:-0.0781499 2:-0.727791 3:-0.439966 4:-0.714168 5:-0.816475 
1000 1:-0.0825359 2:-0.727791 3:-0.439966 4:-0.716231 5:-0.817376 
1000 1:-0.0606061 2:-0.727791 3:-0.439966 4:-0.719532 5:-0.812868 
1000 1:-0.0956938 2:-0.725556 3:-0.449019 4:-0.707566 5:-0.818061 
1000 1:-0.0956938 2:-0.727791 3:-0.439966 4:-0.701377 5:-0.820075 
1000 1:-0.0956938 2:-0.715573 3:-0.439966 4:-0.69395 5:-0.809064 
1000 1:-0.0956938 2:-0.697098 3:-0.427894 4:-0.672495 5:-0.792413 
1000 1:-0.0781499 2:-0.674154 3:-0.427894 4:-0.629584 5:-0.768019 
1000 1:-0.069378 2:-0.669237 3:-0.421858 4:-0.634535 5:-0.761714 
1000 1:-0.069378 2:-0.65985 3:-0.421858 4:-0.635154 5:-0.753223 
1000 1:-0.069378 2:-0.646664 3:-0.421858 4:-0.612564 5:-0.741294 
1000 1:-0.0562201 2:-0.640407 3:-0.433499 4:-0.60328 5:-0.73279 
1000 1:-0.0430622 2:-0.63616 3:-0.433499 4:-0.593997 5:-0.726089 
1000 1:-0.0430622 2:-0.631691 3:-0.433499 4:-0.589664 5:-0.722031 
1000 1:-0.0430622 2:-0.638395 3:-0.430912 4:-0.571406 5:-0.728118 
1000 1:-0.0430622 2:-0.63616 3:-0.434469 4:-0.579762 5:-0.726089 
1000 1:-0.0430622 2:-0.631691 3:-0.433499 4:-0.576977 5:-0.722031 
1000 1:-0.0311005 2:-0.624539 3:-0.430588 4:-0.572025 5:-0.712924 
1000 1:-0.0191388 2:-0.619622 3:-0.435439 4:-0.565217 5:-0.705828 
1000 1:-0.0191388 2:-0.615153 3:-0.429618 4:-0.56367 5:-0.701757 
1000 1:0.00478469 2:-0.606213 3:-0.435439 4:-0.5581 5:-0.688317 
1000 1:0.00478469 2:-0.593698 3:-0.425738 4:-0.537985 5:-0.676882 
1000 1:0.00478469 2:-0.599732 3:-0.425738 4:-0.541389 5:-0.682396 
1000 1:0.00478469 2:-0.595709 3:-0.425738 4:-0.536748 5:-0.67872 
1000 1:0.00478469 2:-0.601743 3:-0.425738 4:-0.535922 5:-0.684234 
1000 1:0.00478469 2:-0.601743 3:-0.420565 4:-0.537057 5:-0.684234 
1000 1:0.00478469 2:-0.601743 3:-0.425738 4:-0.542318 5:-0.684234 
1000 1:0.00478469 2:-0.610683 3:-0.411834 4:-0.545722 5:-0.692401 
1000 1:0.00478469 2:-0.615153 3:-0.411834 4:-0.548507 5:-0.696485 
1000 1:0.00478469 2:-0.610683 3:-0.405044 4:-0.546238 5:-0.692401 
1000 1:0.0406699 2:-0.612918 3:-0.418625 4:-0.542008 5:-0.686498 
1000 1:0.0287081 2:-0.615153 3:-0.418625 4:-0.536129 5:-0.691198 
1000 1:0.0526316 2:-0.612918 3:-0.411834 4:-0.549126 5:-0.683842 
1000 1:0.0526316 2:-0.613663 3:-0.41884 4:-0.533447 5:-0.684527 
1000 1:0.0526316 2:-0.619846 3:-0.410218 4:-0.519109 5:-0.690211 
1000 1:0.0526316 2:-0.619622 3:-0.405044 4:-0.525607 5:-0.690005 
1000 1:0.0956938 2:-0.6229 3:-0.414098 4:-0.535097 5:-0.68348 
1000 1:0.0849282 2:-0.619622 3:-0.405044 4:-0.527464 5:-0.682843 
1000 1:0.0956938 2:-0.619622 3:-0.405044 4:-0.523751 5:-0.68045 
1000 1:0.0956938 2:-0.619622 3:-0.417008 4:-0.505183 5:-0.68045 
1000 1:0.0956938 2:-0.616642 3:-0.411942 4:-0.503739 5:-0.677695 
1000 1:0.107656 2:-0.622081 3:-0.425738 4:-0.509206 5:-0.680063 
1000 1:0.0956938 2:-0.619622 3:-0.425738 4:-0.50539 5:-0.68045 
1000 1:0.0956938 2:-0.616642 3:-0.411942 4:-0.511166 5:-0.677695 
1000 1:0.107656 2:-0.619622 3:-0.405044 4:-0.507659 5:-0.677787 
1000 1:0.11244 2:-0.621589 3:-0.410218 4:-0.510754 5:-0.678543 
1000 1:0.105263 2:-0.623556 3:-0.405044 4:-0.515086 5:-0.68196 
1000 1:0.111643 2:-0.632138 3:-0.405044 4:-0.523957 5:-0.688491 
1000 1:0.127592 2:-0.626178 3:-0.405044 4:-0.525195 5:-0.679426 
1000 1:0.143541 2:-0.638395 3:-0.405044 4:-0.525607 5:-0.687238 
1000 1:0.119617 2:-0.620069 3:-0.418625 4:-0.519109 5:-0.675535 
1000 1:0.119617 2:-0.610683 3:-0.418625 4:-0.50704 5:-0.666831 
1000 1:0.119617 2:-0.595709 3:-0.410864 4:-0.483212 5:-0.652945 
1000 1:0.119617 2:-0.601743 3:-0.418625 4:-0.482284 5:-0.658541 
1000 1:0.143541 2:-0.597497 3:-0.418625 4:-0.471762 5:-0.649196 
318.2882665158454 1:0.143541 2:-0.595709 3:-0.412804 4:-0.46155 5:-0.647533 
1000 1:0.143541 2:-0.589228 3:-0.418625 4:-0.460622 5:-0.641504 
1000 1:0.119617 2:-0.579841 3:-0.418625 4:-0.460622 5:-0.638229 
1000 1:0.334928 2:-0.624539 3:-0.399871 4:-0.465573 5:-0.631193 
1000 1:0.334928 2:-0.66432 3:-0.395128 4:-0.483109 5:-0.669117 
1000 1:0.334928 2:-0.650911 3:-0.39308 4:-0.48414 5:-0.656334 
1000 1:0.30622 2:-0.65836 3:-0.402026 4:-0.482696 5:-0.66985 
1000 1:0.334928 2:-0.65538 3:-0.401487 4:-0.478261 5:-0.660595 
1000 1:0.334928 2:-0.653369 3:-0.401487 4:-0.479189 5:-0.658678 
1000 1:0.334928 2:-0.66432 3:-0.389092 4:-0.48641 5:-0.669117 
1000 1:0.313397 2:-0.65538 3:-0.39017 4:-0.493734 5:-0.665416 
1000 1:0.291866 2:-0.649421 3:-0.399871 4:-0.488473 5:-0.664575 
1000 1:0.291866 2:-0.65538 3:-0.393404 4:-0.490948 5:-0.670224 
1000 1:0.291866 2:-0.65538 3:-0.39502 4:-0.489401 5:-0.670224 
1000 1:0.291866 2:-0.66946 3:-0.39502 4:-0.519418 5:-0.683571 
1000 1:0.291866 2:-0.674154 3:-0.399871 4:-0.516943 5:-0.68802 
1000 1:0.291866 2:-0.674154 3:-0.393404 4:-0.52602 5:-0.68802 
1000 1:0.291866 2:-0.671695 3:-0.399871 4:-0.528083 5:-0.68569 
1000 1:0.291866 2:-0.66432 3:-0.390817 4:-0.536748 5:-0.678698 
1000 1:0.291866 2:-0.674154 3:-0.377236 4:-0.53551 5:-0.68802 
1000 1:0.291866 2:-0.674154 3:-0.38047 4:-0.537367 5:-0.68802 
1000 1:0.291866 2:-0.674154 3:-0.39308 4:-0.5352 5:-0.68802 
1000 1:0.291866 2:-0.674154 3:-0.393404 4:-0.535097 5:-0.68802 
1000 1:0.291866 2:-0.674154 3:-0.393404 4:-0.544175 5:-0.68802 
1000 1:0.267943 2:-0.676388 3:-0.407954 4:-0.534581 5:-0.695406 
1000 1:0.259968 2:-0.680113 3:-0.404182 4:-0.532209 5:-0.700675 
1000 1:0.267943 2:-0.678623 3:-0.397931 4:-0.533653 5:-0.697517 
1000 1:0.279904 2:-0.671695 3:-0.382087 4:-0.52994 5:-0.688332 
1000 1:0.334928 2:-0.687116 3:-0.39017 4:-0.513229 5:-0.690844 
1000 1:0.30622 2:-0.677133 3:-0.386937 4:-0.504977 5:-0.687678 
1000 1:0.291866 2:-0.700078 3:-0.367536 4:-0.580071 5:-0.712591 
1000 1:0.291866 2:-0.697843 3:-0.37756 4:-0.573263 5:-0.710473 
1000 1:0.291866 2:-0.709018 3:-0.511425 4:-0.572954 5:-0.721063 
1000 1:0.0956938 2:-0.731814 3:-0.620392 4:-0.691165 5:-0.784128 
1000 1:0.0956938 2:-0.735836 3:-0.430912 4:-0.69395 5:-0.787844 
1000 1:0.0956938 2:-0.742541 3:-0.374326 4:-0.690856 5:-0.794037 
1000 1:0.0956938 2:-0.747011 3:-0.362686 4:-0.695497 5:-0.798166 
1000 1:0.0956938 2:-0.744776 3:-0.354602 4:-0.694879 5:-0.796102 
1000 1:0.0956938 2:-0.744776 3:-0.38047 4:-0.701996 5:-0.796102 
1000 1:0.0956938 2:-0.749246 3:-0.37077 4:-0.695807 5:-0.800231 
1000 1:0.0956938 2:-0.761091 3:-0.367536 4:-0.698901 5:-0.811172 
1000 1:0.0956938 2:-0.751481 3:-0.365919 4:-0.703234 5:-0.802295 
1000 1:0.143541 2:-0.753715 3:-0.359776 4:-0.687452 5:-0.794457 
1000 1:0.143541 2:-0.753715 3:-0.378314 4:-0.69395 5:-0.794457 
1000 1:0.143541 2:-0.753715 3:-0.372386 4:-0.689927 5:-0.794457 
1000 1:0.169856 2:-0.753715 3:-0.361069 4:-0.687761 5:-0.788988 
1000 1:0.196172 2:-0.753715 3:-0.352447 4:-0.683222 5:-0.783503 
1000 1:0.196172 2:-0.756174 3:-0.342315 4:-0.685285 5:-0.785803 
1000 1:0.196172 2:-0.758632 3:-0.342315 4:-0.688999 5:-0.788104 
1000 1:0.196172 2:-0.761091 3:-0.352986 4:-0.69983 5:-0.790404 
1000 1:0.291866 2:-0.783514 3:-0.341668 4:-0.71128 5:-0.791646 
1000 1:0.279904 2:-0.787239 3:-0.322591 4:-0.72211 5:-0.797648 
1000 1:0.275917 2:-0.780534 3:-0.320543 4:-0.738512 5:-0.792134 
1000 1:0.324163 2:-0.798413 3:-0.320651 4:-0.737274 5:-0.799108 
1000 1:0.334928 2:-0.780534 3:-0.341668 4:-0.68281 5:-0.779855 
1000 1:0.483254 2:-0.596379 3:-0.38047 4:-0.442261 5:-0.569729 
1000 1:0.467305 2:-0.613663 3:-0.399871 4:-0.426169 5:-0.590242 
1000 1:0.435407 2:-0.606213 3:-0.393404 4:-0.424416 5:-0.590457 
1000 1:0.435407 2:-0.631467 3:-0.393404 4:-0.436794 5:-0.61485 
1000 1:0.435407 2:-0.624539 3:-0.393404 4:-0.445149 5:-0.608158 
1000 1:0.435407 2:-0.591016 3:-0.393404 4:-0.438341 5:-0.575776 
1000 1:0.435407 2:-0.584535 3:-0.393404 4:-0.420702 5:-0.569515 
1000 1:0.435407 2:-0.595262 3:-0.393404 4:-0.429058 5:-0.579879 
1000 1:0.382775 2:-0.604202 3:-0.412804 4:-0.431843 5:-0.600745 
1000 1:0.382775 2:-0.572913 3:-0.412804 4:-0.421012 5:-0.570723 
1000 1:0.382775 2:-0.584758 3:-0.412804 4:-0.402238 5:-0.582089 
1000 1:0.382775 2:-0.595709 3:-0.412804 4:-0.401826 5:-0.592597 
1000 1:0.370813 2:-0.591016 3:-0.406014 4:-0.417917 5:-0.590883 
1000 1:0.313397 2:-0.604202 3:-0.408924 4:-0.426582 5:-0.616758 
1000 1:0.313397 2:-0.589228 3:-0.413775 4:-0.405539 5:-0.602518 
1000 1:0.30622 2:-0.5934 3:-0.414098 4:-0.40719 5:-0.608144 
1000 1:0.324163 2:-0.54006 3:-0.425738 4:-0.357264 5:-0.553194 
1000 1:0.334928 2:-0.561515 3:-0.433499 4:-0.363144 5:-0.571093 
1000 1:0.334928 2:-0.565985 3:-0.433499 4:-0.376451 5:-0.575357 
1000 1:0.334928 2:-0.557045 3:-0.429618 4:-0.384496 5:-0.56683 
1000 1:0.334928 2:-0.561515 3:-0.434469 4:-0.368405 5:-0.571093 
1000 1:0.358852 2:-0.561515 3:-0.435439 4:-0.373665 5:-0.565447 
1000 1:0.358852 2:-0.565985 3:-0.445139 4:-0.391923 5:-0.569723 
1000 1:0.334928 2:-0.584311 3:-0.440289 4:-0.395637 5:-0.592834 
1000 1:0.334928 2:-0.565985 3:-0.433499 4:-0.405539 5:-0.575357 
1000 1:0.313397 2:-0.56822 3:-0.433499 4:-0.409253 5:-0.582539 
1000 1:0.302632 2:-0.570678 3:-0.433499 4:-0.413585 5:-0.587395 
1000 1:0.291866 2:-0.58148 3:-0.429618 4:-0.412966 5:-0.600154 
1000 1:0.291866 2:-0.57269 3:-0.433499 4:-0.417608 5:-0.591817 
1000 1:0.291866 2:-0.579841 3:-0.433499 4:-0.429058 5:-0.5986 
1000 1:0.291866 2:-0.56822 3:-0.421858 4:-0.429058 5:-0.587578 
1000 1:0.291866 2:-0.571945 3:-0.421858 4:-0.431946 5:-0.591111 
1000 1:0.291866 2:-0.565985 3:-0.421858 4:-0.422559 5:-0.585458 
1000 1:0.291866 2:-0.574925 3:-0.426385 4:-0.446697 5:-0.593937 
1000 1:0.291866 2:-0.595709 3:-0.439966 4:-0.460931 5:-0.613648 
1000 1:0.244019 2:-0.584758 3:-0.439966 4:-0.46908 5:-0.61432 
1000 1:0.244019 2:-0.584758 3:-0.439966 4:-0.46186 5:-0.61432 
1000 1:0.244019 2:-0.589228 3:-0.439966 4:-0.465883 5:-0.618532 
1000 1:0.244019 2:-0.590718 3:-0.439966 4:-0.46578 5:-0.619937 
1000 1:0.244019 2:-0.593698 3:-0.439966 4:-0.481459 5:-0.622745 
1000 1:0.244019 2:-0.595709 3:-0.439966 4:-0.493115 5:-0.624641 
1000 1:0.244019 2:-0.601743 3:-0.439966 4:-0.498994 5:-0.630328 
1000 1:0.244019 2:-0.607703 3:-0.439966 4:-0.497138 5:-0.635944 
1000 1:0.244019 2:-0.607703 3:-0.439966 4:-0.498788 5:-0.635944 
1000 1:0.244019 2:-0.601743 3:-0.439966 4:-0.498375 5:-0.630328 
1000 1:0.267943 2:-0.601743 3:-0.439966 4:-0.496519 5:-0.624856 
1000 1:0.267943 2:-0.608448 3:-0.439966 4:-0.506112 5:-0.631194 
1000 1:0.279904 2:-0.603978 3:-0.439966 4:-0.503636 5:-0.624231 
1000 1:0.291866 2:-0.608448 3:-0.439966 4:-0.505802 5:-0.625728 
1000 1:0.291866 2:-0.615153 3:-0.439966 4:-0.519418 5:-0.632085 
1000 1:0.259968 2:-0.6229 3:-0.439966 4:-0.519418 5:-0.64666 
1000 1:0.279904 2:-0.603978 3:-0.439966 4:-0.522203 5:-0.624231 
1000 1:0.291866 2:-0.612471 3:-0.439966 4:-0.513539 5:-0.629542 
1000 1:0.291866 2:-0.629456 3:-0.439966 4:-0.517871 5:-0.645647 
1000 1:0.255981 2:-0.619846 3:-0.439966 4:-0.531177 5:-0.64468 
1000 1:0.267943 2:-0.626997 3:-0.439966 4:-0.532415 5:-0.648729 
1000 1:0.267943 2:-0.629456 3:-0.439966 4:-0.544793 5:-0.651052 
1000 1:0.291866 2:-0.6229 3:-0.439966 4:-0.545 5:-0.639431 
1000 1:0.291866 2:-0.632436 3:-0.439966 4:-0.547888 5:-0.648472 
1000 1:0.291866 2:-0.624539 3:-0.439966 4:-0.544484 5:-0.640985 
1000 1:0.291866 2:-0.633926 3:-0.439966 4:-0.555315 5:-0.649885 
1000 1:0.291866 2:-0.629456 3:-0.439966 4:-0.549126 5:-0.645647 
1000 1:0.291866 2:-0.629456 3:-0.449019 4:-0.544793 5:-0.645647 
1000 1:-0.748804 2:-0.0810146 3:-0.625243 4:-0.924493 5:-0.412949 
1000 1:-0.748804 2:-0.0720751 3:-0.467127 4:-0.917995 5:-0.405526 
1000 1:-0.72488 2:-0.0229076 3:-0.486527 4:-0.896333 5:-0.358299 
1000 1:-0.72488 2:-0.0296122 3:-0.47618 4:-0.890144 5:-0.363885 
1000 1:-0.681021 2:-0.0179908 3:-0.47618 4:-0.878797 5:-0.342406 
1000 1:-0.69697 2:-0.0179908 3:-0.483078 4:-0.877147 5:-0.346703 
1000 1:-0.700957 2:-0.0166499 3:-0.491701 4:-0.870958 5:-0.346655 
1000 1:-0.69697 2:-0.0126271 3:-0.490839 4:-0.873433 5:-0.342217 
1000 1:-0.665072 2:-0.00122919 3:-0.496874 4:-0.856413 5:-0.324025 
1000 1:-0.665072 2:0.0028681 3:-0.490839 4:-0.849502 5:-0.320584 
1000 1:-0.643541 2:0.0106157 3:-0.496874 4:-0.84125 5:-0.308186 
1000 1:-0.632775 2:0.0217901 3:-0.492347 4:-0.835061 5:-0.295809 
1000 1:-0.62201 2:0.0150855 3:-0.490839 4:-0.826396 5:-0.298504 
1000 1:-0.62201 2:0.0300592 3:-0.492347 4:-0.818041 5:-0.285856 
1000 1:-0.62201 2:0.0350505 3:-0.496874 4:-0.802465 5:-0.28164 
1000 1:-0.598086 2:0.0684993 3:-0.496874 4:-0.794523 5:-0.246648 
1000 1:-0.574163 2:0.0620181 3:-0.496874 4:-0.774408 5:-0.245406 
1000 1:-0.574163 2:0.064253 3:-0.496874 4:-0.769457 5:-0.243506 
1000 1:-0.539075 2:0.0919656 3:-0.483078 4:-0.740987 5:-0.209914 
1000 1:-0.547847 2:0.100011 3:-0.486527 4:-0.723658 5:-0.20556 
1000 1:-0.521531 2:0.113197 3:-0.47618 4:-0.69952 5:-0.186705 
1000 1:-0.521531 2:0.130406 3:-0.47618 4:-0.6923 5:-0.171968 
1000 1:-0.521531 2:0.135322 3:-0.47618 4:-0.668204 5:-0.167757 
1000 1:-0.473684 2:0.166164 3:-0.47618 4:-0.6432 5:-0.127173 
1000 1:-0.473684 2:0.169114 3:-0.473917 4:-0.631905 5:-0.12463 
1000 1:-0.473684 2:0.172064 3:-0.471653 4:-0.62061 5:-0.122087 
1000 1:-0.425837 2:0.18002 3:-0.458073 4:-0.599876 5:-0.100907 
1000 1:-0.461722 2:0.182478 3:-0.458073 4:-0.590283 5:-0.109534 
1000 1:-0.449761 2:0.198346 3:-0.458073 4:-0.571406 5:-0.09223 
1000 1:-0.437799 2:0.198346 3:-0.458073 4:-0.563051 5:-0.0886223 
1000 1:-0.411483 2:0.20818 3:-0.458073 4:-0.545 5:-0.0721205 
1000 1:-0.382775 2:0.224718 3:-0.453546 4:-0.502398 5:-0.0489525 
1000 1:-0.382775 2:0.215331 3:-0.439966 4:-0.500851 5:-0.0571427 
1000 1:-0.382775 2:0.227176 3:-0.439966 4:-0.492496 5:-0.0468078 
1000 1:-0.382775 2:0.232614 3:-0.439966 4:-0.466605 5:-0.0420623 
1000 1:-0.382775 2:0.229188 3:-0.439966 4:-0.458146 5:-0.0450524 
1000 1:-0.334928 2:0.247514 3:-0.439966 4:-0.458765 5:-0.0142182 
1000 1:-0.338915 2:0.248035 3:-0.439966 4:-0.450472 5:-0.0150004 
1000 1:-0.342903 2:0.248557 3:-0.439966 4:-0.442179 5:-0.0157827 
1000 1:-0.334928 2:0.260029 3:-0.439966 4:-0.414204 5:-0.00322735 
1000 1:-0.334928 2:0.247067 3:-0.439966 4:-0.41049 5:-0.0146106 
1000 1:-0.334928 2:0.256006 3:-0.439966 4:-0.39935 5:-0.00676033 
1000 1:-0.308612 2:0.256006 3:-0.439966 4:-0.369643 5:0.00146401 
1000 1:-0.295455 2:0.266957 3:-0.439966 4:-0.370261 5:0.0152524 
1000 1:-0.282297 2:0.285283 3:-0.439966 4:-0.360668 5:0.0356034 
1000 1:0.196172 2:0.473014 3:-0.959905 4:0.0314096 5:0.368486 
1000 1:0.0287081 2:0.439267 3:-0.526945 4:-0.123317 5:0.277962 
1000 1:0.483254 2:0.881328 3:-0.729036 4:0.702924 5:0.872892 
1000 1:-0.366826 2:0.476366 3:-0.439966 4:-0.9378 5:0.176126 
1000 1:-0.34689 2:0.497597 3:-0.458073 4:-0.913662 5:0.201475 
1000 1:-0.334928 2:0.497821 3:-0.458073 4:-0.911187 5:0.205734 
1000 1:-0.334928 2:0.497821 3:-0.458073 4:-0.903966 5:0.205734 
1000 1:-0.32177 2:0.499832 3:-0.47618 4:-0.907783 5:0.211982 
1000 1:-0.32177 2:0.503855 3:-0.4723 4:-0.893238 5:0.215525 
1000 1:-0.299841 2:0.512422 3:-0.465833 4:-0.893238 5:0.230583 
1000 1:-0.282297 2:0.513242 3:-0.476827 4:-0.898809 5:0.237332 
1000 1:-0.282297 2:0.517711 3:-0.472947 4:-0.897571 5:0.24129 
1000 1:-0.282297 2:0.523746 3:-0.4723 4:-0.888906 5:0.246633 
1000 1:-0.282297 2:0.523746 3:-0.47618 4:-0.883749 5:0.246633 
1000 1:-0.258373 2:0.523746 3:-0.47618 4:-0.882098 5:0.254897 
1000 1:-0.23445 2:0.530301 3:-0.47618 4:-0.880241 5:0.269026 
1000 1:-0.246411 2:0.535814 3:-0.47618 4:-0.872196 5:0.269776 
1000 1:-0.23445 2:0.531121 3:-0.467127 4:-0.865697 5:0.269756 
1000 1:-0.23445 2:0.533132 3:-0.458073 4:-0.860127 5:0.271549 
1000 1:-0.210526 2:0.540284 3:-0.458073 4:-0.861674 5:0.286278 
1000 1:-0.210526 2:0.540284 3:-0.458073 4:-0.849296 5:0.286278 
1000 1:-0.210526 2:0.555481 3:-0.458073 4:-0.852391 5:0.299864 
1000 1:-0.186603 2:0.579841 3:-0.458073 4:-0.806901 5:0.330135 
1000 1:-0.186603 2:0.550564 3:-0.458073 4:-0.821858 5:0.303877 
1000 1:-0.186603 2:0.569039 3:-0.458073 4:-0.832585 5:0.320446 
1000 1:-0.172249 2:0.584237 3:-0.458073 4:-0.813606 5:0.33919 
1000 1:-0.154306 2:0.60666 3:-0.453546 4:-0.767291 5:0.365792 
1000 1:-0.143541 2:0.63996 3:-0.449019 4:-0.739749 5:0.399713 
1000 1:-0.143541 2:0.629456 3:-0.439966 4:-0.729847 5:0.390236 
1000 1:-0.143541 2:0.616419 3:-0.439966 4:-0.723658 5:0.378473 
1000 1:-0.119617 2:0.649346 3:-0.439966 4:-0.722729 5:0.416936 
1000 1:-0.0956938 2:0.658733 3:-0.439966 4:-0.690237 5:0.434235 
1000 1:-0.111643 2:0.640556 3:-0.439966 4:-0.687348 5:0.411893 
1000 1:-0.0956938 2:0.660521 3:-0.439966 4:-0.682191 5:0.435859 
1000 1:-0.0825359 2:0.674377 3:-0.439966 4:-0.670122 5:0.453318 
1000 1:-0.0956938 2:0.667672 3:-0.439966 4:-0.663417 5:0.442353 
1000 1:-0.0825359 2:0.696055 3:-0.439966 4:-0.636701 5:0.473041 
1000 1:-0.062799 2:0.693038 3:-0.439966 4:-0.62881 5:0.477668 
1000 1:-0.0430622 2:0.690021 3:-0.439966 4:-0.620919 5:0.482298 
1000 1:-0.0430622 2:0.694491 3:-0.439966 4:-0.606994 5:0.486385 
1000 1:-0.0430622 2:0.699855 3:-0.439966 4:-0.596163 5:0.491291 
1000 1:-0.0430622 2:0.694491 3:-0.439966 4:-0.568931 5:0.486385 
1000 1:-0.0430622 2:0.708794 3:-0.439966 4:-0.55614 5:0.499467 
1000 1:-0.0191388 2:0.725779 3:-0.439966 4:-0.545103 5:0.524075 
1000 1:-0.0191388 2:0.730026 3:-0.439966 4:-0.536438 5:0.527972 
1000 1:0.00478469 2:0.729802 3:-0.439966 4:-0.522513 5:0.536875 
1000 1:0.00478469 2:0.739189 3:-0.421858 4:-0.494662 5:0.545516 
-1000 1:-0.186603 2:-0.492904 3:-0.449019 4:-0.941204 5:-0.629286 
-1000 1:-0.186603 2:-0.485529 3:-0.452037 4:-0.934912 5:-0.622709 
-1000 1:0.45933 2:-0.121243 3:-0.393404 4:-0.224818 5:-0.114296 
-1000 1:0.45933 2:-0.123477 3:-0.393404 4:-0.224818 5:-0.116469 
-1000 1:0.770335 2:-0.093083 3:-0.312891 4:-0.124555 5:0.00730795 
-1000 1:0.770335 2:-0.093083 3:-0.302867 4:-0.132395 5:0.00730795 
-1000 1:0.770335 2:-0.093083 3:-0.294137 4:-0.143432 5:0.00730795 
-1000 1:0.758373 2:-0.0953179 3:-0.217827 4:-0.145289 5:0.00136459 
-1000 1:0.770335 2:-0.0997877 3:-0.227527 4:-0.145907 5:0.000525529 
-1000 1:0.770335 2:-0.110068 3:-0.317094 4:-0.16169 5:-0.00987405 
-1000 1:0.770335 2:-0.110068 3:-0.326148 4:-0.166331 5:-0.00987405 
-1000 1:0.770335 2:-0.113048 3:-0.307178 4:-0.169529 5:-0.0128883 
-1000 1:0.758373 2:-0.121243 3:-0.310304 4:-0.175924 5:-0.0248193 
-1000 1:0.746411 2:-0.123477 3:-0.322591 4:-0.192944 5:-0.03071 
-1000 1:0.754386 2:-0.121988 3:-0.322268 4:-0.207489 5:-0.0267841 
-1000 1:0.799043 2:-0.137781 3:-0.178056 4:-0.245861 5:-0.0292045 
-1000 1:0.845295 2:-0.14374 3:-0.125674 4:-0.242457 5:-0.0212153 
-1000 1:0.861244 2:-0.150743 3:-0.266329 4:-0.248337 5:-0.023522 
-1000 1:0.861244 2:-0.154766 3:-0.246605 4:-0.253907 5:-0.0276379 
-1000 1:0.861244 2:-0.163705 3:-0.19972 4:-0.264428 5:-0.0367844 
-1000 1:0.861244 2:-0.157001 3:-0.250808 4:-0.276188 5:-0.0299246 
-1000 1:0.861244 2:-0.160726 3:-0.236473 4:-0.270617 5:-0.0337359 
-1000 1:0.861244 2:-0.163705 3:-0.244018 4:-0.273093 5:-0.0367844 
-1000 1:0.813397 2:-0.184713 3:-0.949881 4:-0.299087 5:-0.0725671 
-1000 1:0.813397 2:-0.188438 3:-0.959905 4:-0.301563 5:-0.0763542 
-1000 1:0.770335 2:-0.16594 3:-0.959905 4:-0.316107 5:-0.0663818 
-1000 1:0.754386 2:-0.166685 3:-0.95775 4:-0.319717 5:-0.0718959 
-1000 1:0.722488 2:-0.168175 3:-0.956672 4:-0.326319 5:-0.0828899 
-1000 1:0.706539 2:-0.163705 3:-0.959905 4:-0.334571 5:-0.0831393 
-1000 1:0.686603 2:-0.163705 3:-0.956672 4:-0.335603 5:-0.0890542 
-1000 1:0.674641 2:-0.163705 3:-0.959905 4:-0.336531 5:-0.0925972 
-1000 1:0.674641 2:-0.163705 3:-0.959905 4:-0.342411 5:-0.0925972 
-1000 1:0.635167 2:-0.168175 3:-0.956672 4:-0.35417 5:-0.108696 
-1000 1:0.62201 2:-0.163705 3:-0.962923 4:-0.36139 5:-0.108128 
-1000 1:0.62201 2:-0.163705 3:-0.940504 4:-0.359121 5:-0.108128 
-1000 1:0.62201 2:-0.163705 3:-0.931451 4:-0.368095 5:-0.108128 
-1000 1:0.598086 2:-0.163705 3:-0.866782 4:-0.376451 5:-0.115157 
-1000 1:0.574163 2:-0.163705 3:-0.883596 4:-0.394089 5:-0.122167 
-1000 1:0.574163 2:-0.163705 3:-0.894374 4:-0.393161 5:-0.122167 
-1000 1:0.574163 2:-0.163705 3:-0.348782 4:-0.406158 5:-0.122167 
-1000 1:0.563397 2:-0.157224 3:-0.266006 4:-0.417298 5:-0.118934 
-1000 1:0.574163 2:-0.149402 3:-0.36538 4:-0.412554 5:-0.108064 
-1000 1:0.574163 2:-0.154766 3:-0.369692 4:-0.409253 5:-0.113353 
-1000 1:0.574163 2:-0.154766 3:-0.353309 4:-0.407705 5:-0.113353 
-1000 1:0.574163 2:-0.154766 3:-0.322268 4:-0.408015 5:-0.113353 
-1000 1:0.574163 2:-0.157001 3:-0.294676 4:-0.420393 5:-0.115556 
-1000 1:0.586124 2:-0.163705 3:-0.326665 4:-0.438651 5:-0.118665 
-1000 1:0.574163 2:-0.163705 3:-0.341668 4:-0.440611 5:-0.122167 
-1000 1:0.598086 2:-0.163705 3:-0.383703 4:-0.434009 5:-0.115157 
-1000 1:0.586124 2:-0.163705 3:-0.39017 4:-0.443911 5:-0.118665 
-1000 1:0.574163 2:-0.163705 3:-0.406338 4:-0.462788 5:-0.122167 
-1000 1:0.574163 2:-0.163705 3:-0.406338 4:-0.465367 5:-0.122167 
-1000 1:0.574163 2:-0.163705 3:-0.411834 4:-0.46743 5:-0.122167 
-1000 1:0.574163 2:-0.163705 3:-0.425738 4:-0.470525 5:-0.122167 
-1000 1:0.574163 2:-0.17041 3:-0.410218 4:-0.481974 5:-0.128778 
-1000 1:0.574163 2:-0.172645 3:-0.403751 4:-0.484759 5:-0.130981 
-1000 1:0.574163 2:-0.172645 3:-0.403104 4:-0.489092 5:-0.130981 
-1000 1:0.574163 2:-0.172645 3:-0.399871 4:-0.503739 5:-0.130981 
-1000 1:0.574163 2:-0.172645 3:-0.383703 4:-0.497138 5:-0.130981 
-1000 1:0.574163 2:-0.172645 3:-0.367536 4:-0.496519 5:-0.130981 
-1000 1:0.574163 2:-0.177562 3:-0.367536 4:-0.508278 5:-0.135829 
-1000 1:0.563397 2:-0.182478 3:-0.416685 4:-0.526845 5:-0.143799 
-1000 1:0.563397 2:-0.18002 3:-0.418625 4:-0.526845 5:-0.141379 
-1000 1:0.574163 2:-0.179201 3:-0.414098 4:-0.526536 5:-0.137444 
-1000 1:0.552632 2:-0.182478 3:-0.415715 4:-0.523751 5:-0.146918 
-1000 1:0.574163 2:-0.182478 3:-0.406338 4:-0.524369 5:-0.140676 
-1000 1:0.563397 2:-0.182478 3:-0.406338 4:-0.526226 5:-0.143799 
-1000 1:0.563397 2:-0.184713 3:-0.399871 4:-0.539842 5:-0.145999 
-1000 1:0.574163 2:-0.182478 3:-0.412804 4:-0.550983 5:-0.140676 
-1000 1:0.545455 2:-0.188438 3:-0.412804 4:-0.548713 5:-0.154849 
-1000 1:0.541866 2:-0.182255 3:-0.420565 4:-0.550983 5:-0.149814 
-1000 1:-0.437799 2:-0.834171 3:-0.439966 4:-0.969364 5:-0.980527 
-1000 1:-0.437799 2:-0.827467 3:-0.453546 4:-0.965341 5:-0.974751 
-1000 1:-0.425837 2:-0.825232 3:-0.458073 4:-0.963794 5:-0.970597 
-1000 1:-0.437799 2:-0.825232 3:-0.458073 4:-0.955748 5:-0.972826 
-1000 1:-0.457735 2:-0.825232 3:-0.471007 4:-0.943164 5:-0.976533 
-1000 1:-0.437799 2:-0.82322 3:-0.46842 4:-0.946464 5:-0.971093 
-1000 1:0.302632 2:-0.66432 3:-0.365919 4:-0.500851 5:-0.676307 
-1000 1:0.291866 2:-0.674154 3:-0.386937 4:-0.513229 5:-0.68802 
-1000 1:0.291866 2:-0.702313 3:-0.922074 4:-0.576358 5:-0.714709 
-1000 1:0.267943 2:-0.704548 3:-0.921427 4:-0.578214 5:-0.722013 
-1000 1:0.244019 2:-0.709018 3:-0.913343 4:-0.572644 5:-0.731394 
-1000 1:0.244019 2:-0.709018 3:-0.91399 4:-0.580381 5:-0.731394 
-1000 1:0.244019 2:-0.709018 3:-0.931451 4:-0.595853 5:-0.731394 
-1000 1:0.212121 2:-0.712296 3:-0.924553 4:-0.604827 5:-0.741325 
-1000 1:0.208134 2:-0.709018 3:-0.937271 4:-0.615349 5:-0.739106 
-1000 1:0.196172 2:-0.711476 3:-0.919164 4:-0.619372 5:-0.74397 
-1000 1:0.196172 2:-0.709018 3:-0.91108 4:-0.62061 5:-0.741669 
-1000 1:0.196172 2:-0.711476 3:-0.939211 4:-0.626696 5:-0.74397 
-1000 1:0.169856 2:-0.718851 3:-0.935331 4:-0.634535 5:-0.75647 
-1000 1:0.143541 2:-0.718851 3:-0.935331 4:-0.633916 5:-0.76205 
-1000 1:0.143541 2:-0.718851 3:-0.932313 4:-0.6432 5:-0.76205 
-1000 1:0.143541 2:-0.718851 3:-0.894913 4:-0.658363 5:-0.76205 
-1000 1:0.143541 2:-0.736134 3:-0.935331 4:-0.657228 5:-0.778116 
-1000 1:0.119617 2:-0.729802 3:-0.933067 4:-0.673836 5:-0.777256 
-1000 1:0.0956938 2:-0.733453 3:-0.924553 4:-0.679922 5:-0.785642 
-1000 1:0.0956938 2:-0.738816 3:-0.830136 4:-0.687348 5:-0.790597 
-1000 1:0.196172 2:-0.763549 3:-0.258892 4:-0.703027 5:-0.792704 
-1000 1:0.220096 2:-0.768019 3:-0.274736 4:-0.689308 5:-0.791927 
-1000 1:0.244019 2:-0.766529 3:-0.322268 4:-0.703853 5:-0.785551 
-1000 1:0.244019 2:-0.772489 3:-0.305454 4:-0.702615 5:-0.791163 
-1000 1:0.255981 2:-0.778523 3:-0.290257 4:-0.706947 5:-0.794367 
-1000 1:-0.681021 2:-0.756993 3:-0.959905 4:-0.947702 5:-0.96053 
-1000 1:-0.677033 2:-0.756174 3:-0.959905 4:-0.943989 5:-0.959093 
-1000 1:-0.665072 2:-0.753715 3:-0.959905 4:-0.944608 5:-0.954777 
-1000 1:-0.677033 2:-0.756174 3:-0.959905 4:-0.945846 5:-0.959093 
-1000 1:-0.69697 2:-0.760271 3:-0.959905 4:-0.948528 5:-0.966265 
-1000 1:-0.677033 2:-0.756174 3:-0.959905 4:-0.947702 5:-0.959093 
-1000 1:-0.681021 2:-0.756993 3:-0.945247 4:-0.946052 5:-0.96053 
-1000 1:-0.688995 2:-0.758632 3:-0.937918 4:-0.946464 5:-0.963399 
-1000 1:-0.688995 2:-0.756174 3:-0.937918 4:-0.950797 5:-0.961349 
-1000 1:-0.69697 2:-0.753715 3:-0.95042 4:-0.952241 5:-0.960803 
-1000 1:-0.700957 2:-0.753715 3:-0.956672 4:-0.950178 5:-0.961555 
-1000 1:-0.712919 2:-0.753715 3:-0.95042 4:-0.950178 5:-0.963807 
-1000 1:-0.712919 2:-0.753715 3:-0.956672 4:-0.948321 5:-0.963807 
-1000 1:-0.712919 2:-0.753715 3:-0.947295 4:-0.945536 5:-0.963807 
-1000 1:-0.712919 2:-0.753715 3:-0.946325 4:-0.949559 5:-0.963807 
-1000 1:-0.72488 2:-0.749246 3:-0.949881 4:-0.953582 5:-0.962347 
-1000 1:-0.72488 2:-0.744776 3:-0.928864 4:-0.948012 5:-0.958636 
-1000 1:-0.72488 2:-0.744776 3:-0.912373 4:-0.947702 5:-0.958636 
-1000 1:-0.712919 2:-0.744776 3:-0.894374 4:-0.94729 5:-0.956375 
-1000 1:-0.688995 2:-0.753715 3:-0.883919 4:-0.939657 5:-0.959299 
-1000 1:-0.665072 2:-0.750736 3:-0.875835 4:-0.943989 5:-0.952284 
-1000 1:-0.62201 2:-0.763549 3:-0.879069 4:-0.943989 5:-0.954881 
-1000 1:-0.62201 2:-0.763549 3:-0.881656 4:-0.941513 5:-0.954881 
-1000 1:-0.574163 2:-0.761091 3:-0.866782 4:-0.949868 5:-0.943727 
-1000 1:-0.574163 2:-0.763549 3:-0.861285 4:-0.950797 5:-0.945808 
-1000 1:-0.547847 2:-0.765784 3:-0.855141 4:-0.952654 5:-0.942695 
-1000 1:-0.521531 2:-0.768019 3:-0.849968 4:-0.950178 5:-0.939581 
-1000 1:-0.521531 2:-0.772489 3:-0.845441 4:-0.952963 5:-0.943391 
-1000 1:-0.521531 2:-0.772489 3:-0.836603 4:-0.953066 5:-0.943391 
-1000 1:-0.521531 2:-0.7745 3:-0.82798 4:-0.943679 5:-0.945105 
-1000 1:-0.473684 2:-0.772489 3:-0.831214 4:-0.941513 5:-0.934261 
-1000 1:-0.457735 2:-0.777852 3:-0.821944 4:-0.945227 5:-0.935816 
-1000 1:-0.449761 2:-0.778523 3:-0.821837 4:-0.947702 5:-0.934869 
-1000 1:-0.457735 2:-0.780534 3:-0.814615 4:-0.946052 5:-0.938121 
-1000 1:-0.393541 2:-0.780534 3:-0.803729 4:-0.942008 5:-0.925828 
-1000 1:-0.334928 2:-0.795433 3:-0.775814 4:-0.946464 5:-0.927538 
-1000 1:-0.334928 2:-0.798413 3:-0.784975 4:-0.947083 5:-0.93014 
-1000 1:-0.282297 2:-0.796178 3:-0.776892 4:-0.940894 5:-0.918068 
-1000 1:-0.270335 2:-0.798413 3:-0.765251 4:-0.947702 5:-0.917728 
-1000 1:-0.258373 2:-0.798413 3:-0.756197 4:-0.943679 5:-0.915419 
-1000 1:-0.23445 2:-0.800872 3:-0.754257 4:-0.945227 5:-0.912967 
-1000 1:-0.23445 2:-0.804969 3:-0.745635 4:-0.946052 5:-0.916592 
-1000 1:-0.210526 2:-0.80333 3:-0.742617 4:-0.944608 5:-0.910517 
-1000 1:-0.186603 2:-0.805788 3:-0.721923 4:-0.948321 5:-0.908067 
-1000 1:-0.186603 2:-0.808247 3:-0.209097 4:-0.951106 5:-0.910256 
-1000 1:-0.186603 2:-0.808247 3:1 4:-0.94729 5:-0.910256 
-1000 1:-0.157895 2:-0.811227 3:0.0722138 4:-0.950591 5:-0.907352 
-1000 1:-0.143541 2:-0.812717 3:-0.675038 4:-0.94306 5:-0.905901 
-1000 1:-0.143541 2:-0.814951 3:-0.73421 4:-0.93945 5:-0.907901 
-1000 1:-0.143541 2:-0.812717 3:-0.714486 4:-0.943494 5:-0.905901 
-1000 1:-0.127592 2:-0.811227 3:-0.70942 4:-0.948528 5:-0.901467 
-1000 1:-0.131579 2:-0.814951 3:-0.734857 4:-0.94337 5:-0.905582 
-1000 1:-0.119617 2:-0.812717 3:-0.716749 4:-0.944608 5:-0.901253 
-1000 1:-0.0956938 2:-0.812717 3:-0.725803 4:-0.941513 5:-0.896593 
-1000 1:-0.0956938 2:-0.814951 3:-0.702199 4:-0.942442 5:-0.898606 
-1000 1:-0.0606061 2:-0.817186 3:-0.735719 4:-0.941101 5:-0.893779 
-1000 1:-0.0606061 2:-0.817186 3:-0.703815 4:-0.942751 5:-0.893779 
-1000 1:-0.0430622 2:-0.819198 3:-0.732917 4:-0.945536 5:-0.892174 
-1000 1:-0.0430622 2:-0.819198 3:-0.667277 4:-0.942751 5:-0.892174 
-1000 1:-0.0430622 2:-0.825232 3:-0.667601 4:-0.945846 5:-0.897646 
-1000 1:-0.00717703 2:-0.825232 3:-0.667601 4:-0.943679 5:-0.890642 
-1000 1:0.0167464 2:-0.825232 3:-0.672774 4:-0.939657 5:-0.885958 
-1000 1:0.00478469 2:-0.828212 3:-0.650356 4:-0.9378 5:-0.891021 
-1000 1:0.0207337 2:-0.834171 3:-0.65208 4:-0.940688 5:-0.89335 
-1000 1:0.0287081 2:-0.834171 3:-0.656607 4:-0.940275 5:-0.891793 
-1000 1:0.0526316 2:-0.834171 3:-0.650787 4:-0.93945 5:-0.887114 
-1000 1:0.0526316 2:-0.834171 3:-0.649493 4:-0.937387 5:-0.887114 
-1000 1:0.0849282 2:-0.834171 3:-0.666307 4:-0.939966 5:-0.880779 
-1000 1:0.0956938 2:-0.834171 3:-0.654667 4:-0.9378 5:-0.878661 
-1000 1:0.0956938 2:-0.837151 3:-0.650356 4:-0.941101 5:-0.881413 
-1000 1:0.0956938 2:-0.840876 3:-0.665337 4:-0.939657 5:-0.884851 
-1000 1:0.107656 2:-0.840876 3:-0.65208 4:-0.939347 5:-0.882506 
-1000 1:0.131579 2:-0.843111 3:-0.660487 4:-0.947083 5:-0.879877 
-1000 1:0.127592 2:-0.843111 3:-0.643889 4:-0.944814 5:-0.88066 
-1000 1:0.143541 2:-0.843111 3:-0.64917 4:-0.942442 5:-0.877525 
-1000 1:0.156699 2:-0.843111 3:-0.627183 4:-0.939657 5:-0.874934 
-1000 1:0.143541 2:-0.848028 3:-0.623626 4:-0.940894 5:-0.882092 
-1000 1:0.196172 2:-0.843111 3:-0.628476 4:-0.939038 5:-0.867137 
-1000 1:0.196172 2:-0.843111 3:-0.633542 4:-0.936562 5:-0.867137 
-1000 1:0.196172 2:-0.843111 3:-0.624272 4:-0.938419 5:-0.867137 
-1000 1:0.220096 2:-0.852944 3:-0.611339 4:-0.942442 5:-0.871621 
-1000 1:0.244019 2:-0.852944 3:-0.615865 4:-0.938419 5:-0.866894 
-1000 1:0.244019 2:-0.852944 3:-0.611339 4:-0.94337 5:-0.866894 
-1000 1:0.291866 2:-0.852944 3:-0.603255 4:-0.94894 5:-0.857402 
-1000 1:0.291866 2:-0.855179 3:-0.605518 4:-0.948321 5:-0.859519 
-1000 1:0.291866 2:-0.861884 3:-0.606812 4:-0.946464 5:-0.865867 
-1000 1:0.334928 2:-0.86993 3:-0.593878 4:-0.948012 5:-0.864988 
-1000 1:0.334928 2:-0.86993 3:-0.590321 4:-0.949559 5:-0.864988 
-1000 1:0.358852 2:-0.867918 3:-0.576417 4:-0.9378 5:-0.858329 
-1000 1:0.366826 2:-0.872909 3:-0.597327 4:-0.939038 5:-0.861516 
-1000 1:0.382775 2:-0.86993 3:-0.575124 4:-0.939966 5:-0.855499 
-1000 1:0.382775 2:-0.878869 3:-0.580944 4:-0.944917 5:-0.864062 
-1000 1:0.382775 2:-0.878869 3:-0.574046 4:-0.941513 5:-0.864062 
-1000 1:0.409091 2:-0.878869 3:-0.584501 4:-0.943989 5:-0.85885 
-1000 1:0.435407 2:-0.883339 3:-0.569304 4:-0.950797 5:-0.857933 
-1000 1:0.451356 2:-0.884829 3:-0.553783 4:-0.936149 5:-0.856206 
-1000 1:0.467305 2:-0.887809 3:-0.566286 4:-0.942751 5:-0.855922 
-1000 1:0.483254 2:-0.890267 3:-0.557663 4:-0.939966 5:-0.855138 
-1000 1:0.483254 2:-0.891087 3:-0.566286 4:-0.935737 5:-0.855933 
-1000 1:0.483254 2:-0.892725 3:-0.626536 4:-0.940275 5:-0.857523 
-1000 1:0.483254 2:-0.897642 3:-0.545592 4:-0.942338 5:-0.862294 
-1000 1:0.483254 2:-0.892725 3:-0.549903 4:-0.942442 5:-0.857523 
-1000 1:0.483254 2:-0.890267 3:-0.546023 4:-0.944608 5:-0.855138 
-1000 1:0.507177 2:-0.892725 3:-0.546023 4:-0.94337 5:-0.852774 
-1000 1:0.5311 2:-0.897642 3:-0.569304 4:-0.941823 5:-0.85281 
-1000 1:0.5311 2:-0.897642 3:-0.563484 4:-0.942132 5:-0.85281 
-1000 1:0.5311 2:-0.897642 3:-0.546993 4:-0.94337 5:-0.85281 
-1000 1:0.552632 2:-0.897642 3:-0.55055 4:-0.945536 5:-0.848526 
-1000 1:0.574163 2:-0.897642 3:-0.544298 4:-0.951416 5:-0.844232 
-1000 1:0.56555 2:-0.903006 3:-0.546799 4:-0.950797 5:-0.851211 
-1000 1:0.574163 2:-0.904347 3:-0.537616 4:-0.947207 5:-0.850814 
-1000 1:0.598086 2:-0.906582 3:-0.555077 4:-0.945536 5:-0.848251 
-1000 1:0.598086 2:-0.906582 3:-0.56316 4:-0.944608 5:-0.848251 
-1000 1:0.610048 2:-0.908593 3:-0.568657 4:-0.949559 5:-0.847851 
-1000 1:0.62201 2:-0.914627 3:-0.562837 4:-0.949353 5:-0.851427 
-1000 1:0.610048 2:-0.910605 3:-0.543436 4:-0.951416 5:-0.849834 
-1000 1:0.606061 2:-0.914627 3:-0.557663 4:-0.950591 5:-0.854592 
-1000 1:0.62201 2:-0.914627 3:-0.545376 4:-0.949559 5:-0.851427 
-1000 1:0.62201 2:-0.914627 3:-0.547316 4:-0.947393 5:-0.851427 
-1000 1:0.62201 2:-0.914627 3:-0.531796 4:-0.951416 5:-0.851427 
-1000 1:0.635167 2:-0.914627 3:-0.539879 4:-0.951106 5:-0.848811 
-1000 1:0.648325 2:-0.919097 3:-0.543436 4:-0.943989 5:-0.850622 
-1000 1:0.674641 2:-0.914627 3:-0.555077 4:-0.945846 5:-0.840942 
-1000 1:0.674641 2:-0.914627 3:-0.537616 4:-0.946464 5:-0.840942 
-1000 1:0.674641 2:-0.914627 3:-0.543436 4:-0.94925 5:-0.840942 
-1000 1:0.674641 2:-0.914627 3:-0.56801 4:-0.942751 5:-0.840942 
-1000 1:0.69059 2:-0.920587 3:-0.57189 4:-0.942751 5:-0.84369 
-1000 1:0.698565 2:-0.923567 3:-0.55249 4:-0.94306 5:-0.845071 
-1000 1:0.674641 2:-0.923567 3:-0.57189 4:-0.952654 5:-0.84983 
-1000 1:0.698565 2:-0.923567 3:-0.541819 4:-0.953272 5:-0.845071 
-1000 1:0.710526 2:-0.923567 3:-0.54764 4:-0.947083 5:-0.842687 
-1000 1:0.722488 2:-0.923567 3:-0.539556 4:-0.947083 5:-0.840299 
-1000 1:0.722488 2:-0.928037 3:-0.54764 4:-0.946464 5:-0.844771 
-1000 1:0.722488 2:-0.923567 3:-0.537831 4:-0.943164 5:-0.840299 
-1000 1:0.722488 2:-0.926547 3:-0.537831 4:-0.946464 5:-0.84328 
-1000 1:0.722488 2:-0.932506 3:-0.564992 4:-0.947702 5:-0.849242 
-1000 1:0.722488 2:-0.923567 3:-0.534706 4:-0.947702 5:-0.840299 
-1000 1:0.746411 2:-0.923567 3:-0.536969 4:-0.94306 5:-0.835515 
-1000 1:0.754386 2:-0.926547 3:-0.540849 4:-0.94729 5:-0.83691 
-1000 1:0.770335 2:-0.923567 3:-0.54861 4:-0.952654 5:-0.830717 
-1000 1:0.770335 2:-0.923567 3:-0.536969 4:-0.947083 5:-0.830717 
-1000 1:0.770335 2:-0.923567 3:-0.54861 4:-0.943989 5:-0.830717 
-1000 1:0.770335 2:-0.923567 3:-0.543867 4:-0.945639 5:-0.830717 
-1000 1:0.770335 2:-0.923567 3:-0.534382 4:-0.950178 5:-0.830717 
-1000 1:0.813397 2:-0.923567 3:-0.55637 4:-0.953272 5:-0.822049 
-1000 1:0.799043 2:-0.923567 3:-0.55637 4:-0.951003 5:-0.824943 
-1000 1:0.813397 2:-0.923567 3:-0.55637 4:-0.949559 5:-0.822049 
-1000 1:0.799043 2:-0.923567 3:-0.554645 4:-0.953891 5:-0.824943 
-1000 1:0.813397 2:-0.923567 3:-0.560897 4:-0.953272 5:-0.822049 
-1000 1:0.813397 2:-0.923567 3:-0.560897 4:-0.951416 5:-0.822049 
-1000 1:0.813397 2:-0.923567 3:-0.542143 4:-0.943989 5:-0.822049 
-1000 1:0.813397 2:-0.923567 3:-0.56801 4:-0.945227 5:-0.822049 
-1000 1:0.825359 2:-0.923567 3:-0.567364 4:-0.939347 5:-0.819634 
-1000 1:0.825359 2:-0.923567 3:-0.565424 4:-0.943989 5:-0.819634 
-1000 1:0.845295 2:-0.923567 3:-0.56801 4:-0.946877 5:-0.815602 
-1000 1:0.861244 2:-0.923567 3:-0.544406 4:-0.950178 5:-0.812369 
-1000 1:0.861244 2:-0.923567 3:-0.562406 4:-0.951828 5:-0.812369 
-1000 1:0.849282 2:-0.923567 3:-0.559603 4:-0.950797 5:-0.814794 
-1000 1:0.861244 2:-0.923567 3:-0.569304 4:-0.94894 5:-0.812369 
-1000 1:0.861244 2:-0.923567 3:-0.563872 4:-0.945227 5:-0.812369 
-1000 1:0.861244 2:-0.923567 3:-0.565424 4:-0.955542 5:-0.812369 
-1000 1:0.861244 2:-0.923567 3:-0.567364 4:-0.952344 5:-0.812369 
-1000 1:0.861244 2:-0.919097 3:-0.556693 4:-0.947393 5:-0.807817 
-1000 1:0.861244 2:-0.919097 3:-0.558957 4:-0.945227 5:-0.807817 
-1000 1:0.861244 2:-0.916862 3:-0.588058 4:-0.950797 5:-0.805541 
-1000 1:0.861244 2:-0.923567 3:-0.593016 4:-0.944814 5:-0.812369 
-1000 1:0.874402 2:-0.923567 3:-0.613602 4:-0.950178 5:-0.809698 
-1000 1:0.878788 2:-0.929527 3:-0.589998 4:-0.951416 5:-0.814889 
-1000 1:0.900718 2:-0.928037 3:-0.598081 4:-0.96008 5:-0.808918 
-1000 1:0.913876 2:-0.923567 3:-0.594525 4:-0.960699 5:-0.801661 
-1000 1:0.900718 2:-0.932506 3:-0.594525 4:-0.959152 5:-0.813493 
-1000 1:0.913876 2:-0.932506 3:-0.599052 4:-0.955129 5:-0.810825 
-1000 1:0.913876 2:-0.932506 3:-0.599052 4:-0.95451 5:-0.810825 
-1000 1:0.913876 2:-0.939882 3:-0.600668 4:-0.95451 5:-0.818385 
-1000 1:0.913876 2:-0.94234 3:-0.600668 4:-0.947702 5:-0.820905 
-1000 1:0.929825 2:-0.94532 3:-0.596034 4:-0.947702 5:-0.820747 
-1000 1:0.913876 2:-0.949045 3:-0.600992 4:-0.951416 5:-0.827778 
-1000 1:0.923445 2:-0.945737 3:-0.589351 4:-0.946464 5:-0.822461 
-1000 1:0.933014 2:-0.945916 3:-0.584501 4:-0.959462 5:-0.820717 
-1000 1:0.937799 2:-0.949045 3:-0.592585 4:-0.957914 5:-0.822969 
-1000 1:0.961722 2:-0.951279 3:-0.598405 4:-0.958224 5:-0.820453 
-1000 1:0.945774 2:-0.953961 3:-0.615865 4:-0.955542 5:-0.826424 
-1000 1:0.945774 2:-0.953961 3:-0.615865 4:-0.952241 5:-0.826424 
-1000 1:0.961722 2:-0.951279 3:-0.598405 4:-0.949559 5:-0.820453 
-1000 1:0.949761 2:-0.953291 3:-0.598405 4:-0.947702 5:-0.824933 
-1000 1:0.961722 2:-0.951279 3:-0.608105 4:-0.948115 5:-0.820453 
-1000 1:0.961722 2:-0.951279 3:-0.595603 4:-0.955542 5:-0.820453 
-1000 1:0.949761 2:-0.953291 3:-0.623626 4:-0.953272 5:-0.824933 
-1000 1:0.961722 2:-0.955302 3:-0.627506 4:-0.956986 5:-0.824601 
-1000 1:0.961722 2:-0.959325 3:-0.623626 4:-0.961318 5:-0.82875 
-1000 1:0.961722 2:-0.959325 3:-0.610692 4:-0.961009 5:-0.82875 
-1000 1:0.961722 2:-0.959325 3:-0.622332 4:-0.955748 5:-0.82875 
-1000 1:0.961722 2:-0.962305 3:-0.609399 4:-0.958843 5:-0.831822 
-1000 1:0.961722 2:-0.974224 3:-0.609399 4:-0.950178 5:-0.844113 
-1000 1:0.961722 2:-0.977204 3:-0.631386 4:-0.955748 5:-0.847186 
-1000 1:0.961722 2:-0.977204 3:-0.631386 4:-0.956058 5:-0.847186 
-1000 1:0.961722 2:-0.977204 3:-0.626644 4:-0.954304 5:-0.847186 
-1000 1:0.961722 2:-0.977204 3:-0.63947 4:-0.955748 5:-0.847186 
-1000 1:0.961722 2:-0.977204 3:-0.633649 4:-0.957605 5:-0.847186 
-1000 1:0.961722 2:-0.97184 3:-0.653374 4:-0.959771 5:-0.841655 
-1000 1:0.961722 2:-0.974224 3:-0.65305 4:-0.956986 5:-0.844113 
-1000 1:0.961722 2:-0.977204 3:-0.650463 4:-0.949559 5:-0.847186 
-1000 1:0.961722 2:-0.979663 3:-0.652727 4:-0.95482 5:-0.84972 
-1000 1:0.961722 2:-0.987038 3:-0.6482 4:-0.959771 5:-0.857324 
-1000 1:0.961722 2:-0.987038 3:-0.645613 4:-0.96008 5:-0.857324 
-1000 1:0.961722 2:-0.991507 3:-0.657254 4:-0.958843 5:-0.861933 
-1000 1:0.961722 2:-0.987038 3:-0.657254 4:-0.955129 5:-0.857324 
-1000 1:0.949761 2:-0.977204 3:-0.659194 4:-0.95451 5:-0.849554 
-1000 1:0.961722 2:-0.977204 3:-0.661134 4:-0.951416 5:-0.847186 
-1000 1:0.949761 2:-0.977204 3:-0.663074 4:-0.954201 5:-0.849554 
-1000 1:0.961722 2:-0.977204 3:-0.674068 4:-0.95678 5:-0.847186 
-1000 1:0.949761 2:-0.982121 3:-0.665014 4:-0.961937 5:-0.854615 
-1000 1:0.949761 2:-0.989273 3:-0.676654 4:-0.962247 5:-0.861978 
-1000 1:0.949761 2:-0.989273 3:-0.678918 4:-0.950797 5:-0.861978 
-1000 1:0.949761 2:-0.989273 3:-0.662427 4:-0.956367 5:-0.861978 
-1000 1:0.937799 2:-0.989273 3:-0.685708 4:-0.951725 5:-0.864324 
-1000 1:0.925837 2:-0.987038 3:-0.689912 4:-0.958843 5:-0.864373 
-1000 1:0.913876 2:-0.987038 3:-0.687864 4:-0.961318 5:-0.866716 
-1000 1:0.913876 2:-0.989273 3:-0.699289 4:-0.964722 5:-0.869006 
-1000 1:0.925837 2:-0.991507 3:-0.709312 4:-0.967817 5:-0.86896 
-1000 1:0.913876 2:-0.995977 3:-0.7133 4:-0.96627 5:-0.875876 
-1000 1:0.913876 2:-0.995977 3:-0.742617 4:-0.965032 5:-0.875876 
-1000 1:0.913876 2:-0.995977 3:-0.73324 4:-0.968745 5:-0.875876 
-1000 1:0.913876 2:-0.991507 3:-0.759431 4:-0.966579 5:-0.871296 
-1000 1:0.913876 2:-0.992997 3:-0.755551 4:-0.962556 5:-0.872823 
-1000 1:0.913876 2:-1 3:-0.755551 4:-0.962866 5:-0.879999 
-1000 1:0.900718 2:-0.995977 3:-0.765251 4:-0.961318 5:-0.878435 
-1000 1:0.88756 2:-0.991507 3:-0.767191 4:-0.960699 5:-0.876424 
-1000 1:0.874402 2:-0.987038 3:-0.749731 4:-0.964413 5:-0.874425 
-1000 1:0.874402 2:-0.989273 3:-0.756197 4:-0.963175 5:-0.876704 
-1000 1:0.878788 2:-0.987038 3:-0.738737 4:-0.95843 5:-0.873571 
-1000 1:0.861244 2:-0.984579 3:-0.757491 4:-0.957295 5:-0.874485 
-1000 1:0.861244 2:-0.987038 3:-0.734857 4:-0.96008 5:-0.876988 
-1000 1:0.861244 2:-0.977204 3:-0.739383 4:-0.969983 5:-0.866978 
-1000 1:0.861244 2:-0.977204 3:-0.749407 4:-0.96596 5:-0.866978 
-1000 1:0.861244 2:-0.977204 3:-0.777862 4:-0.968126 5:-0.866978 
-1000 1:0.813397 2:-0.977204 3:-0.796939 4:-0.96596 5:-0.876325 
-1000 1:0.813397 2:-0.971244 3:-0.787023 4:-0.960906 5:-0.870295 
-1000 1:0.7811 2:-0.970499 3:-0.800819 4:-0.966888 5:-0.875851 
-1000 1:0.784689 2:-0.974224 3:-0.792197 4:-0.965032 5:-0.878906 
-839.3900440908615 1:0.770335 2:-0.968265 3:-0.804699 4:-0.964413 5:-0.8757 
-1000 1:0.770335 2:-0.974224 3:-0.801681 4:-0.964207 5:-0.881697 
-1000 1:0.722488 2:-0.968265 3:-0.783143 4:-0.961318 5:-0.885007 
-1000 1:0.722488 2:-0.965285 3:-0.772365 4:-0.969983 5:-0.882027 
-1000 1:0.722488 2:-0.96156 3:-0.789179 4:-0.959152 5:-0.878302 
-1000 1:0.722488 2:-0.968265 3:-0.804699 4:-0.963484 5:-0.885007 
-1000 1:0.698565 2:-0.957314 3:-0.796939 4:-0.965651 5:-0.878723 
-1000 1:0.722488 2:-0.959325 3:-0.808579 4:-0.963175 5:-0.876067 
-1000 1:0.674641 2:-0.94681 3:-0.803729 4:-0.961628 5:-0.872938 
-1000 1:-0.861244 2:0.264499 3:-0.874542 4:-0.976172 5:-0.159158 
-1000 1:-0.861244 2:0.262264 3:-0.785299 4:-0.969055 5:-0.16099 
-1000 1:-0.837321 2:0.255559 3:-0.807286 4:-0.974315 5:-0.15945 
-1000 1:-0.813397 2:0.247514 3:-0.811166 4:-0.980195 5:-0.159031 
-1000 1:-0.813397 2:0.243044 3:-0.783358 4:-0.980504 5:-0.162717 
-1000 1:-0.787081 2:0.240809 3:-0.847058 4:-0.978029 5:-0.15682 
-1000 1:-0.861244 2:0.251536 3:-0.854495 4:-0.984837 5:-0.16978 
-1000 1:-0.861244 2:0.253548 3:-0.739383 4:-0.97741 5:-0.168132 
-1000 1:-0.849282 2:0.247514 3:-0.889092 4:-0.9771 5:-0.169573 
-1000 1:-0.813397 2:0.241554 3:-0.878853 4:-0.973284 5:-0.163945 
-1000 1:-0.813397 2:0.238574 3:-0.862901 4:-0.97741 5:-0.166403 
-1000 1:-0.813397 2:0.229635 3:-0.857728 4:-0.978648 5:-0.173774 
-1000 1:-0.813397 2:0.229635 3:-0.805669 4:-0.982361 5:-0.173774 
-1000 1:-0.800239 2:0.222259 3:-0.670188 4:-0.984012 5:-0.176015 
-1000 1:-0.760766 2:0.223079 3:-0.589674 4:-0.980195 5:-0.163779 
-1000 1:-0.712919 2:0.206839 3:-0.641086 4:-0.975244 5:-0.163265 
-1000 1:-0.712919 2:0.193876 3:-0.870985 4:-0.987931 5:-0.174094 
-1000 1:-0.69697 2:0.193876 3:-0.707696 4:-0.987312 5:-0.169434 
-1000 1:-0.665072 2:0.193876 3:-0.791442 4:-0.988241 5:-0.160088 
-1000 1:-0.665072 2:0.193876 3:-0.768916 4:-0.984837 5:-0.160088 
-1000 1:-0.654306 2:0.184937 3:-0.688295 4:-0.980814 5:-0.164452 
-1000 1:-0.62201 2:0.184937 3:-0.722246 4:-0.984837 5:-0.154974 
-1000 1:-0.62201 2:0.177562 3:-0.620392 4:-0.984218 5:-0.161208 
-1000 1:-0.574163 2:0.170634 3:-0.624272 4:-0.983599 5:-0.153036 
-1000 1:-0.556619 2:0.166164 3:-0.624057 4:-0.985662 5:-0.151683 
-1000 1:-0.521531 2:0.16013 3:-0.626859 4:-0.983908 5:-0.14651 
-1000 1:-0.509569 2:0.153648 3:-0.617806 4:-0.984218 5:-0.148544 
-1000 1:-0.461722 2:0.146944 3:-0.661457 4:-0.983599 5:-0.14021 
-1000 1:-0.461722 2:0.135322 3:-0.679888 4:-0.982361 5:-0.150242 
-1000 1:-0.425837 2:0.128171 3:-0.750701 4:-0.982671 5:-0.145877 
-1000 1:-0.404306 2:0.128171 3:-0.673421 4:-0.984837 5:-0.139533 
-1000 1:-0.411483 2:0.124446 3:-0.627937 4:-0.980298 5:-0.144885 
-1000 1:-0.382775 2:0.123701 3:-0.638176 4:-0.979886 5:-0.137071 
-1000 1:-0.382775 2:0.116102 3:-0.672343 4:-0.981536 5:-0.143698 
-1000 1:-0.358852 2:0.11342 3:-0.646907 4:-0.981742 5:-0.138993 
-1000 1:-0.334928 2:0.11342 3:-0.646476 4:-0.979886 5:-0.131929 
-1000 1:-0.308612 2:0.106716 3:-0.657254 4:-0.985146 5:-0.13004 
-1000 1:-0.295455 2:0.093083 3:-0.657254 4:-0.982671 5:-0.13817 
-1000 1:-0.282297 2:0.0797482 3:-0.657254 4:-0.986487 5:-0.146071 
-1000 1:-0.270335 2:0.0707342 3:-0.657254 4:-0.982671 5:-0.150532 
-1000 1:-0.258373 2:0.0687228 3:-0.661134 4:-0.973387 5:-0.148808 
-1000 1:-0.23445 2:0.0597832 3:-0.665014 4:-0.982361 5:-0.149733 
-1000 1:-0.23445 2:0.0597832 3:-0.667277 4:-0.984218 5:-0.149733 
-1000 1:-0.210526 2:0.0530786 3:-0.667924 4:-0.979886 5:-0.148695 
-1000 1:-0.186603 2:0.0434685 3:-0.669541 4:-0.976172 5:-0.150274 
-1000 1:-0.186603 2:0.0280478 3:-0.674068 4:-0.984837 5:-0.164065 
-1000 1:-0.165072 2:0.0150855 3:-0.774305 4:-0.982361 5:-0.169421 
-1000 1:-0.186603 2:0.00122919 3:-0.693468 4:-0.991026 5:-0.188047 
-1000 1:-0.165072 2:-0.0103922 3:-0.802113 4:-0.993501 5:-0.192267 
-1000 1:-0.23445 2:-0.0206727 3:-0.83574 4:-0.981123 5:-0.221232 
-1000 1:-0.23445 2:-0.0251425 3:-0.781095 4:-0.979886 5:-0.225203 
-1000 1:-0.222488 2:-0.0251425 3:-0.73421 4:-0.979267 5:-0.221816 
-1000 1:-0.186603 2:-0.0273774 3:-0.797262 4:-0.987622 5:-0.213623 
-1000 1:-0.186603 2:-0.0296122 3:-0.729683 4:-0.984837 5:-0.215621 
-1000 1:-0.186603 2:-0.0363169 3:-0.727096 4:-0.983599 5:-0.221615 
-1000 1:-0.186603 2:-0.0418296 3:-0.827549 4:-0.984837 5:-0.226543 
-1000 1:-0.186603 2:-0.0483853 3:-0.74488 4:-0.986075 5:-0.232404 
-1000 1:-0.186603 2:-0.0483853 3:-0.809226 4:-0.990407 5:-0.232404 
-1000 1:-0.186603 2:-0.054345 3:-0.778832 4:-0.987312 5:-0.237731 
-1000 1:-0.186603 2:-0.0593362 3:-0.803406 4:-0.984527 5:-0.242193 
-1000 1:-0.23445 2:-0.0790032 3:-0.804053 4:-0.986384 5:-0.273049 
-1000 1:-0.222488 2:-0.083473 3:-0.764604 4:-0.984218 5:-0.273713 
-1000 1:-0.210526 2:-0.0787798 3:-0.741647 4:-0.985456 5:-0.266221 
-1000 1:-0.210526 2:-0.0832495 3:-0.739383 4:-0.98855 5:-0.270203 
-1000 1:-0.198565 2:-0.093083 3:-0.767838 4:-0.992883 5:-0.275662 
-1000 1:-0.198565 2:-0.0928595 3:-0.747467 4:-0.994739 5:-0.275462 
-1000 1:-0.186603 2:-0.0990427 3:-0.796508 4:-0.993089 5:-0.277681 
-1000 1:-0.186603 2:-0.102023 3:-0.817633 4:-0.981433 5:-0.280344 
-1000 1:-0.186603 2:-0.102023 3:-0.763311 4:-0.985146 5:-0.280344 
-1000 1:-0.186603 2:-0.102023 3:-0.759431 4:-0.981123 5:-0.280344 
-1000 1:-0.186603 2:-0.112303 3:-0.8241 4:-0.987312 5:-0.289531 
-1000 1:-0.202552 2:-0.119008 3:-0.769347 4:-0.998453 5:-0.299882 
-1000 1:-0.186603 2:-0.119008 3:-0.800496 4:-0.989788 5:-0.295522 
-1000 1:-0.202552 2:-0.127947 3:-0.802975 4:-0.994327 5:-0.307853 
-1000 1:-0.222488 2:-0.137781 3:-0.81246 4:-0.992676 5:-0.322016 
-1000 1:-0.198565 2:-0.135322 3:-0.804699 4:-0.982856 5:-0.313348 
-1000 1:-0.222488 2:-0.135322 3:-0.802759 4:-0.982361 5:-0.31983 
-1000 1:-0.186603 2:-0.137781 3:-0.806963 4:-0.993192 5:-0.312296 
-1000 1:-0.202552 2:-0.140761 3:-0.815909 4:-0.989788 5:-0.319278 
-1000 1:-0.186603 2:-0.140761 3:-0.83186 4:-0.987312 5:-0.314958 
-1000 1:-0.334928 2:-0.154766 3:-0.860315 4:-0.980814 5:-0.367099 
-1000 1:-0.748804 2:-0.0506202 3:-0.492347 4:-0.908402 5:-0.38771 
-1000 1:0.196172 2:0.467725 3:-0.959905 4:0.0281087 5:0.363501 
-1000 1:0.196172 2:0.473684 3:-0.959905 4:0.0198566 5:0.369117 
-1000 1:0.196172 2:0.477037 3:-0.965725 4:0.0106762 5:0.372276 
-1000 1:0.156699 2:0.461169 3:-0.983186 4:0.0112951 5:0.343274 
-1000 1:0.143541 2:0.461169 3:-0.983186 4:0.001702 5:0.338605 
-1000 1:0.143541 2:0.459157 3:-0.965725 4:-0.0239827 5:0.336723 
-1000 1:0.0956938 2:0.458487 3:-0.971546 4:-0.0284182 5:0.319192 
-1000 1:0.107656 2:0.457146 3:-0.983186 4:-0.0301717 5:0.32216 
-1000 1:0.0956938 2:0.455805 3:-0.983186 4:-0.0383207 5:0.316697 
-1000 1:0.0956938 2:0.453123 3:-0.983186 4:-0.055547 5:0.314203 
-1000 1:0.0956938 2:0.453123 3:-0.983186 4:-0.0639022 5:0.314203 
-1000 1:0.0956938 2:0.453123 3:-0.983186 4:-0.0733921 5:0.314203 
-1000 1:0.0849282 2:0.448653 3:-0.983186 4:-0.075352 5:0.306269 
-1000 1:0.0526316 2:0.444184 3:-0.983186 4:-0.0853577 5:0.290829 
-1000 1:0.0526316 2:0.43435 3:-0.983186 4:-0.130125 5:0.281736 
-1000 1:0.0366826 2:0.43435 3:-0.784005 4:-0.127856 5:0.276196 
-1000 1:0.435407 2:0.863448 3:-1 4:0.662076 5:0.835335 
-1000 1:0.45933 2:0.868365 3:-1 4:0.645366 5:0.85014 
-1000 1:0.435407 2:0.863448 3:-1 4:0.645366 5:0.835335 
-1000 1:0.382775 2:0.855403 3:-1 4:0.629893 5:0.805646 
-1000 1:0.382775 2:0.850933 3:-1 4:0.601733 5:0.801321 
-1000 1:0.382775 2:0.846463 3:-1 4:0.589664 5:0.796996 
-1000 1:0.382775 2:0.846463 3:-1 4:0.585951 5:0.796996 
-1000 1:0.358852 2:0.841547 3:-1 4:0.571097 5:0.782392 
-1000 1:0.334928 2:0.83663 3:-1 4:0.566146 5:0.767844 
-1000 1:0.334928 2:0.83663 3:-1 4:0.545722 5:0.767844 
-1000 1:0.334928 2:0.828584 3:-1 4:0.544484 5:0.760109 
-1000 1:0.30622 2:0.822029 3:-1 4:0.505493 5:0.742126 
-1000 1:0.291866 2:0.823667 3:-1 4:0.498685 5:0.737869 
-1000 1:0.291866 2:0.810705 3:-1 4:0.436175 5:0.725476 
-1000 1:0.259968 2:0.804745 3:-1 4:0.400691 5:0.706937 
-1000 1:0.244019 2:0.801766 3:-1 4:0.390376 5:0.697702 
-1000 1:0.244019 2:0.804 3:-1 4:0.38821 5:0.699825 
-1000 1:0.220096 2:0.791932 3:-1 4:0.366857 5:0.678815 
-1000 1:0.220096 2:0.796849 3:-1 4:0.360668 5:0.683471 
-1000 1:0.212121 2:0.791932 3:-1 4:0.35613 5:0.675639 
-1000 1:0.220096 2:0.787909 3:-1 4:0.339626 5:0.675006 
-1000 1:0.196172 2:0.783886 3:-1 4:0.31425 5:0.661701 
-1000 1:0.196172 2:0.783886 3:-1 4:0.298159 5:0.661701 
-1000 1:0.196172 2:0.783886 3:-1 4:0.299397 5:0.661701 
-1000 1:0.143541 2:0.774053 3:-1 4:0.303729 5:0.631682 
-1000 1:0.169856 2:0.774947 3:-1 4:0.288256 5:0.642875 
-1000 1:0.143541 2:0.766007 3:-1 4:0.25793 5:0.62414 
-1000 1:0.143541 2:0.766007 3:-1 4:0.245552 5:0.62414 
-1000 1:0.119617 2:0.766007 3:-1 4:0.231936 5:0.614779 
-1000 1:0.0956938 2:0.757068 3:-1 4:0.221414 5:0.597116 
-1000 1:0.0956938 2:0.757068 3:-1 4:0.210893 5:0.597116 
-1000 1:0.0956938 2:0.766007 3:-1 4:0.209655 5:0.605444 
-1000 1:0.0956938 2:0.760048 3:-1 4:0.212543 5:0.599892 
-1000 1:0.0956938 2:0.757068 3:-1 4:0.198515 5:0.597116 
-1000 1:0.0526316 2:0.747234 3:-1 4:0.187374 5:0.571315 
-1000 1:0.0526316 2:0.743212 3:-1 4:0.166331 5:0.567588 
-1000 1:0.0526316 2:0.739189 3:-1 4:0.167569 5:0.563862 
-1000 1:0.0526316 2:0.739189 3:-1 4:0.149002 5:0.563862 
-1000 1:0.0526316 2:0.739189 3:-1 4:0.142194 5:0.563862 
-1000 1:0.0526316 2:0.739189 3:-1 4:0.123627 5:0.563862 
-1000 1:0.0526316 2:0.739189 3:-1 4:0.114343 5:0.563862 
-1000 1:0.00478469 2:0.739189 3:-1 4:0.095776 5:0.545516 
-1000 1:0.00478469 2:0.739189 3:-1 4:0.101965 5:0.545516 
-1000 1:0.00478469 2:0.739189 3:-1 4:0.0920625 5:0.545516 
-1000 1:0.00478469 2:0.734272 3:-1 4:0.08216 5:0.540989 
-1000 1:-0.0430622 2:0.729355 3:-1 4:0.0734953 5:0.518274 
-1000 1:-0.0191388 2:0.734272 3:-1 4:0.0679251 5:0.531868 
-1000 1:-0.0430622 2:0.729355 3:-1 4:0.0586415 5:0.518274 
-1000 1:-0.0430622 2:0.729355 3:-1 4:0.0574037 5:0.518274 
-1000 1:-0.0430622 2:0.732633 3:-1 4:0.0582289 5:0.521272 
-1000 1:-0.0430622 2:0.729355 3:-1 4:0.0549281 5:0.518274 
-1000 1:-0.0430622 2:0.729355 3:-1 4:0.0437877 5:0.518274 
-1000 1:-0.0430622 2:0.729355 3:-1 4:0.0363608 5:0.518274 
-1000 1:-0.069378 2:0.729355 3:-1 4:0.0357419 5:0.508311 
-1000 1:-0.0956938 2:0.729355 3:-1 4:0.0276961 5:0.498379 
-1000 1:-0.0956938 2:0.725332 3:-1 4:0.0202692 5:0.494725 
-1000 1:-0.0956938 2:0.72131 3:-1 4:0.00789107 5:0.49107 
-1000 1:-0.069378 2:0.72131 3:-1 4:-0.0174841 5:0.500978 
-1000 1:-0.0956938 2:0.72131 3:-1 4:-0.0110888 5:0.49107 
-1000 1:-0.0956938 2:0.72131 3:-1 4:-0.0205787 5:0.49107 
-1000 1:-0.0956938 2:0.71684 3:-1 4:-0.0205787 5:0.48701 
-1000 1:-0.0956938 2:0.71237 3:-1 4:-0.0255299 5:0.48295 
-1000 1:-0.0956938 2:0.71237 3:-1 4:-0.0329568 5:0.48295 
-1000 1:-0.143541 2:0.702537 3:-1 4:-0.0775182 5:0.456188 
-1000 1:-0.143541 2:0.694491 3:-1 4:-0.0688535 5:0.448926 
-1000 1:-0.143541 2:0.694491 3:-1 4:-0.0843262 5:0.448926 
-1000 1:-0.143541 2:0.697173 3:-1 4:-0.0927846 5:0.451347 
-1000 1:-0.186603 2:0.694491 3:-1 4:-0.104131 5:0.433004 
-1000 1:-0.186603 2:0.694491 3:-1 4:-0.10475 5:0.433004 
-1000 1:-0.186603 2:0.694491 3:-1 4:-0.110939 5:0.433004 
-1000 1:-0.186603 2:0.694491 3:-1 4:-0.107845 5:0.433004 
-1000 1:-0.186603 2:0.694491 3:-1 4:-0.107226 5:0.433004 
-1000 1:-0.186603 2:0.684658 3:-1 4:-0.124555 5:0.424178 
-1000 1:-0.186603 2:0.684658 3:-1 4:-0.129506 5:0.424178 
-1000 1:-0.186603 2:0.684658 3:-1 4:-0.151787 5:0.424178 
-1000 1:-0.186603 2:0.684658 3:-1 4:-0.147455 5:0.424178 
-1000 1:-0.172249 2:0.667672 3:-1 4:-0.19181 5:0.414189 
-1000 1:-0.186603 2:0.662756 3:-1 4:-0.198824 5:0.404523 
-1000 1:-0.186603 2:0.657839 3:-1 4:-0.198205 5:0.400111 
-1000 1:-0.186603 2:0.657839 3:-1 4:-0.198824 5:0.400111 
-1000 1:-0.186603 2:0.657839 3:-1 4:-0.200062 5:0.400111 
-1000 1:-0.186603 2:0.657839 3:-1 4:-0.206251 5:0.400111 
-1000 1:-0.186603 2:0.657839 3:-1 4:-0.218629 5:0.400111 
-1000 1:-0.186603 2:0.657839 3:-1 4:-0.213678 5:0.400111 
-1000 1:-0.186603 2:0.657839 3:-1 4:-0.237196 5:0.400111 
-1000 1:-0.186603 2:0.657839 3:-1 4:-0.234102 5:0.400111 
-1000 1:-0.186603 2:0.657839 3:-1 4:-0.248337 5:0.400111 
-1000 1:-0.202552 2:0.655157 3:-1 4:-0.249162 5:0.391901 
-1000 1:-0.218501 2:0.652475 3:-1 4:-0.250812 5:0.383712 
-1000 1:-0.218501 2:0.652475 3:-1 4:-0.253701 5:0.383712 
-1000 1:-0.23445 2:0.649793 3:-1 4:-0.26319 5:0.375543 
-1000 1:-0.23445 2:0.644877 3:-1 4:-0.268142 5:0.371159 
-1000 1:-0.23445 2:0.644877 3:-1 4:-0.274331 5:0.371159 
-1000 1:-0.23445 2:0.63996 3:-1 4:-0.271855 5:0.366775 
-1000 1:-0.23445 2:0.63996 3:-1 4:-0.273093 5:0.366775 
-1000 1:-0.23445 2:0.63996 3:-1 4:-0.271855 5:0.366775 
-1000 1:-0.23445 2:0.63996 3:-1 4:-0.291041 5:0.366775 
-1000 1:-0.23445 2:0.63996 3:-1 4:-0.301563 5:0.366775 
-1000 1:-0.23445 2:0.63996 3:-1 4:-0.304657 5:0.366775 
-1000 1:-0.282297 2:0.631914 3:-1 4:-0.307752 5:0.342447 
-1000 1:-0.23445 2:0.631914 3:-1 4:-0.317654 5:0.359601 
-1000 1:-0.23445 2:0.631914 3:-1 4:-0.309609 5:0.359601 
-1000 1:-0.250399 2:0.631914 3:-1 4:-0.316829 5:0.353872 
-1000 1:-0.258373 2:0.631914 3:-1 4:-0.327557 5:0.351012 
-1000 1:-0.258373 2:0.631914 3:-1 4:-0.338078 5:0.351012 
-1000 1:-0.282297 2:0.622975 3:-1 4:-0.370261 5:0.334527 
-1000 1:-0.282297 2:0.622975 3:-1 4:-0.362216 5:0.334527 
-1000 1:-0.282297 2:0.622975 3:-1 4:-0.364072 5:0.334527 
-1000 1:-0.282297 2:0.622975 3:-1 4:-0.377069 5:0.334527 
-204.9763341696256 1:-0.282297 2:0.613141 3:-1 4:-0.383259 5:0.325814 
-1000 1:-0.282297 2:0.613141 3:-1 4:-0.381402 5:0.325814 
-1000 1:-0.282297 2:0.479048 3:-1 4:0.17871 5:0.207057 
-1000 1:-0.282297 2:0.479048 3:-1 4:-0.404301 5:0.207057 
-1000 1:-0.282297 2:0.479048 3:-1 4:-0.147661 5:0.207057 
-1000 1:-0.350877 2:0.488881 3:-0.458073 4:-0.913869 5:0.192474 
