svm_type c_svc
kernel_type rbf
gamma 0.0625
nr_class 2
total_sv 2320
rho -0.163899
label 1 0
nr_sv 1168 1152
SV
0.5378019184245957 1:23.15 2:27.2675 3:429.5 4:714 5:0.004783441 
0.5020765411904569 1:23.15 2:27.245 3:426 4:713.5 5:0.004779464 
0.4382073214580162 1:23.15 2:27.2 3:426 4:708.25 5:0.004771509 
0.6187112974224949 1:23.1 2:27.2 3:426 4:704.5 5:0.004756993 
0.4615116406185136 1:23.1 2:27.2 3:419 4:701 5:0.004756993 
0.461454501206346 1:23.1 2:27.2 3:419 4:699 5:0.004756993 
0.5408755142311776 1:23.1 2:27.1 3:419 4:691 5:0.004739371 
0.2467337877217252 1:23.1 2:27.166667 3:419 4:683.5 5:0.004751119 
0.3443698583802797 1:23 2:27.125 3:419 4:686 5:0.004714942 
0.389163950467308 1:23 2:27.125 3:418.5 4:680.5 5:0.004714942 
0.414088705499741 1:20.7225 2:22.5 3:419 4:470.75 5:0.003396065 
0.8288187727378719 1:20.73 2:22.5 3:419 4:472 5:0.003397643 
0.6775755034278772 1:20.7675 2:22.65 3:411 4:478 5:0.003428371 
0.5112529723007838 1:20.815 2:22.8675 3:411 4:497.75 5:0.00347167 
0.4997787808246777 1:20.823333 2:23.033333 3:408.33333 4:499 5:0.003498792 
0.7626844931999338 1:20.815 2:23.025 3:400 4:507 5:0.003495715 
0.6190338379810858 1:20.89 2:23.175 3:396 4:514.75 5:0.003534987 
0.626772960375087 1:20.89 2:23.29 3:396 4:520.75 5:0.003552629 
0.5040979861525696 1:20.89 2:23.29 3:396 4:526 5:0.003552629 
0.2357197923619616 1:20.89 2:23.323333 3:398.33333 4:527 5:0.003557743 
0.7063629180358071 1:20.945 2:23.39 3:399.5 4:531.25 5:0.00358013 
0.7405525714329702 1:21 2:23.5 3:411 4:542.75 5:0.003609319 
0.7363590618597042 1:21 2:23.566667 3:411 4:548.5 5:0.003619618 
0.8222418461494004 1:21 2:23.6 3:405 4:559.25 5:0.003624768 
0.8175199428846819 1:21 2:23.6 3:405 4:567.33333 5:0.003624768 
0.5041233577165111 1:21 2:23.7 3:405 4:576 5:0.003640217 
0.5197723391284076 1:21.025 2:23.7225 3:405 4:578.75 5:0.003649329 
0.8081660892975684 1:21.025 2:23.7225 3:412 4:585.75 5:0.003649329 
0.1347500377513356 1:21.05 2:23.745 3:419 4:590 5:0.003658459 
0.6243389728601014 1:21.1 2:23.76 3:419 4:587.66667 5:0.003672112 
0.6075587774247725 1:21.075 2:23.72 3:419 4:594 5:0.003660236 
0.7664039202338495 1:21.033333 2:23.666667 3:419 4:602.33333 5:0.003642565 
0.7072307473744359 1:21.075 2:23.7675 3:419 4:611 5:0.003667608 
0.4891148852813779 1:21.15 2:23.7225 3:419 4:615.75 5:0.003677624 
0.7127763773576195 1:21.2 2:23.745 3:419 4:620.5 5:0.003692515 
0.833139004617109 1:21.2 2:23.79 3:419 4:630.66667 5:0.003699555 
0.6665809985673746 1:21.2 2:23.79 3:419 4:640.5 5:0.003699555 
0.661554435156915 1:21.26 2:23.856667 3:423.66667 4:641 5:0.00372375 
0.7074751722724335 1:21.29 2:23.865 3:422.5 4:650.75 5:0.00373196 
0.7139379721367756 1:21.323333 2:23.926667 3:428.33333 4:654.66667 5:0.003749364 
0.8338642727487594 1:21.29 2:24 3:424.6 4:664.25 5:0.003753199 
0.5523058713754486 1:21.34 2:24 3:426 4:675.4 5:0.003764793 
0.5812072340456897 1:21.29 2:24.05 3:429.5 4:675 5:0.003761065 
0.625468375311911 1:21.29 2:24.1 3:419 4:679 5:0.003768932 
0.8074323877474395 1:21.315 2:24.175 3:426 4:685.5 5:0.003786568 
0.5013817769919553 1:21.29 2:24.2 3:419 4:689.33333 5:0.003784666 
0.6036284195282691 1:21.29 2:24.2 3:433 4:692.75 5:0.003784666 
0.3263563883091734 1:21.34 2:24.15 3:433 4:695.5 5:0.003788467 
0.6951896987085264 1:21.34 2:24.2225 3:433 4:703 5:0.003799909 
0.7208120337151701 1:21.34 2:24.29 3:433 4:709 5:0.003810563 
0.8220689384711326 1:21.34 2:24.29 3:433 4:721.5 5:0.003810563 
0.8235828007865342 1:21.323333 2:24.29 3:426.66667 4:727 5:0.003806647 
0.5102765922481117 1:21.356667 2:24.29 3:436.33333 4:733 5:0.003814482 
0.6683896363159235 1:21.365 2:24.29 3:429 4:736.25 5:0.003816443 
0.7691198362855554 1:21.356667 2:24.29 3:429 4:742.66667 5:0.003814482 
0.4731800339740252 1:21.323333 2:24.29 3:434 4:737 5:0.003806647 
0.732380503600912 1:21.39 2:24.2675 3:444 4:739.25 5:0.003818769 
0.4308042697642845 1:21.39 2:24.29 3:444 4:753.75 5:0.003822332 
0.698781619996143 1:21.365 2:24.2225 3:441.75 4:746.25 5:0.003805773 
0.2024676033702315 1:21.39 2:24.26 3:446 4:754.66667 5:0.003817582 
0.4700299893143762 1:21.39 2:24.26 3:439 4:755.33333 5:0.003817582 
0.6333379920302036 1:21.39 2:24.29 3:446.5 4:758.25 5:0.003822332 
0.4809092072637139 1:21.4175 2:24.315 3:455.25 4:785.5 5:0.003832783 
0.8443252097197372 1:21.39 2:24.29 3:447.33333 4:789.66667 5:0.003822332 
0.3339829497044404 1:21.5 2:24.39 3:457.33333 4:782.33333 5:0.003864276 
3.045735748709448 1:21.5 2:24.365 3:465.5 4:785.25 5:0.003860291 
0.6182340694891763 1:21.525 2:24.5425 3:478.5 4:791.25 5:0.003894583 
0.4588372366540705 1:21.55 2:24.5175 3:471.25 4:808.75 5:0.003896587 
0.4052355259438558 1:21.6 2:24.39 3:473 4:812 5:0.00388815 
1.118912585702045 1:21.6 2:24.55 3:484.5 4:811 5:0.003913817 
0.6987816291406632 1:21.7 2:24.7 3:482.5 4:817.75 5:0.003962194 
0.7251422477386761 1:21.7 2:24.696667 3:487.5 4:833.25 5:0.003961656 
0.611732835322416 1:21.7675 2:24.865 3:490 4:847.75 5:0.004005429 
0.5142944591731676 1:21.79 2:24.89 3:492 4:854 5:0.004015034 
0.7757082260688503 1:21.815 2:24.9175 3:497.25 4:863.5 5:0.004025682 
0.7725400376236913 1:21.84 2:25.0225 3:495.5 4:869.75 5:0.004048974 
0.8212174457577048 1:21.89 2:25.2 3:497 4:895.5 5:0.004090435 
0.7531630829620253 1:21.89 2:25.2925 3:495.5 4:910.75 5:0.004105549 
0.728558757342313 1:21.9175 2:25.39 3:494 4:919.25 5:0.00412845 
0.6210005686556588 1:21.963333 2:25.393333 3:498.66667 4:925.33333 5:0.004140638 
0.5953819184532345 1:22 2:25.4725 3:504.25 4:933.75 5:0.004162997 
0.2701627398220703 1:22 2:25.5 3:506 4:936 5:0.004167521 
0.3052677167901302 1:22 2:25.519 3:505.75 4:939.375 5:0.004170647 
0.6675761956434068 1:22 2:25.538 3:505.5 4:942.75 5:0.004173773 
0.8362038385947651 1:22.025 2:25.5975 3:518.5 4:948.25 5:0.00418999 
0.8320076337917643 1:22.05 2:25.7475 3:508.5 4:961.5 5:0.004221183 
0.8231063333246394 1:22.066667 2:25.793333 3:503.66667 4:969.33333 5:0.004233077 
0.8273131864476224 1:22.066667 2:25.893333 3:496.33333 4:973.66667 5:0.004249601 
0.8288759312855138 1:22.1 2:25.926667 3:503 4:986.33333 5:0.004263823 
0.828835939845985 1:22.1 2:25.945 3:506 4:994.5 5:0.004266859 
0.8161332327381435 1:22.1 2:26.075 3:489.5 4:1003.25 5:0.004288386 
0.6422232582871739 1:22.1 2:25.83 3:478 4:1006.6667 5:0.004247817 
0.814000399124279 1:22.1 2:25.8 3:483.25 4:998.75 5:0.00424285 
0.2179884586026242 1:22.1 2:26.05 3:476 4:1008 5:0.004284246 
0.8188199219523536 1:22.1 2:26.1 3:486.5 4:1021 5:0.004292526 
0.8111105445243219 1:22.1 2:26.0725 3:476.25 4:1029.5 5:0.004287972 
0.5222799501250321 1:22.1 2:25.745 3:469 4:1025 5:0.004233743 
0.4507921190725819 1:22.1 2:25.793333 3:459 4:1015 5:0.004241746 
0.2886259064542048 1:22.1 2:25.945 3:459 4:1011 5:0.004266859 
0.696598152364339 1:22.125 2:26.025 3:460.25 4:1025 5:0.004286677 
0.7443005495546752 1:22.1 2:26.2 3:439 4:1025.6667 5:0.004309086 
0.3001884313934939 1:22.1 2:26.1975 3:450.25 4:1026.5 5:0.004308672 
0.3494540867366692 1:22.075 2:26.2 3:450.25 4:1023.5 5:0.004302479 
0.2021644616144259 1:22.1 2:26.29 3:454 4:1027 5:0.004323991 
0.8811178436147649 1:22.1 2:26.29 3:457.75 4:1031 5:0.004323991 
1.426884312514713 1:22.1 2:26.356667 3:462.33333 4:1033 5:0.004335033 
1.976891436420178 1:22.1 2:26.39 3:456.5 4:1038 5:0.004340553 
0.5442138901824796 1:22.1 2:26.39 3:454 4:1034.5 5:0.004340553 
0.5964324939815057 1:22.1 2:26.39 3:444 4:1037 5:0.004340553 
0.07971839474155695 1:22.1 2:26.5225 3:449.5 4:1037.5 5:0.004362499 
0.577211490841061 1:22.1 2:26.47 3:449.5 4:1031.5 5:0.004353804 
3.765237094657296 1:22.1 2:26.445 3:460 4:1039.25 5:0.004349663 
0.3477448449209361 1:22.1 2:26.445 3:449.5 4:1040.25 5:0.004349663 
6.841389824450539 1:22.1 2:26.55 3:460 4:1045.5 5:0.004367054 
1.121917926778266 1:22.1 2:26.5 3:454.75 4:1041.75 5:0.004358773 
0.3269663490274487 1:22.1 2:26.6 3:449.5 4:1045.5 5:0.004375336 
0.1072090472232676 1:22.1 2:26.7 3:455.5 4:1049 5:0.004391901 
0.7770176516989947 1:22.1 2:26.675 3:454 4:1047 5:0.00438776 
0.7626530835434959 1:22.1 2:26.65 3:469 4:1047 5:0.004383619 
1.008734085757545 1:22.025 2:26.4425 3:469 4:1034.25 5:0.004329269 
0.5534658277569345 1:22 2:26.23 3:469 4:1021.6667 5:0.004287649 
0.713612948787172 1:22.066667 2:26.26 3:464 4:1016 5:0.004310195 
0.6597360067643298 1:22.075 2:26.2925 3:454 4:1006.25 5:0.004317775 
0.17921467247647 1:22.1 2:26.245 3:461.5 4:1008 5:0.004316539 
0.5348356717228256 1:22.1 2:26.245 3:464 4:999 5:0.004316539 
0.2285474000835515 1:22.1 2:26.245 3:459 4:1006 5:0.004316539 
0.434396407727463 1:22.08 2:26.216 3:461.5 4:1006.5 5:0.004306446 
0.5775937661018367 1:22.1 2:26.2 3:454 4:1014 5:0.004309086 
0.02264273712643054 1:22.08 2:26.18 3:454 4:1009.6 5:0.004300492 
0.2206759778342113 1:22.025 2:26.125 3:454 4:1010.5 5:0.004276929 
0.47587121417261 1:22.075 2:26.2675 3:454 4:1023.25 5:0.004313641 
0.7289115934274371 1:22.075 2:26.29 3:444.25 4:1022 5:0.004317361 
0.02955809014480921 1:22.075 2:26.3425 3:454 4:1033 5:0.004326043 
0.1906122248721953 1:22.025 2:26.34 3:469 4:1031 5:0.004312371 
0.3867617584891171 1:22.075 2:26.365 3:464 4:1039.5 5:0.004329763 
0.714256610314758 1:22.066667 2:26.463333 3:474 4:1051 5:0.004343802 
0.7757090921456909 1:22.1 2:26.5 3:479 4:1047 5:0.004358773 
0.6893831959582158 1:22.1 2:26.5 3:465.25 4:1054 5:0.004358773 
0.1617917945603441 1:22.1 2:26.5 3:469 4:1063.75 5:0.004358773 
0.09523461328807478 1:22.1 2:26.5 3:464 4:1063.5 5:0.004358773 
0.5294946593587784 1:22.1 2:26.525 3:466.75 4:1061.25 5:0.004362913 
0.3137840304248256 1:22.1 2:26.6 3:465.66667 4:1065.6667 5:0.004375336 
0.7060406116688039 1:22.1 2:26.6 3:464 4:1073.25 5:0.004375336 
0.2031678919677996 1:22.1 2:26.6 3:459 4:1083.6667 5:0.004375336 
0.3416274834197703 1:22.1 2:26.6 3:454 4:1082 5:0.004375336 
0.2839369845715143 1:22.175 2:26.6 3:454 4:1079.5 5:0.004395519 
0.3079401125651381 1:22.175 2:26.6 3:450.25 4:1077.75 5:0.004395519 
0.1049944983089035 1:22.175 2:26.6 3:442.75 4:1067.75 5:0.004395519 
0.297016454907081 1:22.2 2:26.6 3:449.5 4:1075.5 5:0.004402265 
0.1034803373774714 1:22.2 2:26.6 3:454.75 4:1076.5 5:0.004402265 
0.2189232921932824 1:22.2 2:26.6 3:448 4:1068 5:0.004402265 
0.4810015284575304 1:22.2 2:26.6 3:454.66667 4:1069 5:0.004402265 
0.5446962037257578 1:22.2 2:26.7 3:460 4:1066.25 5:0.004418932 
0.5370746702617618 1:22.2 2:26.763333 3:449.33333 4:1060 5:0.004429489 
0.7253204682993701 1:22.2 2:26.856667 3:444 4:1097.3333 5:0.004445046 
0.6905551915083141 1:22.2 2:26.9175 3:444 4:1104 5:0.004455187 
0.2321156931506609 1:22.2 2:26.89 3:454.66667 4:1105 5:0.004450603 
0.5289087452575548 1:22.2 2:26.9725 3:449.5 4:1104.75 5:0.004464356 
0.5643353585075221 1:22.2 2:27 3:454 4:1108.6667 5:0.00446894 
0.7219278739329604 1:22.2 2:27 3:454 4:1116.25 5:0.00446894 
0.3867118061732858 1:22.2 2:27 3:454 4:1134.25 5:0.00446894 
0.4066303814344369 1:22.2 2:27.066667 3:454 4:1137.3333 5:0.004480054 
0.525509952706005 1:22.2 2:27 3:449.5 4:1136.5 5:0.00446894 
0.6522958290839053 1:22.2 2:27.075 3:460 4:1129 5:0.004481443 
0.7220271742716624 1:22.2 2:27.1 3:444 4:1126.5 5:0.004485611 
0.6494868950682049 1:22.2 2:27.1 3:444 4:1137 5:0.004485611 
0.3339906440146312 1:22.2 2:27.1 3:444 4:1131.25 5:0.004485611 
0.2442601606382942 1:22.2 2:27.033333 3:444 4:1132.3333 5:0.004474497 
0.8266617952641846 1:22.2 2:27.025 3:444 4:1114.5 5:0.004473108 
0.4949486111980084 1:22.2 2:27.1 3:460 4:1121.25 5:0.004485611 
0.667367962677104 1:22.175 2:27.175 3:454.75 4:1127.25 5:0.004491221 
0.730071959786696 1:22.175 2:27.125 3:460 4:1136 5:0.004482898 
0.3546618836671872 1:22.2 2:27.1 3:461.5 4:1122.5 5:0.004485611 
0.6537537424353108 1:22.2 2:27.1 3:465.66667 4:1110 5:0.004485611 
0.6807305494911526 1:22.2 2:27.075 3:481.5 4:1115 5:0.004481443 
0.7737380806539331 1:22.2 2:27.1 3:474 4:1119.75 5:0.004485611 
0.7022247521355336 1:22.2 2:27 3:486.5 4:1114 5:0.00446894 
0.3728017394442572 1:22.175 2:27 3:471.5 4:1104.75 5:0.004462091 
0.7547160232389909 1:22.2 2:27.066667 3:474 4:1099.3333 5:0.004480054 
0.811607036594183 1:22.2 2:27 3:481.5 4:1097.75 5:0.00446894 
0.663963551746594 1:22.2 2:27 3:504 4:1088 5:0.00446894 
0.6635395287278057 1:22.2 2:27 3:502.33333 4:1083.6667 5:0.00446894 
1.386336359679837 1:22.2 2:27 3:524 4:1085.5 5:0.00446894 
0.8362059713216368 1:22.2 2:26.963333 3:550 4:1086.5 5:0.004462827 
0.8362768980727072 1:22.29 2:26.865 3:568.5 4:1063.25 5:0.004471042 
0.8356646644789201 1:22.315 2:26.865 3:606.5 4:1063 5:0.004477898 
0.8362519842342188 1:22.39 2:26.79 3:696.5 4:1078 5:0.004485874 
0.8209803255242805 1:22.39 2:26.9725 3:657.25 4:1086 5:0.004516655 
0.8362605034003951 1:22.426667 2:27 3:744 4:1098.3333 5:0.004531459 
0.8209371799781833 1:22.575 2:26.84 3:660 4:1093.5 5:0.004545492 
0.8361673095325961 1:22.6 2:26.815 3:558 4:1102 5:0.004548177 
0.8121621287395576 1:22.6 2:26.856667 3:661.33333 4:1105 5:0.004555296 
0.8123241605563047 1:22.675 2:26.89 3:665.5 4:1111.25 5:0.004581955 
0.8362527114147366 1:22.666667 2:26.963333 3:647.66667 4:1108.3333 5:0.004592203 
0.8361270641735693 1:22.7 2:27.075 3:638 4:1124.25 5:0.004620769 
0.8362446594415511 1:22.7225 2:26.7475 3:558 4:1125.25 5:0.004570746 
0.7998141311912541 1:22.7 2:26.89 3:520 4:1110.3333 5:0.004588962 
0.8333473430343692 1:22.7 2:26.9175 3:513.5 4:1117.5 5:0.00459369 
0.8356877030059782 1:22.65 2:26.55 3:521 4:1051 5:0.004516692 
0.7458437253749423 1:22.625 2:26.4975 3:536.25 4:1041 5:0.004500811 
0.7867321817306665 1:22.6 2:26.39 3:548.33333 4:1039 5:0.004475572 
0.8322685694243219 1:22.625 2:26.4975 3:565.75 4:1037.5 5:0.004500811 
0.8358024415752161 1:22.625 2:26.525 3:584.5 4:1043 5:0.004505516 
0.5658557876302915 1:22.6 2:26.5 3:535 4:1046.3333 5:0.004494363 
0.7729415945862557 1:22.6 2:26.5 3:546.33333 4:1045.3333 5:0.004494363 
0.8337624709580899 1:22.633333 2:26.46 3:570.66667 4:1029.6667 5:0.004496686 
0.8373031501998744 1:22.7225 2:26.4725 3:686.25 4:1027 5:0.004523411 
0.8359459073161798 1:22.89 2:25.945 3:534 4:987 5:0.004478198 
0.8361081105904251 1:22.823333 2:25.856667 3:340.66667 4:983 5:0.00444472 
0.8362067655826269 1:22.29 2:26.166667 3:334.33333 4:900.33333 5:0.004354007 
0.7120538042102582 1:22.29 2:26.15 3:472.25 4:893.75 5:0.004351215 
1.253200760547551 1:22.29 2:25.963333 3:454 4:801 5:0.004319939 
2.547883876114468 1:22.2 2:25.96 3:453 4:780 5:0.004295614 
1.171253685714497 1:22.2 2:26.1225 3:444 4:776.75 5:0.00432269 
0.6197352489754665 1:22.2 2:26.05 3:444 4:782 5:0.00431061 
0.6344762991315563 1:22.2 2:26.213 3:441.9 4:788.6 5:0.00433777 
0.8000912542790559 1:22.2 2:26.376 3:439.8 4:795.2 5:0.004364933 
0.8287302208570113 1:22.2 2:26.6 3:442.5 4:818.5 5:0.004402265 
1.375917873650095 1:22.2 2:26.745 3:443.5 4:837 5:0.004426433 
0.4719130874128577 1:22.2 2:26.945 3:438 4:847.5 5:0.004459771 
0.3169798195023432 1:22.2 2:27 3:438 4:849 5:0.00446894 
2.10887566157363 1:22.2 2:26.9175 3:447 4:842.5 5:0.004455187 
1.606510740194231 1:22.2 2:27.1 3:441 4:839 5:0.004485611 
0.7583827624425855 1:22.2 2:27.196667 3:441 4:860 5:0.004501727 
0.6238059734852649 1:22.2 2:27.4175 3:438 4:885.75 5:0.004538547 
0.4800291601178981 1:22.2 2:27.5 3:429 4:910 5:0.004552304 
0.658526578244748 1:22.2675 2:27.4225 3:429 4:917.25 5:0.004558213 
0.6374455592429097 1:22.2 2:26.8975 3:438 4:919.75 5:0.004451853 
0.7684542162139962 1:22.23 2:27.73 3:441 4:932 5:0.004599115 
0.8013975418864531 1:22.2 2:27.745 3:438 4:942 5:0.00459316 
0.8044088126640231 1:22.2675 2:28.025 3:429 4:959.75 5:0.004659112 
0.65518958555566 1:22.2 2:28 3:444 4:966.5 5:0.00463569 
0.8158465895962073 1:22.2 2:28.1 3:451 4:970.66667 5:0.00465237 
0.8355581928268612 1:22.245 2:28.2225 3:454 4:988.75 5:0.004685722 
0.5589992768752235 1:22.2225 2:28.2225 3:465.25 4:996.75 5:0.004679259 
0.7508977994644248 1:22.2225 2:28.3675 3:474.5 4:1012 5:0.004703482 
0.8124680410353301 1:22.29 2:28.39 3:479 4:1021 5:0.004726771 
0.8352884646636094 1:22.245 2:28.245 3:525.5 4:1019.5 5:0.004689486 
0.8353883538968981 1:22.29 2:28.39 3:515 4:1020 5:0.004726771 
0.6213915624624811 1:22.323333 2:28.39 3:486 4:1052.3333 5:0.004736442 
0.6318911885059114 1:22.29 2:28.356667 3:502.33333 4:1048.3333 5:0.004721179 
0.6892682498462395 1:22.29 2:28.34 3:540.5 4:1050.5 5:0.004718383 
0.6327964583141863 1:22.34 2:28.39 3:504 4:1052.25 5:0.004741284 
0.05752992099761579 1:22.39 2:28.2 3:489 4:1053 5:0.004723766 
0.6156705908804142 1:22.39 2:28.2 3:490.25 4:1051 5:0.004723766 
0.3251256109760611 1:22.39 2:28.293333 3:536.33333 4:1049.6667 5:0.004739519 
0.7949687604164172 1:22.39 2:28.39 3:532 4:1054 5:0.004755836 
0.4441835528477114 1:22.39 2:28.2925 3:543 4:1067.75 5:0.004739378 
0.4441542070121974 1:22.426667 2:28.2 3:543 4:1066.3333 5:0.00473439 
2.908417978640991 1:22.5 2:28.365 3:533.25 4:1081 5:0.004783741 
0.4631215568483629 1:22.463333 2:28.326667 3:527 4:1081.3333 5:0.004766511 
1.226373480531724 1:22.5 2:28.34 3:524 4:1087.5 5:0.004779492 
1.171321820716992 1:22.525 2:28.39 3:526.25 4:1094 5:0.004795324 
0.3969635076820733 1:22.5 2:28.39 3:522 4:1103.3333 5:0.004787989 
0.4513502048419685 1:22.5 2:28.033333 3:517 4:1099.3333 5:0.00472738 
0.4353892030000315 1:22.6 2:28.2 3:513.5 4:1103 5:0.004784898 
0.608769345228353 1:22.6 2:28.245 3:513.5 4:1106.75 5:0.004792592 
0.1800572226169008 1:22.6 2:28.315 3:518 4:1102.25 5:0.004804562 
0.4414199402299909 1:22.55 2:28.2675 3:520.75 4:1097.5 5:0.004781786 
0.2443370780641779 1:22.6 2:28.29 3:525 4:1100 5:0.004800287 
0.3333733809090981 1:22.6 2:28.2 3:524.66667 4:1102 5:0.004784898 
0.8310462191368603 1:22.6 2:28.39 3:489 4:1102.5 5:0.004817386 
0.1012396267631955 1:22.6 2:28.39 3:474 4:1114 5:0.004817386 
0.4615949754985522 1:22.6 2:28.34 3:474 4:1112 5:0.004808837 
0.2948177465626047 1:22.6 2:28.1725 3:472.75 4:1113.5 5:0.004780196 
0.2734423314712754 1:22.6 2:28.1475 3:471.5 4:1105.25 5:0.004775922 
0.7211358352321784 1:22.6 2:28.23 3:464 4:1104.3333 5:0.004790028 
0.222966218114209 1:22.6 2:28.133333 3:469 4:1107.3333 5:0.004773499 
0.4213300707271485 1:22.6 2:28 3:454 4:1101.6667 5:0.004750703 
0.573845101165589 1:22.55 2:27.82 3:450.25 4:1097 5:0.004705513 
0.1025344038218567 1:22.5 2:27.745 3:449.5 4:1097 5:0.004678392 
0.5964324811979824 1:22.525 2:27.7 3:454.75 4:1086.3333 5:0.0046779 
0.5582006088829987 1:22.5 2:27.6 3:460 4:1085 5:0.004653759 
0.5449399330822476 1:22.5 2:27.6 3:436.5 4:1076.25 5:0.004653759 
0.4807760981840957 1:22.5 2:27.33 3:460 4:1060.6667 5:0.004607896 
0.008577563887180919 1:22.5 2:27.4725 3:460.75 4:1062 5:0.0046321 
0.08319487315031703 1:22.5 2:27.34 3:454 4:1074 5:0.004609594 
0.4721105502257885 1:22.5 2:27.29 3:469 4:1072 5:0.004601102 
0.2864760787852497 1:22.5 2:27.315 3:469 4:1068 5:0.004605348 
0.3884142652007292 1:22.5 2:27.29 3:479.66667 4:1072 5:0.004601102 
0.4732176676612078 1:22.5 2:27.2225 3:476.5 4:1074 5:0.004589637 
0.3478267177787633 1:22.5 2:27.2 3:474 4:1069 5:0.004585816 
0.5452753906097859 1:22.5 2:27.15 3:481.5 4:1068.25 5:0.004577324 
0.5537692058546206 1:22.5 2:27.2225 3:474 4:1079.75 5:0.004589637 
0.05491661551249579 1:22.5 2:27.166667 3:469 4:1066 5:0.004580154 
0.5731592305386406 1:22.5 2:27.125 3:474 4:1063.5 5:0.004573078 
0.1587030924783813 1:22.5 2:27.125 3:474 4:1071.25 5:0.004573078 
0.4936331990666057 1:22.5 2:27.1 3:478.5 4:1064.75 5:0.004568832 
0.5784948208446316 1:22.5 2:27.025 3:470.25 4:1079.25 5:0.004556095 
0.3899004414429355 1:22.5 2:26.733333 3:452.33333 4:1064 5:0.004506567 
0.5260150308914397 1:22.5 2:26.925 3:446.5 4:1048.5 5:0.004539113 
0.6385298478896246 1:22.5 2:26.9725 3:449.5 4:1054.5 5:0.00454718 
0.6181226453965817 1:22.5 2:27.05 3:460 4:1055.5 5:0.004560341 
0.3577796257348876 1:22.4175 2:26.82 3:456 4:1063.25 5:0.004498504 
0.5244167876771302 1:22.39 2:26.79 3:456 4:1074 5:0.004485874 
0.3712829430251655 1:22.356667 2:26.73 3:449.33333 4:1068.3333 5:0.004466625 
0.005485491566876118 1:22.39 2:26.675 3:444 4:1056.5 5:0.004466479 
0.1287091056092043 1:22.39 2:26.695 3:444 4:1054 5:0.004469852 
0.03850836968142388 1:22.39 2:26.745 3:444 4:1068 5:0.004478285 
0.6271008657859934 1:22.4175 2:26.65 3:444 4:1078.75 5:0.004469785 
0.04625854922486127 1:22.4725 2:26.745 3:429 4:1077.5 5:0.004500966 
0.6807260576171676 1:22.445 2:26.695 3:429 4:1077.5 5:0.004484933 
0.7427082392823932 1:22.445 2:26.745 3:429 4:1083.25 5:0.004493394 
0.8283773495109099 1:22.426667 2:26.73 3:441 4:1087.6667 5:0.004485817 
0.2733466502356957 1:22.39 2:26.456 3:438 4:1063.25 5:0.004429549 
0.731414524272174 1:22.39 2:26.26 3:432.75 4:1065.5 5:0.0043965 
0.2698263616147575 1:22.39 2:26.426667 3:444 4:1068.6667 5:0.004424603 
0.3812243111545888 1:22.39 2:26.4175 3:444 4:1073.25 5:0.004423057 
0.4210187804141054 1:22.39 2:26.34 3:444 4:1061.5 5:0.004409989 
0.1416807010947497 1:22.39 2:26.463333 3:444 4:1057.3333 5:0.004430785 
0.2621590849108132 1:22.39 2:26.015 3:444 4:1056.25 5:0.004355195 
0.7981218588509783 1:22.39 2:26.045 3:429 4:1046 5:0.004360252 
0.5961275201645656 1:22.39 2:26.29 3:435 4:1049.6667 5:0.004401559 
0.4205771672721328 1:22.39 2:26.2675 3:438 4:1052.75 5:0.004397765 
0.3377661104562641 1:22.39 2:26.29 3:438 4:1044.5 5:0.004401559 
0.1140186386689429 1:22.39 2:26.323333 3:441 4:1053.6667 5:0.004407179 
0.2175420548913188 1:22.34 2:26.39 3:438 4:1068.75 5:0.004404907 
0.1401154443275747 1:22.34 2:26.39 3:447 4:1074.75 5:0.004404907 
0.3199349776202187 1:22.315 2:26.3425 3:438 4:1073 5:0.004390193 
0.2241972743089187 1:22.34 2:26.145 3:438 4:1068 5:0.004363726 
0.4960571955253653 1:22.29 2:25.7 3:441 4:1045.6667 5:0.004275822 
0.3211157900598554 1:22.29 2:26.2425 3:442.5 4:1051 5:0.004366714 
0.5993563697702753 1:22.29 2:26.125 3:438 4:1059.25 5:0.004347026 
0.0489928497000115 1:22.315 2:26.2 3:438 4:1065 5:0.004366277 
0.2728743906369099 1:22.29 2:26.175 3:442.5 4:1064.75 5:0.004355404 
0.5126241081428017 1:22.2675 2:25.8925 3:438 4:1039 5:0.004302135 
0.2518948993968281 1:22.29 2:25.89 3:447 4:1036.3333 5:0.004307653 
0.6861599581551179 1:22.29 2:25.856667 3:433 4:1038.6667 5:0.004302068 
0.8060900006514992 1:22.245 2:25.7225 3:433 4:1030.5 5:0.004267805 
0.8099407071690524 1:22.29 2:25.6 3:433 4:1019.5 5:0.004259071 
0.639480716255389 1:22.2675 2:25.575 3:433 4:1002.75 5:0.004249021 
0.6092275038798934 1:22.29 2:25.445 3:433 4:998.5 5:0.004233108 
0.6730186983854547 1:22.29 2:25.23 3:433 4:991 5:0.004197099 
0.6926676832621043 1:22.245 2:25.15 3:433 4:986 5:0.00417218 
0.7774359515927225 1:22.29 2:25.2675 3:433 4:976.25 5:0.004203379 
0.6023865494016037 1:22.29 2:25.2 3:433 4:966.33333 5:0.004192075 
0.5053794631603484 1:22.29 2:25.03 3:433 4:970 5:0.004163605 
0.4803338579608465 1:22.2225 2:24.865 3:433 4:954.75 5:0.004118903 
0.55694829766648 1:22.26 2:24.826667 3:433 4:951.66667 5:0.004121974 
0.6483842583582236 1:22.2225 2:24.84 3:433 4:933.25 5:0.004114734 
0.6423728522909546 1:22.2 2:24.7 3:433 4:938 5:0.004085752 
0.6388492371455705 1:22.2 2:24.7 3:433 4:925.5 5:0.004085752 
0.3652900143993564 1:22.2 2:24.566667 3:433 4:920.33333 5:0.004063552 
0.3800099624182749 1:22.2 2:24.55 3:433 4:912.25 5:0.004060778 
0.3614521737417628 1:22.2 2:24.334 3:429.5 4:913 5:0.004024818 
0.1339863193587352 1:22.2 2:24.34 3:433 4:903 5:0.004025817 
0.4875552543849092 1:22.2 2:24.34 3:433 4:907 5:0.004025817 
0.5461150402482007 1:22.133333 2:24.29 3:433 4:898.66667 5:0.004001106 
0.5925218235291254 1:22.15 2:24.2225 3:433 4:892 5:0.003993996 
0.3479287435003638 1:22.1 2:24.245 3:433 4:887 5:0.003985489 
0.2007305942652064 1:22.1 2:24.29 3:433 4:884 5:0.003992934 
0.6865249121929979 1:22.125 2:24.2675 3:433 4:878.5 5:0.003995333 
0.1733410683765605 1:22.125 2:24.15 3:433 4:882.25 5:0.003975865 
0.7967892154303332 1:22.1 2:23.996667 3:433 4:866 5:0.003944408 
0.3872263836819096 1:22.025 2:23.945 3:433 4:853.25 5:0.003917793 
0.6644781180791688 1:22 2:23.926667 3:433 4:858 5:0.003908772 
0.1179559734146143 1:22 2:23.89 3:433 4:852.5 5:0.003902744 
0.2357595176837163 1:22.025 2:23.9175 3:433 4:847 5:0.003913265 
0.4044703389879902 1:22 2:23.89 3:433 4:840.66667 5:0.003902744 
0.8359582003114358 1:22.025 2:24.0475 3:213 4:845.5 5:0.003934669 
0.8359787090870949 1:20.2 2:18.6 3:401.33333 4:439 5:0.002715358 
0.8072065979535463 1:20.15 2:18.7 3:419 4:457.25 5:0.002721553 
8 1:20.125 2:18.865 3:411 4:458 5:0.00274141 
0.1558791230187383 1:20.2 2:19.05 3:411 4:464 5:0.002781346 
1.279559713003786 1:20.2225 2:19.05 3:407.5 4:463.5 5:0.002785236 
0.8336708587674223 1:20.2675 2:19.2175 3:400 4:470.25 5:0.0028177 
0.844864885817264 1:20.29 2:19.2225 3:400 4:483.5 5:0.002822377 
0.4419933898626743 1:20.426667 2:19.163333 3:413 4:504 5:0.002837614 
0.3551659118500195 1:20.4725 2:19.0975 3:411 4:503.25 5:0.00283587 
0.7361066241704513 1:20.525 2:19.315 3:411 4:509.25 5:0.002877666 
0.8017364945932604 1:20.625 2:19.4175 3:405 4:524.5 5:0.002910988 
0.8059064696379372 1:20.65 2:19.4725 3:408.5 4:531 5:0.002923796 
0.7216476207179988 1:20.7 2:19.5 3:418.33333 4:530.33333 5:0.002937022 
0.7228752391149285 1:20.7 2:19.575 3:419 4:535.75 5:0.002948372 
0.2501633017454749 1:20.7225 2:19.6 3:419 4:546.25 5:0.00295627 
0.4360349835436239 1:20.79 2:19.4725 3:419 4:546.25 5:0.00294924 
0.6838896682344798 1:20.79 2:19.5 3:419 4:551.25 5:0.002953425 
0.6547581875058924 1:20.79 2:19.533333 3:419 4:560 5:0.002958497 
0.4651518259328076 1:20.79 2:19.525 3:419 4:564 5:0.002957229 
0.5184952466606024 1:20.815 2:19.625 3:419 4:568.75 5:0.002977048 
0.6112636211896904 1:20.84 2:19.65 3:419 4:573 5:0.002985471 
0.7644599555129297 1:20.865 2:19.65 3:419 4:579.5 5:0.002990089 
0.5585524251418709 1:20.89 2:19.6 3:426 4:583.5 5:0.002987058 
0.4369969195293051 1:20.89 2:19.633333 3:423.66667 4:585.33333 5:0.002992162 
0.5689063674276389 1:20.89 2:19.7 3:426 4:594 5:0.003002371 
0.658266665069051 1:20.89 2:19.625 3:419 4:597.5 5:0.002990886 
0.2066727544558362 1:20.89 2:19.633333 3:428.33333 4:595.33333 5:0.002992162 
0.2964362744042039 1:20.865 2:19.675 3:429.5 4:590.75 5:0.002993912 
0.6346273157966051 1:20.84 2:19.695 3:433 4:589.5 5:0.002992341 
0.6757180669670747 1:20.89 2:19.7225 3:433 4:595.75 5:0.003005817 
0.6340172108250463 1:20.865 2:19.7675 3:433 4:605.5 5:0.003008055 
0.4169677224431843 1:20.84 2:19.745 3:433 4:609 5:0.002999974 
0.5710789190656367 1:20.84 2:19.745 3:433 4:614 5:0.002999974 
0.6837713572481157 1:20.89 2:19.79 3:433 4:621 5:0.003016154 
0.1319276278762593 1:20.865 2:19.7675 3:433 4:617.5 5:0.003008055 
0.1207839350216666 1:20.89 2:19.79 3:433 4:616.66667 5:0.003016154 
0.7791535319891879 1:20.856667 2:19.76 3:433 4:628.33333 5:0.00300536 
0.651517443002867 1:20.84 2:19.7675 3:433 4:635.25 5:0.003003409 
0.2279219194276921 1:20.865 2:19.7675 3:433 4:646 5:0.003008055 
0.365919438324235 1:20.823333 2:19.73 3:433 4:642.66667 5:0.002994596 
0.3144973295032184 1:20.89 2:19.79 3:433 4:655 5:0.003016154 
0.3387843765601725 1:20.9175 2:19.79 3:433 4:650.5 5:0.003021285 
0.09734589058652329 1:20.926667 2:19.79 3:433 4:643.66667 5:0.003022998 
0.3762204349384706 1:20.963333 2:19.79 3:433 4:639.33333 5:0.003029855 
0.5843985593024039 1:20.89 2:19.79 3:436.5 4:648 5:0.003016154 
0.6867240235053407 1:20.89 2:19.815 3:426 4:649 5:0.003019983 
0.2050983697009988 1:20.89 2:19.79 3:433 4:654 5:0.003016154 
0.6980916286607328 1:20.89 2:19.926667 3:433 4:660 5:0.003037085 
0.8359476538529704 1:20.89 2:20.133333 3:442.33333 4:677.33333 5:0.003068739 
0.7236052058264492 1:20.89 2:20.354 3:435.8 4:698.2 5:0.003102541 
0.11747303236166 1:20.89 2:20.4725 3:447 4:709.25 5:0.003120694 
0.7445854054532763 1:20.926667 2:20.39 3:442.33333 4:712 5:0.003115109 
0.0138987255428914 1:20.945 2:20.5 3:443.5 4:710 5:0.00313555 
0.6542539302876984 1:20.945 2:20.445 3:447 4:708 5:0.003127095 
0.835902796509628 1:20.945 2:20.6975 3:447 4:725.75 5:0.003165912 
0.3693046353053668 1:20.9725 2:20.7675 3:438 4:733.25 5:0.003182078 
0.5054659504853821 1:21 2:20.79 3:441 4:735.33333 5:0.00319096 
0.4602804202267054 1:21 2:20.815 3:438 4:740.75 5:0.003194817 
0.4843577185880004 1:21 2:20.865 3:438 4:744.25 5:0.003202531 
0.6262652917783288 1:21 2:20.79 3:440 4:759 5:0.00319096 
0.6830128897036397 1:21 2:20.815 3:437.25 4:752.25 5:0.003194817 
0.7346228043842938 1:21.05 2:21.05 3:441 4:765.25 5:0.003241069 
0.5922018823622979 1:21.1 2:21.15 3:436.5 4:769.75 5:0.003266618 
0.5237863698185586 1:21.1 2:21.245 3:444 4:780.25 5:0.003281368 
0.3189649968046231 1:21.1 2:21.29 3:444 4:786 5:0.003288355 
0.1630209130757013 1:21.1 2:21.2675 3:444 4:787 5:0.003284862 
0.1540944305771326 1:21.1 2:21.2 3:448 4:786.75 5:0.003274381 
0.6739483941555863 1:21.1 2:21.1 3:460 4:779.33333 5:0.003258855 
0.7268806366873887 1:21.175 2:21.075 3:449.5 4:782.75 5:0.003270077 
0.1013811565229116 1:21.15 2:21.05 3:449.5 4:787.5 5:0.003261142 
1.102436518561648 1:21.2 2:21.075 3:454.75 4:777 5:0.003275125 
0.2060299036486898 1:21.2 2:21.066667 3:449.33333 4:789.66667 5:0.003273823 
0.2881097231021885 1:21.175 2:21.075 3:460 4:805.25 5:0.003270077 
0.5034739516533783 1:21.2 2:20.9975 3:456 4:801.25 5:0.003263018 
0.4284519500912833 1:21.29 2:20.963333 3:453 4:788.33333 5:0.003275814 
0.4880346919954531 1:21.2675 2:21 3:460 4:794.5 5:0.003277024 
0.6268750958887078 1:21.29 2:21 3:460 4:797.5 5:0.003281574 
0.1919846336823928 1:21.29 2:21 3:450.75 4:812.5 5:0.003281574 
0.5952870761244753 1:21.29 2:21.033333 3:454.66667 4:813.66667 5:0.00328681 
0.5135026492981669 1:21.315 2:20.9725 3:444 4:809.25 5:0.003282309 
0.4733974440201479 1:21.29 2:21 3:444 4:812.33333 5:0.003281574 
0.5465518452538868 1:21.29 2:21.033333 3:454.66667 4:807.66667 5:0.00328681 
0.6990301450175418 1:21.315 2:21 3:460 4:810.5 5:0.003286635 
0.144247295189887 1:21.31 2:20.956 3:460 4:804.5 5:0.003278702 
0.4325592092189109 1:21.34 2:21.1 3:449.5 4:811 5:0.003307462 
0.715733297961704 1:21.34 2:21.2675 3:455.5 4:830.25 5:0.003333858 
0.4698527954586624 1:21.29 2:21.29 3:457 4:835 5:0.003327133 
0.7534697271263719 1:21.34 2:21.2 3:449.5 4:831 5:0.003323221 
0.5881361406034274 1:21.315 2:21.29 3:460 4:841 5:0.003332265 
0.1268595016319054 1:21.39 2:21.34 3:460 4:847 5:0.003355608 
0.6255680031888968 1:21.39 2:21.2675 3:454.75 4:842.5 5:0.003344147 
0.6930038923132613 1:21.39 2:21.2475 3:449.5 4:839.5 5:0.003340985 
0.2335698868804795 1:21.365 2:21.3175 3:454.75 4:844.5 5:0.003346891 
0.2133902246472527 1:21.39 2:21.2 3:457 4:847 5:0.003333476 
0.2972517918666891 1:21.323333 2:21.23 3:464 4:843.33333 5:0.003324531 
0.7091045626227542 1:21.365 2:21.315 3:461.5 4:847.25 5:0.003346497 
0.721666434493338 1:21.39 2:21.34 3:449.5 4:848.5 5:0.003355608 
0.7709923305388918 1:21.39 2:21.39 3:454 4:854.25 5:0.003363513 
0.3773651104051509 1:21.34 2:21.1475 3:455.5 4:848.25 5:0.003314947 
0.367858846952454 1:21.29 2:21.2 3:454 4:836.5 5:0.003312993 
0.009334026293325692 1:21.323333 2:21.2 3:454 4:838 5:0.003319808 
0.5453423759370922 1:21.34 2:21 3:469 4:832 5:0.003291704 
0.2833697272152978 1:21.315 2:20.865 3:469 4:825 5:0.003265396 
0.53404719817756 1:21.29 2:21.1 3:464 4:824 5:0.003297283 
0.6788166401759195 1:21.29 2:21.2 3:459 4:827.5 5:0.003312993 
0.6172640994863595 1:21.29 2:21.236 3:468.2 4:843.5 5:0.003318649 
0.4852933477505931 1:21.365 2:21.17 3:474 4:845.6 5:0.00332361 
0.6661720278952316 1:21.39 2:20.79 3:492.33333 4:837.33333 5:0.003268669 
0.2316867529015828 1:21.323333 2:21.066667 3:474 4:825.66667 5:0.003298818 
0.8146022336147345 1:21.4725 2:21.0475 3:504 4:832.25 5:0.003326228 
0.83619187058633 1:21.5 2:21.1 3:539.5 4:843 5:0.00334022 
0.6362336282008545 1:21.5 2:20.725 3:509 4:839 5:0.003280543 
0.7159979794961391 1:21.5 2:20.84 3:528.5 4:832.5 5:0.003298842 
0.5448553677557564 1:21.65 2:20.9175 3:497.75 4:850 5:0.003341874 
0.2282719148524992 1:21.7 2:21 3:489 4:852 5:0.003365456 
0.361340223958066 1:21.7 2:20.9725 3:490.25 4:856.25 5:0.003361025 
0.451719393429901 1:21.7 2:20.945 3:494 4:854.5 5:0.003356594 
0.4481079511911157 1:21.7 2:20.89 3:485.66667 4:854 5:0.003347732 
0.575542592444066 1:21.7 2:20.8925 3:484 4:844.5 5:0.003348135 
0.2298025320731209 1:21.7 2:21.075 3:482.75 4:850.75 5:0.00337754 
0.5442248045503475 1:21.7675 2:20.795 3:485.25 4:860.75 5:0.003346278 
0.1730268193518305 1:21.73 2:20.7 3:482.75 4:849.75 5:0.003323243 
0.4860063315636836 1:21.7225 2:20.87 3:479 4:846.75 5:0.003349138 
0.2831607523471616 1:21.745 2:20.7225 3:476.75 4:852.5 5:0.003329942 
0.251947983589101 1:21.7 2:20.79 3:476 4:851 5:0.003331621 
0.3791404727515718 1:21.7 2:20.7675 3:480 4:854.75 5:0.003327996 
0.05865431085889628 1:21.7225 2:20.7 3:485.25 4:848 5:0.003321712 
0.5083687057580971 1:21.7 2:20.6 3:489 4:846 5:0.003301012 
0.5864409721099419 1:21.76 2:20.73 3:471 4:849 5:0.003334225 
0.5440890190773885 1:21.79 2:20.55 3:487.75 4:837 5:0.003311217 
0.189068909873379 1:21.79 2:20.5 3:467.66667 4:830.33333 5:0.003303117 
0.04748884590131398 1:21.79 2:20.65 3:469.25 4:829.5 5:0.003327416 
0.3093485776058093 1:21.73 2:20.566667 3:462.33333 4:830.66667 5:0.003301723 
0.5514670000510412 1:21.79 2:20.6 3:462.75 4:834.25 5:0.003319316 
0.1788618968553233 1:21.79 2:20.5 3:472.33333 4:827.66667 5:0.003303117 
0.588141360192052 1:21.79 2:20.678 3:485 4:821.25 5:0.003331952 
0.2811981779572193 1:21.745 2:20.5 3:479 4:822.33333 5:0.003293999 
0.6345321331795772 1:21.745 2:20.6 3:471.5 4:821.75 5:0.003310153 
0.3810875103028173 1:21.7225 2:20.65 3:475.25 4:829.5 5:0.003313645 
0.379495869396775 1:21.7 2:20.6 3:479 4:832 5:0.003301012 
0.330278325671013 1:21.7 2:20.6 3:464 4:823 5:0.003301012 
0.4734693802294518 1:21.7 2:20.625 3:481.5 4:830.75 5:0.003305039 
0.4356685031594086 1:21.7225 2:20.6 3:479 4:826 5:0.003305579 
0.8396710980915238 1:21.76 2:20.533333 3:490.66667 4:818.33333 5:0.003302425 
0.7729520866010099 1:21.7225 2:20.525 3:502.75 4:815.75 5:0.003293481 
0.5769596792889494 1:21.7 2:20.575 3:484 4:796 5:0.003296984 
0.3579609780185647 1:21.7 2:20.4425 3:467.75 4:801 5:0.00327564 
0.4978910310622874 1:21.7 2:20.39 3:464 4:803 5:0.003267184 
0.5988541711368972 1:21.7 2:20.39 3:469 4:795.66667 5:0.003267184 
0.3929563727069563 1:21.7 2:20.4175 3:464 4:794 5:0.003271613 
0.5941448705669418 1:21.7 2:20.5 3:471 4:787 5:0.003284903 
0.3163662124946734 1:21.7 2:20.39 3:462.75 4:787 5:0.003267184 
0.3722335467050932 1:21.7 2:20.39 3:481.5 4:788 5:0.003267184 
0.5208054653928164 1:21.7 2:20.39 3:479 4:786.5 5:0.003267184 
0.6592893670500268 1:21.7 2:20.39 3:469 4:781 5:0.003267184 
0.5525424000246718 1:21.65 2:20.365 3:457.75 4:788.75 5:0.003253143 
0.2188277322276817 1:21.65 2:20.34 3:465.5 4:789.5 5:0.003249129 
0.5708756012971663 1:21.7 2:20.39 3:474.33333 4:794.33333 5:0.003267184 
0.3004335461377458 1:21.675 2:20.4175 3:477.75 4:792.5 5:0.00326659 
0.6716254962587489 1:21.65 2:20.2475 3:487.75 4:789.5 5:0.003234276 
0.1640880304457926 1:21.7 2:20.4725 3:490.25 4:792.6 5:0.003280473 
0.436818152289017 1:21.7 2:20.426667 3:484 4:800 5:0.00327309 
0.2523036346464749 1:21.7 2:20.32 3:491.5 4:795.75 5:0.003255909 
0.2110374422173031 1:21.675 2:20.4175 3:501.5 4:802 5:0.00326659 
5.307791640834788 1:21.7 2:20.39 3:494 4:803 5:0.003267184 
0.2615923986916588 1:21.7 2:20.39 3:494 4:796.25 5:0.003267184 
1.580315252536703 1:21.7 2:20.39 3:479 4:806.66667 5:0.003267184 
0.2572166768761797 1:21.7 2:20.4175 3:513.75 4:800.25 5:0.003271613 
0.7233599554726997 1:21.7 2:20.39 3:514 4:793 5:0.003267184 
0.5783647774899409 1:21.7 2:20.39 3:494 4:791 5:0.003267184 
0.7738987946236358 1:21.7 2:20.426667 3:507.33333 4:808 5:0.00327309 
0.8361377644909423 1:21.7 2:20.39 3:567.5 4:805.5 5:0.003267184 
0.5914219745085937 1:21.7 2:20.39 3:512.75 4:804 5:0.003267184 
0.8351887365377437 1:21.7 2:20.34 3:528.5 4:798.5 5:0.00325913 
0.2925469702973268 1:21.7225 2:20.315 3:541.5 4:806.25 5:0.003259607 
0.70516700749574 1:21.73 2:20.293333 3:504 4:794.33333 5:0.003257613 
1.168543924724141 1:21.7675 2:20.3175 3:496.5 4:806 5:0.003269036 
0.3758964857655316 1:21.79 2:20.295 3:504 4:801 5:0.003269913 
2.712358503410927 1:21.79 2:20.2675 3:489 4:805 5:0.003265458 
0.7329079152885064 1:21.79 2:20.23 3:518.66667 4:802.33333 5:0.003259385 
3.123902994376336 1:21.79 2:20.245 3:471.5 4:806 5:0.003261814 
1.081256151313033 1:21.73 2:20.356667 3:474 4:812.66667 5:0.003267833 
0.131878282042512 1:21.745 2:20.34 3:484 4:816.5 5:0.003268155 
1.290385720372994 1:21.7675 2:20.545 3:479 4:817.5 5:0.003305835 
0.449207229323567 1:21.745 2:20.4725 3:486.5 4:815.5 5:0.003289557 
0.7719708822356277 1:21.745 2:20.445 3:499 4:821 5:0.003285115 
0.8278006176398043 1:21.745 2:20.4425 3:511.5 4:821.5 5:0.003284711 
0.242890970972917 1:21.73 2:20.356667 3:504 4:801.66667 5:0.003267833 
0.2765590705612194 1:21.73 2:20.29 3:489 4:799 5:0.003257076 
0.5490107971306839 1:21.7 2:20.2675 3:511 4:797.25 5:0.003247453 
0.6988598898025546 1:21.7 2:20.2225 3:500.25 4:789.75 5:0.003240205 
0.4555759287445396 1:21.7 2:20.2 3:494 4:780.25 5:0.003236581 
0.5696800394967205 1:21.7 2:20.166667 3:497.33333 4:782.33333 5:0.003231212 
0.158356205893509 1:21.7 2:20.1 3:495.66667 4:779.33333 5:0.003220475 
0.8064294214517594 1:21.7 2:20.14 3:492 4:773.5 5:0.003226917 
0.5090185429219279 1:21.7 2:20.15 3:509 4:771.66667 5:0.003228528 
0.5102126001554793 1:21.7 2:20 3:509 4:769 5:0.00320437 
0.6505126541985836 1:21.7 2:20 3:495.25 4:763 5:0.00320437 
0.6808765122996311 1:21.7 2:20 3:499 4:760 5:0.00320437 
0.7975809928606007 1:21.7 2:20.1 3:489 4:752 5:0.003220475 
0.8178742135542627 1:21.7 2:20.125 3:481.25 4:757.5 5:0.003224501 
0.7599378191686516 1:21.7 2:20.025 3:489 4:759 5:0.003208396 
0.83615125733886 1:21.7 2:20 3:377.75 4:757.75 5:0.00320437 
0.8361881982712311 1:21.29 2:19.745 3:293.5 4:662.25 5:0.003084488 
0.7994320244236168 1:21.29 2:19.7 3:440 4:660 5:0.003077424 
0.5788766370823036 1:21.29 2:19.575 3:492.75 4:658.75 5:0.003057801 
0.7596516641191478 1:21.29 2:19.6 3:499 4:659.25 5:0.003061725 
0.6632394755497645 1:21.29 2:19.55 3:489 4:652 5:0.003053876 
0.8342453260888263 1:21.29 2:19.6 3:479 4:653.5 5:0.003061725 
0.42727155181368 1:21.29 2:19.4175 3:489 4:656 5:0.003033078 
0.8191535069880725 1:21.39 2:19.5 3:485.25 4:663.25 5:0.003064852 
0.7428296811939445 1:21.445 2:19.5 3:494 4:665 5:0.003075249 
0.8011328663989924 1:21.5 2:19.5 3:500.66667 4:668.66667 5:0.003085676 
0.5365870536031718 1:21.5 2:19.4725 3:508.5 4:667 5:0.003081303 
0.4948032537724971 1:21.5 2:19.445 3:508.5 4:664 5:0.00307693 
0.805934360371012 1:21.5 2:19.4725 3:507.5 4:655.5 5:0.003081303 
0.3285844331075979 1:21.5 2:19.445 3:516.5 4:659 5:0.00307693 
1.925129280678377 1:21.5 2:19.365 3:536.5 4:656.25 5:0.003064209 
0.4920273958664165 1:21.5 2:19.39 3:514 4:659.5 5:0.003068184 
0.723486151988378 1:21.5 2:19.29 3:516.25 4:654 5:0.003052283 
0.7916583265249513 1:21.7 2:19.34 3:541.5 4:640 5:0.003098099 
0.8307012046765747 1:21.64 2:19.31 3:549.4 4:645.5 5:0.003081885 
0.8329760565731715 1:21.7 2:19.166667 3:509 4:646 5:0.003070196 
0.8126374573281382 1:21.675 2:19.125 3:523.75 4:637.25 5:0.003058786 
0.6734176941238705 1:21.7 2:19.12 3:559.5 4:632.25 5:0.003062684 
0.5970401327071821 1:21.633333 2:19.03 3:549.25 4:623.25 5:0.003035734 
0.4327774099592698 1:21.666667 2:19.2 3:525.33333 4:624 5:0.003069269 
0.7633091783563445 1:21.7 2:19.2 3:535.5 4:633.5 5:0.003075562 
0.7623627694652187 1:21.7 2:19.075 3:545.5 4:634.25 5:0.00305544 
0.2907053081705276 1:21.7 2:19.1 3:551 4:626 5:0.003059464 
0.8359627195860524 1:21.745 2:19.05 3:581.75 4:626.75 5:0.003059863 
0.5652847895490282 1:21.76 2:19.066667 3:557.66667 4:626.66667 5:0.003065375 
0.8280179657827721 1:21.79 2:18.993333 3:571 4:631 5:0.003059158 
0.1538473387537095 1:21.79 2:19.05 3:555.5 4:629.75 5:0.00306833 
0.4309015289403317 1:21.7675 2:19 3:525.25 4:625 5:0.003056012 
0.7566387107267714 1:21.7675 2:19 3:543.75 4:626 5:0.003056012 
0.7143463426954212 1:21.79 2:19 3:563.5 4:627 5:0.003060237 
0.6224022942222408 1:21.79 2:19 3:551.66667 4:630.66667 5:0.003060237 
0.6025898000826854 1:21.79 2:19.15 3:531 4:639.25 5:0.003084516 
0.2536972349487992 1:21.79 2:19.05 3:531.5 4:637 5:0.00306833 
0.8369269051973826 1:21.79 2:19.1 3:546.5 4:654.5 5:0.003076423 
0.909101801656893 1:21.79 2:19.2 3:524 4:658.5 5:0.00309261 
0.8362046144968209 1:21.823333 2:19.23 3:537.66667 4:673 5:0.003103811 
0.8358514550779139 1:21.89 2:19.323333 3:524 4:680 5:0.003131738 
0.8361939202409208 1:21.89 2:19.5 3:534.66667 4:688.33333 5:0.003160516 
0.6046146253166812 1:21.89 2:19.5 3:549.5 4:717 5:0.003160516 
0.6042690888519109 1:21.89 2:19.6 3:547.75 4:720.5 5:0.003176807 
0.4736868783598384 1:21.89 2:19.76 3:552.33333 4:731 5:0.003202874 
0.6008948374031393 1:21.945 2:19.79 3:551 4:735.5 5:0.003218604 
0.5842990538452731 1:22 2:19.79 3:538.33333 4:735.66667 5:0.003229478 
0.491610506252193 1:22 2:19.7175 3:555.25 4:733.25 5:0.003217586 
0.6322600671971461 1:22 2:19.7675 3:570 4:724.75 5:0.003225787 
0.6317193836338062 1:22 2:19.84 3:570 4:729 5:0.00323768 
0.5844667542774741 1:22 2:19.87 3:535.5 4:738 5:0.003242601 
0.8343395886397761 1:22 2:20 3:559.33333 4:756.33333 5:0.003263927 
0.480294873612995 1:22 2:20 3:566 4:763.75 5:0.003263927 
0.7454054732169691 1:22.05 2:20.05 3:557.25 4:773.75 5:0.003282176 
0.2970317050024714 1:22.066667 2:20.066667 3:562 4:766 5:0.003288276 
0.5362588298366048 1:22.1 2:20.133333 3:567.66667 4:767 5:0.003306005 
0.4624453554236859 1:22.1 2:20.1975 3:562 4:768.5 5:0.003316597 
0.7165553287639232 1:22.1 2:20.133333 3:554.33333 4:767.66667 5:0.003306005 
0.09850108802378517 1:22.125 2:20.3175 3:556.75 4:769.25 5:0.003341523 
0.8361071409162441 1:22.15 2:20.5 3:555 4:790 5:0.003376868 
0.6075598068522692 1:22.166667 2:20.463333 3:543.66667 4:799.66667 5:0.003374239 
0.6818338671108769 1:22.2 2:20.5 3:547 4:803.75 5:0.003387225 
0.2286289684410875 1:22.2 2:20.445 3:539 4:804.5 5:0.003378088 
0.4785142912296077 1:22.2 2:20.65 3:539 4:802.25 5:0.003412146 
0.703647829641422 1:22.2 2:20.7225 3:539 4:816.75 5:0.003424191 
0.4738820230832509 1:22.2 2:20.55 3:538 4:812 5:0.003395532 
0.505716147492693 1:22.2 2:20.55 3:541.75 4:810.33333 5:0.003395532 
0.5232898574218749 1:22.2 2:20.7225 3:530.5 4:827 5:0.003424191 
0.6592908963339923 1:22.175 2:20.745 3:534.25 4:830.25 5:0.003422685 
0.8164864509758267 1:22.2 2:20.65 3:519 4:826 5:0.003412146 
0.7645402768621654 1:22.2 2:20.625 3:526.75 4:822.5 5:0.003407992 
0.7901470946203584 1:22.2 2:20.663333 3:512 4:832 5:0.003414361 
0.659997511834099 1:22.2 2:20.745 3:513.5 4:840 5:0.00342793 
0.6436110665745267 1:22.133333 2:20.823333 3:498.66667 4:846 5:0.003426922 
0.6276315456014515 1:22.166667 2:20.856667 3:528 4:853.33333 5:0.003439455 
0.6158923705146688 1:22.175 2:20.8975 3:528 4:857.5 5:0.003447985 
0.9573106083909984 1:22.2 2:20.92 3:523.5 4:865 5:0.003457008 
0.5367430366236052 1:22.2 2:21.3175 3:528.75 4:894 5:0.003523066 
0.3768821400911497 1:22.2 2:21.29 3:528.66667 4:895.33333 5:0.003518496 
0.2762652011996133 1:22.2 2:21.4175 3:518 4:893 5:0.003539687 
0.6845679357205499 1:22.175 2:21.445 3:518 4:890 5:0.003538834 
0.5559559476874587 1:22.166667 2:21.463333 3:518 4:898 5:0.003540069 
0.4783504537121283 1:22.175 2:21.39 3:513.5 4:899.25 5:0.003529707 
0.4027856674639097 1:22.2 2:21.5 3:513.5 4:896 5:0.0035534 
0.7405027396709658 1:22.2 2:21.7675 3:509 4:915.25 5:0.003597866 
0.417031477751758 1:22.2 2:21.666667 3:509 4:923.66667 5:0.003581104 
0.732390424535206 1:22.2 2:21.7675 3:508.75 4:930 5:0.003597866 
0.7086167833142822 1:22.2 2:21.7 3:514 4:925.25 5:0.003586645 
0.4444864900435667 1:22.166667 2:21.76 3:509 4:920.33333 5:0.003589282 
0.428818702649422 1:22.1 2:21.77 3:499 4:924 5:0.0035763 
0.5296718398768289 1:22.1 2:21.496667 3:499 4:919.33333 5:0.003531142 
0.6467137592684599 1:22.1 2:21.84 3:499 4:914 5:0.003587865 
0.8063636682780115 1:22.1 2:21.633333 3:490.66667 4:925 5:0.00355372 
0.7192651040860677 1:22.1 2:21.1175 3:504 4:887 5:0.003468511 
0.6025999300224034 1:22.1 2:21.575 3:500.25 4:884.25 5:0.003544083 
0.8589698333745632 1:22.1 2:21.6 3:499 4:893.33333 5:0.003548213 
0.05289930704022252 1:22.1 2:21.625 3:496.5 4:895 5:0.003552343 
1.094590439885004 1:22.1 2:21.2925 3:489 4:889.75 5:0.003497416 
0.1738375183188252 1:22.1 2:21.15 3:489 4:880.5 5:0.003473879 
0.6792388776938612 1:22.075 2:21.2225 3:489 4:864.75 5:0.003480516 
0.3447171311581916 1:22.1 2:21.2 3:481.5 4:863 5:0.003482138 
0.6144595796304002 1:22.05 2:21.3975 3:484 4:868.5 5:0.003504003 
0.3670708060470087 1:22.066667 2:21.493333 3:487.33333 4:876.33333 5:0.003523384 
0.4016415455228912 1:22.075 2:21.3925 3:484 4:880.5 5:0.003508554 
0.5626483468593962 1:22.033333 2:21.566667 3:487.33333 4:883.66667 5:0.003528255 
0.7429224871037045 1:22.1 2:21.145 3:494 4:883.5 5:0.003473053 
0.5433519515427953 1:22.1 2:21.32 3:490.25 4:876 5:0.003501959 
0.8347591966237848 1:22.1 2:21.3925 3:486.5 4:908.5 5:0.003513935 
0.5932113574181791 1:22.1 2:21.163333 3:479 4:892.33333 5:0.003476081 
0.6063176884754221 1:22.1 2:21.365 3:479 4:878.25 5:0.003509392 
0.4806082782831557 1:22.1 2:21.066667 3:479 4:870 5:0.003460116 
0.08245583128407184 1:22.1 2:20.963333 3:479 4:866.66667 5:0.00344305 
0.6661333156616203 1:22.1 2:21.445 3:479 4:883.5 5:0.003522607 
0.5230655146868661 1:22.1 2:21.463333 3:479 4:896 5:0.003525636 
0.7299536401770685 1:22.1 2:21.445 3:475.25 4:901.75 5:0.003522607 
0.4001950662921485 1:22.1 2:21.2475 3:471.5 4:896.5 5:0.003489983 
0.508293487455716 1:22.066667 2:21.066667 3:464 4:876.33333 5:0.003453053 
0.3065772145675838 1:22.075 2:21.1725 3:467.75 4:865 5:0.00347227 
0.5130493844560665 1:22 2:20.795 3:474.5 4:873.5 5:0.003394376 
0.6191518933877521 1:22 2:21.2425 3:474.5 4:865.25 5:0.003467829 
0.194457447617761 1:22 2:20.94 3:474.5 4:870.5 5:0.003418175 
0.2061958094261006 1:22.008333 2:21.084167 3:478.3 4:861.63333 5:0.003443598 
0.1002559721363577 1:22.016667 2:21.011667 3:478.6 4:864.6 5:0.003433446 
0.5480704622914081 1:22 2:20.92 3:477 4:858.25 5:0.003414892 
0.003700832101635767 1:22 2:21.15 3:469 4:877.75 5:0.003452645 
0.4951575967130445 1:22 2:20.8675 3:469 4:867.75 5:0.003406275 
0.8472636152439018 1:22 2:20.945 3:469 4:861 5:0.003418996 
0.4928104687780941 1:22 2:21.05 3:469 4:880 5:0.00343623 
0.5493093494369199 1:22 2:21.2725 3:469 4:874 5:0.003472754 
0.5276530546162147 1:21.9725 2:21.3925 3:469 4:901.25 5:0.003486567 
0.4109509754418451 1:21.963333 2:21.29 3:469 4:893.66667 5:0.003467818 
0.4490321449336357 1:21.89 2:21.1725 3:469 4:886.5 5:0.003433088 
0.09643934729378117 1:21.89 2:21.323333 3:469 4:879 5:0.003457681 
0.2964893134951313 1:21.89 2:21.39 3:469 4:884.25 5:0.003468552 
0.403241163152783 1:21.89 2:21.29 3:461.5 4:879 5:0.003452246 
0.7132206559126937 1:21.865 2:21.32 3:459.25 4:883 5:0.003451835 
0.4627621704878113 1:21.865 2:21.3175 3:464.5 4:890.5 5:0.003451428 
0.6704930172524898 1:21.84 2:21.4425 3:464.5 4:913.75 5:0.003466454 
0.6501820341436629 1:21.79 2:21.1975 3:464.5 4:902.5 5:0.003416121 
0.09595946158982352 1:21.76 2:21.2 3:468 4:890.33333 5:0.003410235 
0.207876209061207 1:21.79 2:21.445 3:464.5 4:890 5:0.003456229 
0.760828710355852 1:21.73 2:21.293333 3:453 4:891.66667 5:0.003419022 
0.7609296705922248 1:21.7225 2:21.5225 3:454.75 4:897.5 5:0.00345443 
0.5738187096771152 1:21.73 2:21.566667 3:460 4:907 5:0.003463155 
0.4263157638904422 1:21.7225 2:21.525 3:460 4:910.5 5:0.003454834 
0.7192139266030865 1:21.745 2:21.675 3:460 4:917.25 5:0.003483859 
0.8086340115829369 1:21.79 2:21.6 3:460 4:926.5 5:0.00348135 
0.8120938600474087 1:21.7675 2:21.7675 3:460 4:934 5:0.003503651 
0.8358322610121049 1:21.7675 2:21.865 3:460 4:947.25 5:0.003519434 
0.4247441186606622 1:21.79 2:21.8175 3:460 4:959 5:0.003516603 
0.4184634292523055 1:21.79 2:21.945 3:460 4:959.5 5:0.003537271 
0.5411616714866252 1:21.7675 2:21.6975 3:444 4:962 5:0.003492321 
0.5884880217684646 1:21.76 2:21.826667 3:449.33333 4:944 5:0.00351161 
0.7270223297101296 1:21.7225 2:21.8925 3:444 4:953.5 5:0.003514152 
0.3767780708007879 1:21.7 2:21.823333 3:444 4:948.66667 5:0.003498145 
0.2772290158892783 1:21.79 2:22.05 3:444 4:961.5 5:0.003554292 
0.4498736560000891 1:21.79 2:21.793333 3:444 4:945.66667 5:0.003512686 
0.1555817976417041 1:21.7675 2:21.79 3:444 4:935 5:0.003507293 
0.619859161638837 1:21.79 2:21.745 3:444 4:938 5:0.003504852 
0.6667155588823288 1:21.7675 2:21.8175 3:444 4:926.75 5:0.003511745 
0.4940564575248431 1:21.7675 2:21.89 3:444 4:932 5:0.00352348 
0.2524972319441516 1:21.79 2:21.79 3:447.4 4:942 5:0.003512146 
0.6643236854403995 1:21.79 2:21.65 3:438 4:927.25 5:0.003489454 
0.1417323499912269 1:21.79 2:21.6 3:438 4:916.5 5:0.00348135 
0.4262723565702777 1:21.79 2:21.745 3:438 4:914 5:0.003504852 
0.7330284182891256 1:21.79 2:21.7 3:441 4:910 5:0.003497558 
0.4497651202420671 1:21.84 2:21.65 3:436.5 4:918.75 5:0.003500188 
0.6272779821793085 1:21.84 2:21.6 3:429 4:904 5:0.003492059 
0.3640968405857882 1:21.79 2:21.395 3:432.75 4:901 5:0.003448126 
0.5846491999725546 1:21.79 2:21.6 3:438 4:893 5:0.00348135 
0.2425652334611372 1:21.745 2:21.575 3:438 4:890 5:0.003467696 
0.2403118412508481 1:21.7225 2:21.5475 3:438 4:886.5 5:0.003458465 
0.5560666200641482 1:21.7 2:21.525 3:438 4:883.25 5:0.003450059 
0.5976171725361569 1:21.7 2:21.445 3:438 4:874 5:0.003437165 
0.531988203516782 1:21.7 2:21.575 3:447 4:874 5:0.003458117 
0.733884627089527 1:21.7 2:21.6 3:447 4:879.25 5:0.003462147 
0.4629447144817377 1:21.7 2:21.516 3:441.4 4:872.75 5:0.003448608 
0.730746724493871 1:21.7 2:21.36 3:447 4:868.5 5:0.003423467 
0.7660531022807506 1:21.7 2:21.5 3:443.5 4:859.75 5:0.00344603 
0.4643846895724484 1:21.625 2:21.315 3:433 4:849 5:0.003400496 
0.4156853975415292 1:21.6 2:21.323333 3:433 4:844.33333 5:0.003396605 
0.5267418582069789 1:21.6 2:21.29 3:433 4:838.75 5:0.003391267 
0.8084239247748575 1:21.6 2:21.29 3:433 4:831.66667 5:0.003391267 
0.6961630028938069 1:21.6 2:21.2675 3:433 4:822.25 5:0.003387663 
0.5361674489732349 1:21.6 2:21.2 3:433 4:817.5 5:0.003376853 
0.6122869080733085 1:21.65 2:21.125 3:433 4:811.75 5:0.003375206 
0.1152722646683222 1:21.675 2:21.175 3:433 4:813.75 5:0.003388442 
0.6856166230881726 1:21.7 2:21.05 3:433 4:801 5:0.003373512 
0.6019969948903859 1:21.7 2:21.08 3:433 4:805.75 5:0.003378346 
0.4185381058766187 1:21.625 2:20.9975 3:433 4:791.5 5:0.003349571 
0.4376449765374824 1:21.65 2:20.9175 3:433 4:790.5 5:0.003341874 
0.6571778273768547 1:21.7 2:20.9175 3:433 4:781 5:0.003352163 
0.5373710008420817 1:21.7 2:20.84 3:433 4:772 5:0.003339676 
0.4715403931626854 1:21.7 2:20.89 3:433 4:777 5:0.003347732 
0.8361036612730086 1:19.525 2:27.025 3:289.75 4:473.75 5:0.003790078 
0.8358930899668605 1:19.5 2:27.1 3:440 4:481.5 5:0.003794721 
0.6820990202191565 1:19.525 2:27.125 3:412 4:479 5:0.003804188 
1.041144592351265 1:19.575 2:27.675 3:397 4:496.5 5:0.003893964 
0.5394806838175532 1:19.633333 2:27.633333 3:405 4:506.66667 5:0.003902271 
0.4615939493452066 1:19.666667 2:27.73 3:405 4:510.66667 5:0.003924175 
0.6383562122917611 1:19.633333 2:27.73 3:399.66667 4:512 5:0.003916008 
0.497678843331509 1:19.625 2:27.745 3:393 4:517 5:0.003916099 
0.3007809624795467 1:19.633333 2:27.79 3:393.66667 4:515 5:0.003924535 
0.8100084728961736 1:19.7 2:27.963333 3:393.66667 4:534.33333 5:0.003965658 
0.8232842011602958 1:19.745 2:28.05 3:389 4:541 5:0.003989226 
0.7938742548767219 1:19.79 2:28.1 3:393.66667 4:553 5:0.00400763 
0.7938940509079206 1:19.79 2:28.2675 3:392.5 4:559.75 5:0.004031674 
0.8362677420853858 1:19.84 2:28.6975 3:389 4:578.75 5:0.004106207 
0.6148793547954818 1:19.89 2:28.625 3:389 4:595 5:0.004108567 
0.600784919470893 1:19.89 2:28.65 3:389 4:599 5:0.004112179 
0.8292112890780093 1:19.9175 2:28.8175 3:393 4:606.5 5:0.004143485 
0.8362376742479204 1:19.945 2:29.05 3:397 4:636 5:0.004184313 
0.7471108579361549 1:20 2:29.1975 3:405 4:655.5 5:0.004220155 
0.7472792232132948 1:20 2:29.39 3:405 4:661.33333 5:0.004248169 
0.8309457269365367 1:20 2:29.445 3:405 4:680.8 5:0.004256173 
0.7367101315586424 1:20.05 2:29.575 3:405 4:689.75 5:0.004288444 
0.7427509742157835 1:20.1 2:29.745 3:405 4:695.5 5:0.00432673 
0.8362127839139912 1:20.1 2:29.823 3:406.75 4:710.125 5:0.004338155 
0.8165318255991182 1:20.2 2:29.945 3:419 4:736 5:0.004383252 
0.8169973324303715 1:20.125 2:29.9725 3:419 4:743.75 5:0.004366853 
0.8019220023678666 1:20.15 2:30.15 3:419 4:759 5:0.004399746 
0.5824184658538133 1:20.175 2:30.15 3:419 4:765.75 5:0.004406604 
0.4908552136277632 1:20.2 2:30.195 3:419 4:769.5 5:0.004420106 
0.6375981049635273 1:20.215 2:30.2275 3:419 4:774.91667 5:0.004429034 
0.7340697272736336 1:20.23 2:30.26 3:419 4:780.33333 5:0.004437973 
0.8359103738074426 1:20.29 2:30.4175 3:422.5 4:802.75 5:0.004477936 
0.8355279207993251 1:20.29 2:30.445 3:422.5 4:814.75 5:0.004482014 
0.7852683616611823 1:20.29 2:30.34 3:433 4:816 5:0.004466445 
0.7868616846186199 1:20.29 2:30.4725 3:433 4:822.75 5:0.004486091 
0.7274141883876518 1:20.39 2:30.7 3:433 4:850 5:0.004548042 
0.7025624825543719 1:20.381667 2:30.705833 3:433 4:856.7 5:0.004546555 
0.7602107116557966 1:20.373333 2:30.711667 3:433 4:863.4 5:0.004545068 
0.4623839850908112 1:20.39 2:30.84 3:433 4:886 5:0.004568935 
0.5036785995158489 1:20.39 2:30.695 3:433 4:889 5:0.004547296 
0.7624064995314913 1:20.39 2:30.77 3:433 4:902.5 5:0.004558488 
0.6837360262204742 1:20.39 2:30.8925 3:433 4:909.25 5:0.00457677 
0.7341323024879606 1:20.445 2:30.795 3:433 4:922 5:0.004577853 
0.819059775768844 1:20.5 2:31.1 3:437.66667 4:954 5:0.004639369 
0.823324026503338 1:20.5 2:31.1475 3:447 4:959.75 5:0.004646507 
0.5371837937128765 1:20.5 2:31.245 3:440 4:967.75 5:0.004661161 
0.4657188441969446 1:20.5 2:31.26 3:442.33333 4:974.33333 5:0.004663416 
0.5533882634444445 1:20.5 2:31.1 3:447 4:977 5:0.004639369 
0.128505376378386 1:20.5 2:31.163333 3:441 4:970.33333 5:0.004648887 
0.1281016561581403 1:20.5 2:31.2225 3:442.5 4:968 5:0.004657779 
0.6599804192289138 1:20.55 2:31.245 3:438 4:975.5 5:0.00467567 
0.6742084399807537 1:20.55 2:31.245 3:447 4:981.5 5:0.00467567 
0.8275131035366173 1:20.6 2:31.323333 3:447 4:1013 5:0.004702066 
0.5756783605079377 1:20.6 2:31.2675 3:438 4:1016 5:0.004693621 
0.5301273025686047 1:20.6 2:31.295 3:438 4:1019.5 5:0.004697781 
0.7391356999279605 1:20.675 2:31.4725 3:438 4:1041.5 5:0.004746688 
0.6242490337815269 1:20.7 2:31.6 3:438 4:1071.75 5:0.004773468 
0.5938334293898736 1:20.7 2:31.575 3:442.5 4:1075.25 5:0.004769663 
0.7551797713287693 1:20.7 2:31.745 3:438 4:1080.75 5:0.004795541 
0.6903145584644971 1:20.7 2:31.7225 3:438 4:1102.5 5:0.004792116 
0.378572961084822 1:20.7 2:31.79 3:438 4:1106.75 5:0.004802391 
0.6952531759374625 1:20.7225 2:31.865 3:438 4:1111 5:0.004820538 
0.8302033813695376 1:20.7 2:31.84 3:432.75 4:1119.25 5:0.004810003 
0.8290336940805045 1:20.7 2:31.79 3:429 4:1127.6667 5:0.004802391 
0.8298225117387815 1:20.745 2:31.895 3:433.5 4:1136 5:0.004831855 
0.4780534391917161 1:20.79 2:31.8225 3:438 4:1143.75 5:0.004834268 
0.515419615868141 1:20.79 2:31.893333 3:441 4:1145.3333 5:0.004845112 
0.1523358610876565 1:20.79 2:31.945 3:438 4:1147 5:0.004853022 
0.8316783563803543 1:20.79 2:31.8925 3:429 4:1157.5 5:0.004844984 
0.7713027207505508 1:20.79 2:31.99 3:435 4:1150.6667 5:0.004859912 
0.778059250646587 1:20.79 2:32.066667 3:434 4:1177.6667 5:0.00487165 
0.7848606562534767 1:20.815 2:31.9925 3:440.25 4:1175.25 5:0.004867839 
0.8215359617338995 1:20.823333 2:32.06 3:439 4:1184.3333 5:0.004880713 
0.5743207359001044 1:20.865 2:32.1675 3:444 4:1198.25 5:0.00490988 
0.7718493627898716 1:20.84 2:32.245 3:432.75 4:1204 5:0.004914177 
0.2555297256389434 1:20.89 2:32.2 3:444 4:1199 5:0.004922506 
0.7279426756995843 1:20.89 2:32.26 3:439 4:1204.3333 5:0.004931751 
0.5865960044976697 1:20.89 2:32.1675 3:432.75 4:1218.75 5:0.004917498 
0.8134800663923989 1:20.89 2:32.333333 3:439 4:1212 5:0.004943051 
0.5931450278830772 1:20.89 2:32.29 3:429 4:1218.5 5:0.004936373 
0.8361491150190458 1:20.89 2:32.475 3:436.5 4:1237.75 5:0.004964881 
0.8269136970644628 1:20.945 2:32.4975 3:444 4:1253 5:0.004985319 
0.8079441723470622 1:21 2:32.4 3:446.75 4:1261 5:0.004987213 
0.8176615386135981 1:21 2:32.425 3:454 4:1263.8 5:0.004991092 
0.5493249331772569 1:20.926667 2:32.526667 3:469 4:1276.6667 5:0.004984162 
0.8355847607112828 1:21 2:32.5675 3:469 4:1294 5:0.005013203 
0.4511946649037196 1:21 2:32.526667 3:454 4:1287.6667 5:0.005006867 
0.4499223464952187 1:21 2:32.4725 3:454 4:1289.25 5:0.004998462 
0.8358204903361276 1:21 2:32.545 3:454 4:1300.75 5:0.005009712 
0.532406429570337 1:21 2:32.59 3:454 4:1312 5:0.005016695 
0.05445725293073437 1:21 2:32.56 3:454 4:1315 5:0.00501204 
0.4784718804101034 1:21.025 2:32.7 3:454 4:1315 5:0.005041568 
0.6392223335082949 1:21.066667 2:32.863333 3:454 4:1325.6667 5:0.005080051 
0.6361681155989077 1:21.075 2:32.8725 3:454 4:1330 5:0.005084103 
0.8342306233812909 1:21.1 2:32.966667 3:454 4:1339.6667 5:0.005106686 
0.824473279455556 1:21.1 2:33.045 3:454 4:1361.75 5:0.005118921 
0.2576914856988006 1:21.1 2:33.0675 3:454 4:1369.75 5:0.005122435 
0.5771173051138365 1:21.133333 2:33.096667 3:458 4:1371 5:0.005137583 
0.6025667117582891 1:21.1 2:33.126667 3:458 4:1379.3333 5:0.005131676 
0.6930241163480187 1:21.1 2:33.0725 3:449.5 4:1384.5 5:0.005123216 
0.7631078646738381 1:21.1 2:33.025 3:464.5 4:1382 5:0.005115797 
0.6436625394866626 1:21.1 2:32.7675 3:465.25 4:1371.2 5:0.005075583 
0.5820555512541485 1:21.125 2:33.0675 3:471.75 4:1352 5:0.00513037 
0.5556358576644457 1:21.1 2:32.975 3:474.5 4:1349.75 5:0.005107988 
0.6014814310746018 1:21.125 2:33.1175 3:464 4:1364.75 5:0.005138192 
0.4346059374431271 1:21.166667 2:32.996667 3:469 4:1377.3333 5:0.005132512 
0.3825552506278626 1:21.15 2:33.0425 3:479 4:1384.5 5:0.0051344 
0.4740029670052204 1:21.133333 2:33.09 3:479 4:1379.3333 5:0.00513654 
0.03699991639209874 1:21.175 2:33.09 3:479 4:1387.25 5:0.005149805 
0.7287042756218226 1:21.2 2:33.126667 3:480.66667 4:1390.3333 5:0.005163542 
0.8352135162824806 1:21.2 2:33.1725 3:496.5 4:1390.25 5:0.005170746 
0.8309882184039832 1:21.2 2:33.163333 3:504 4:1402.6667 5:0.005169305 
0.8036778964236537 1:21.2225 2:33.145 3:495.25 4:1404.75 5:0.005173622 
0.7492900124751976 1:21.245 2:33.1725 3:489 4:1408.5 5:0.005185163 
0.1460138078776872 1:21.29 2:33.2 3:489 4:1414 5:0.005203962 
0.3475208880627562 1:21.29 2:33.2 3:489 4:1415 5:0.005203962 
0.8254407074917353 1:21.29 2:33.2 3:500.25 4:1417.25 5:0.005203962 
0.5902136167341855 1:21.29 2:33.126667 3:492.33333 4:1416 5:0.005192371 
0.7019151168973869 1:21.29 2:33.1725 3:481.5 4:1414.5 5:0.005199615 
0.7778773122054767 1:21.29 2:33.145 3:471.5 4:1419.25 5:0.005195269 
0.7489616105424053 1:21.29 2:33.163333 3:464 4:1413.3333 5:0.005198166 
0.4243149067206168 1:21.29 2:33.145 3:464 4:1421.75 5:0.005195269 
0.3284579449470814 1:21.29 2:33.23 3:464 4:1427.3333 5:0.005208704 
0.1371224801628901 1:21.29 2:33.145 3:475.25 4:1433.25 5:0.005195269 
0.3467811252218173 1:21.29 2:33.195 3:479 4:1432.75 5:0.005203172 
0.6122595890948695 1:21.39 2:33.35 3:479 4:1438.5 5:0.005260091 
0.7670322763897721 1:21.39 2:33.2725 3:479 4:1444.75 5:0.005247765 
0.7623166009879553 1:21.39 2:33.29 3:474 4:1453 5:0.005250548 
0.3398766782027687 1:21.39 2:33.296667 3:469 4:1441 5:0.005251608 
0.5824305690591653 1:21.39 2:33.3 3:471.5 4:1442.5 5:0.005252138 
0.1667208651967568 1:21.4175 2:33.2725 3:464 4:1441.75 5:0.00525669 
0.4694993942014523 1:21.39 2:33.2675 3:464 4:1449.75 5:0.005246969 
0.3332868735479889 1:21.39 2:33.363333 3:464 4:1453.3333 5:0.005262212 
0.09914301813667056 1:21.39 2:33.4 3:478 4:1456.6667 5:0.005268044 
0.6885624836317663 1:21.39 2:33.466667 3:478 4:1458 5:0.005278649 
0.6916240625782928 1:21.4175 2:33.5425 3:469.25 4:1465.5 5:0.00529971 
0.3333766836674861 1:21.426667 2:33.5 3:464 4:1476 5:0.005295937 
0.3828158965959759 1:21.445 2:33.3725 3:464 4:1460.25 5:0.005281589 
0.1916982894319554 1:21.39 2:33.466667 3:464 4:1455 5:0.005278649 
0.194499628559487 1:21.5 2:33.595 3:464 4:1464.25 5:0.005335198 
0.5772371957077014 1:21.5 2:33.5675 3:467.75 4:1472.5 5:0.005330793 
0.4583177552669129 1:21.5 2:33.4475 3:464 4:1445.75 5:0.005311573 
0.6147561604953385 1:21.5 2:33.633333 3:464 4:1431.6667 5:0.005341338 
0.4445034022120365 1:21.5 2:33.7975 3:475.25 4:1435.25 5:0.005367634 
0.4873109030334021 1:21.5 2:33.693333 3:479 4:1429 5:0.005350948 
0.7760355742043937 1:21.55 2:33.895 3:479 4:1399 5:0.0053999 
0.6252179600545589 1:21.575 2:33.595 3:479 4:1375.5 5:0.00535996 
0.2839147583373601 1:21.575 2:33.79 3:479 4:1385.25 5:0.005391341 
0.5339852820428894 1:21.6 2:33.8 3:471.5 4:1378.5 5:0.005401279 
0.1673627424757382 1:21.566667 2:34.43 3:464 4:1366.5 5:0.005491532 
0.503770334730348 1:21.6 2:34.475 3:462.75 4:1419.75 5:0.0055101 
0.4147403243807833 1:21.575 2:34.5 3:461.5 4:1428 5:0.005505628 
0.6995933339145877 1:21.5 2:34.5 3:454 4:1430 5:0.005480187 
0.703357919679683 1:21.525 2:34.475 3:454 4:1424.75 5:0.005484643 
0.4357427079172296 1:21.5 2:34.45 3:464.5 4:1401 5:0.005472174 
0.6961446323205646 1:21.5 2:34.396667 3:463 4:1407 5:0.005463628 
0.5049738565166857 1:21.5 2:34.4 3:460.75 4:1401.25 5:0.005464162 
0.4694895954732523 1:21.5 2:34.4 3:468 4:1395 5:0.005464162 
0.3244329795669398 1:21.5 2:34.4225 3:464.5 4:1396.5 5:0.005467768 
0.660527873836203 1:21.5 2:34.4225 3:464.5 4:1391.5 5:0.005467768 
0.528489106712639 1:21.5 2:34.345 3:454 4:1399 5:0.005455349 
0.5335607306291907 1:21.5 2:34.29 3:454 4:1402.25 5:0.005446537 
0.6725702868924492 1:21.5 2:34.245 3:454 4:1390.75 5:0.005439327 
0.4309459810682931 1:21.445 2:34.195 3:454 4:1386.5 5:0.005412892 
0.5529401644690598 1:21.5 2:34.2 3:454 4:1380 5:0.005432117 
0.404890049107215 1:21.5 2:34.2 3:454 4:1370 5:0.005432117 
0.4417735369234136 1:21.426667 2:34.06 3:469 4:1367.6667 5:0.005385233 
0.773277456565549 1:21.39 2:34.0675 3:471.75 4:1362 5:0.005374236 
0.7711435346758303 1:21.39 2:33.95 3:482.75 4:1355.5 5:0.00535554 
0.8214269653229388 1:21.4725 2:33.925 3:496.5 4:1347 5:0.005378914 
0.8220450822081753 1:21.5 2:33.9 3:499 4:1339.3333 5:0.005384054 
0.8355584060312116 1:21.39 2:33.7 3:514 4:1326.5 5:0.005315766 
0.8356846538364301 1:21.5 2:33.7 3:514 4:1315.6667 5:0.005352016 
0.8359636159860724 1:21.5 2:33.626667 3:499 4:1312.6667 5:0.00534027 
0.5212058139606526 1:21.5 2:33.59 3:489 4:1307 5:0.005334397 
0.8304972659791829 1:21.5 2:33.56 3:480.66667 4:1312.3333 5:0.005329592 
0.5098575597485425 1:21.5 2:33.5 3:486.5 4:1305.75 5:0.005319982 
0.8338925749955775 1:21.5 2:33.5 3:479 4:1290.75 5:0.005319982 
0.7265574211044079 1:21.5 2:33.5 3:475.25 4:1281.5 5:0.005319982 
0.6296219856143653 1:21.5 2:33.425 3:464 4:1279.25 5:0.00530797 
0.6124709923067444 1:21.5 2:33.4 3:464 4:1274.3333 5:0.005303966 
0.7231597630049104 1:21.5 2:33.3725 3:469.25 4:1267.5 5:0.005299562 
0.4488621960763648 1:21.5 2:33.3175 3:474.5 4:1257 5:0.005290753 
0.3351272195679917 1:21.5 2:33.3175 3:474.5 4:1254.75 5:0.005290753 
0.7260123644896702 1:21.5 2:33.29 3:466.75 4:1262.5 5:0.005286349 
0.7416455000896436 1:21.5 2:33.245 3:469 4:1254 5:0.005279143 
2.625293849118297 1:21.5 2:33.2225 3:31 4:1246 5:0.00527554 
0.8363868003138197 1:21.15 2:32.845 3:365.75 4:1121 5:0.005103459 
0.7927222844988354 1:21.133333 2:32.79 3:454 4:1094 5:0.00508959 
0.4104369639679596 1:21.15 2:32.9 3:454 4:1106 5:0.005112076 
0.5435295533890603 1:21.2 2:32.845 3:454 4:1102 5:0.005119277 
0.1796787569197081 1:21.2 2:32.9 3:454 4:1113 5:0.00512792 
0.6649819777819648 1:21.2 2:32.9 3:454 4:1117.3333 5:0.00512792 
0.4775709979010256 1:21.2 2:32.9 3:454 4:1110.75 5:0.00512792 
0.7965904752706594 1:21.2 2:32.9 3:461.5 4:1113.25 5:0.00512792 
0.6727906455041973 1:21.2675 2:32.9725 3:469 4:1122.6667 5:0.005160819 
0.2287496510574062 1:21.245 2:32.925 3:474.5 4:1126.5 5:0.005146156 
0.6879227846052188 1:21.26 2:32.966667 3:478 4:1125.3333 5:0.005157506 
0.6757524722520358 1:21.29 2:32.975 3:464 4:1124.75 5:0.005168401 
0.6503453595900224 1:21.29 2:32.975 3:469.25 4:1130.5 5:0.005168401 
0.6060526279677186 1:21.29 2:32.95 3:474.5 4:1131.5 5:0.00516445 
0.1308379981386895 1:21.29 2:32.933333 3:472.66667 4:1127.6667 5:0.005161816 
0.7953816093318697 1:21.29 2:33.05 3:451.5 4:1129 5:0.005180254 
0.5724409953195828 1:21.29 2:33.2225 3:459 4:1147.25 5:0.005207518 
0.593437286220577 1:21.29 2:33.045 3:459 4:1143.5 5:0.005179464 
0.8218581796062883 1:21.365 2:33.1725 3:466.5 4:1149.5 5:0.005223782 
0.8322711429954275 1:21.39 2:33.3725 3:469.25 4:1164 5:0.00526367 
0.832261019454071 1:21.39 2:33.5 3:464 4:1171.6667 5:0.005283951 
0.8359868329988063 1:21.39 2:33.545 3:475.25 4:1176.5 5:0.005291109 
0.8358389268753134 1:21.39 2:33.663333 3:484 4:1184.6667 5:0.005309933 
0.6523792114595897 1:21.39 2:33.7225 3:484 4:1198.25 5:0.005319346 
0.6522418263345915 1:21.4175 2:33.87 3:484 4:1202.75 5:0.005351901 
0.8358000518360917 1:21.463333 2:33.966667 3:479 4:1221.3333 5:0.005382529 
0.8325518036411657 1:21.5 2:34.045 3:489 4:1226 5:0.005407283 
0.7776840627990648 1:21.5 2:34.0675 3:489 4:1235.5 5:0.005410888 
0.7791222239697315 1:21.5 2:34.09 3:489 4:1242 5:0.005414493 
0.8015908750622345 1:21.5 2:34.2 3:479 4:1242 5:0.005432117 
0.7758419971048797 1:21.525 2:34.2 3:477.75 4:1249 5:0.00544051 
0.6325888092006301 1:21.5 2:34.26 3:487.33333 4:1260.3333 5:0.00544173 
0.4191942019502674 1:21.5 2:34.245 3:484 4:1259.25 5:0.005439327 
0.7034001663122134 1:21.525 2:34.295 3:479 4:1261 5:0.005455755 
0.7074738893190171 1:21.6 2:34.29 3:489 4:1272.5 5:0.005480271 
0.7062668071543127 1:21.566667 2:34.29 3:484 4:1271 5:0.005469006 
0.630698280358117 1:21.6 2:34.345 3:474 4:1276.25 5:0.005489139 
0.470313739329394 1:21.633333 2:35.256667 3:465.66667 4:1457.6667 5:0.005647775 
0.5797279939818086 1:21.625 2:34.77 3:476.5 4:1423.75 5:0.005566254 
0.5253177805674423 1:21.666667 2:34.656667 3:479 4:1342.6667 5:0.005562232 
0.510891279324883 1:21.633333 2:34.693333 3:480.66667 4:1345 5:0.005556728 
0.7724407109696274 1:21.666667 2:34.83 3:489 4:1355.3333 5:0.005590301 
0.730483162879669 1:21.7 2:35.0225 3:474 4:1369.5 5:0.005633051 
0.8335288804659289 1:21.7 2:35.0225 3:489 4:1383.25 5:0.005633051 
0.503617926147681 1:21.7 2:35 3:472.75 4:1399.75 5:0.005629399 
0.2711221674234873 1:21.7 2:35.09 3:472.33333 4:1398.3333 5:0.005644006 
0.6173707000835545 1:21.745 2:35.24 3:479 4:1418.5 5:0.005684109 
0.593105068452307 1:21.7 2:35.26 3:474 4:1428.6667 5:0.005671599 
0.5533309909685244 1:21.7 2:35.345 3:464 4:1441 5:0.005685396 
0.3614569759725339 1:21.7675 2:35.5675 3:464 4:1464.25 5:0.005745388 
0.3650722381998477 1:21.76 2:35.59 3:464 4:1469 5:0.005746398 
0.2489250296513165 1:21.79 2:35.645 3:464 4:1471 5:0.005766018 
0.4641783210379788 1:21.79 2:35.6725 3:464 4:1477 5:0.005770507 
0.7960283795153675 1:21.79 2:35.6725 3:464 4:1483.5 5:0.005770507 
0.6143457737684291 1:21.79 2:35.845 3:474.5 4:1496.5 5:0.005798672 
0.6147554943520959 1:21.815 2:35.845 3:470.75 4:1498 5:0.005807617 
0.8122265138587479 1:21.84 2:35.95 3:466.75 4:1513 5:0.005833773 
0.8118265015804342 1:21.84 2:35.9 3:466.5 4:1520.5 5:0.005825583 
0.8362175187962029 1:21.865 2:36.24 3:454 4:1565 5:0.005890348 
0.5064222755546453 1:21.89 2:36.29 3:457 4:1579.2 5:0.005907648 
0.7829681356774885 1:21.89 2:36.326667 3:464 4:1580 5:0.005913674 
0.3734753848094096 1:21.89 2:36.425 3:457.75 4:1581 5:0.005929834 
0.8212362957761612 1:21.89 2:36.53 3:454 4:1592.6667 5:0.005947091 
0.8211573289610578 1:21.89 2:36.53 3:454 4:1600.6667 5:0.005947091 
0.7645585725109761 1:21.89 2:36.59 3:449.5 4:1625 5:0.005956953 
0.7347299939079451 1:21.89 2:36.663333 3:453 4:1630 5:0.005969006 
0.8116087403802497 1:21.89 2:36.645 3:449.5 4:1636.5 5:0.005965993 
0.8359280760630893 1:21.89 2:36.7 3:449.5 4:1649.25 5:0.005975033 
0.5502521981988376 1:21.89 2:36.833333 3:460 4:1665 5:0.00599695 
0.6041830175498214 1:21.89 2:36.8725 3:456 4:1662.25 5:0.006003389 
0.5912498062678435 1:21.89 2:36.845 3:456 4:1667.5 5:0.005998868 
0.7892930617575411 1:21.9175 2:36.845 3:444 4:1682.75 5:0.006009044 
0.001501186389316275 1:21.89 2:36.95 3:444 4:1684 5:0.006016129 
0.7904092249402468 1:21.9175 2:37.09 3:444 4:1689.5 5:0.00604939 
0.8010953914533291 1:21.89 2:37.0675 3:444 4:1707.5 5:0.006035446 
0.6355223338524384 1:21.89 2:37 3:444 4:1714.3333 5:0.006024349 
0.4061595908861369 1:21.89 2:37.163333 3:444 4:1718.3333 5:0.006051201 
0.774864339754219 1:21.9175 2:37.15 3:440.25 4:1727.5 5:0.006059271 
0.6277652304732025 1:21.89 2:37.06 3:444 4:1722.6667 5:0.006034213 
0.5816164662745438 1:21.89 2:37.3975 3:444 4:1744.75 5:0.006089703 
0.4833441564799341 1:21.945 2:37.425 3:444 4:1748 5:0.006114919 
0.7788244477952805 1:21.926667 2:37.4 3:439 4:1752.3333 5:0.006103894 
0.6775118271541769 1:21.945 2:37.45 3:444 4:1757.75 5:0.006119044 
0.1455885273973072 1:21.9175 2:37.2725 3:444 4:1762 5:0.006079446 
0.3334456207510793 1:21.945 2:37.4 3:444 4:1762.5 5:0.006110794 
0.686575666452943 1:21.926667 2:37.463333 3:444 4:1767 5:0.006114332 
0.7281136570751761 1:21.89 2:37.4725 3:444 4:1774.5 5:0.006102036 
0.5764438024781603 1:21.945 2:37.425 3:444 4:1780 5:0.006114919 
0.714530083973653 1:21.89 2:37.495 3:444 4:1785 5:0.006105736 
0.7800928523238732 1:22 2:37.545 3:432.75 4:1792 5:0.006155544 
0.7438040582605457 1:21.963333 2:37.56 3:434 4:1798.3333 5:0.006144132 
0.8081888501454756 1:22 2:37.6725 3:440.25 4:1802 5:0.006176655 
0.6809583193111 1:22 2:37.59 3:444 4:1813.25 5:0.006162995 
0.4181153822560809 1:22 2:37.663333 3:439 4:1815.5 5:0.006175137 
0.6801085427842222 1:21.9725 2:37.745 3:444 4:1837.5 5:0.006178184 
0.7054563897248612 1:21.963333 2:37.56 3:439 4:1828.3333 5:0.006144132 
0.2600407408563362 1:22 2:37.626667 3:439 4:1817 5:0.006169066 
0.5417032506422687 1:21.9725 2:37.9 3:444 4:1819 5:0.006203807 
0.4210454319033508 1:21.9725 2:37.795 3:444 4:1826.5 5:0.006186449 
0.4001291151701487 1:21.89 2:37.7 3:444 4:1823.5 5:0.006139448 
0.5887159482458324 1:22 2:37.95 3:444 4:1832.75 5:0.006222608 
0.6388639190268234 1:21.9725 2:37.9475 3:444 4:1845.5 5:0.00621166 
0.6551349657558884 1:22 2:38.03 3:444 4:1850 5:0.006235857 
0.7992075667809005 1:22 2:38.09 3:444 4:1860.5 5:0.006245794 
0.2516235177945735 1:21.963333 2:38.09 3:444 4:1866.6667 5:0.006231699 
0.6070222565556401 1:22 2:38.163333 3:444 4:1868.3333 5:0.00625794 
0.8354458530936746 1:22 2:38.145 3:444 4:1879.25 5:0.006254903 
0.8245631033961899 1:22 2:38.4 3:444 4:1896.3333 5:0.006297141 
0.0713289946649911 1:22 2:38.2725 3:432.75 4:1895 5:0.006276022 
0.1790147631556809 1:22 2:38.296667 3:429 4:1895.6667 5:0.006280024 
0.7797149221062859 1:22 2:38.37 3:441 4:1904 5:0.006292172 
0.2487311657047944 1:22 2:38.3975 3:438 4:1909.75 5:0.006296727 
0.5784908434071758 1:22 2:38.345 3:438 4:1911 5:0.00628803 
0.6257948060317531 1:22 2:38.47 3:438 4:1932.25 5:0.006308737 
0.08407578660281845 1:22 2:38.59 3:438 4:1940 5:0.006328616 
0.416132602767989 1:22 2:38.5675 3:438 4:1938.25 5:0.006324888 
0.4817108637531839 1:22 2:38.56 3:441 4:1935.3333 5:0.006323646 
0.6849131159748545 1:22.025 2:38.7 3:438 4:1943.5 5:0.006356623 
0.7134296786415768 1:22.066667 2:38.79 3:441 4:1955.3333 5:0.006387933 
0.6574515170853751 1:22.05 2:38.69 3:438 4:1962.75 5:0.006364759 
0.2183010797344845 1:22.025 2:38.8 3:438 4:1959.25 5:0.006373217 
0.2485718089382483 1:22.075 2:38.745 3:438 4:1974.5 5:0.006383722 
0.5893274001025304 1:22.075 2:38.895 3:438 4:1981.25 5:0.006408691 
0.5235386379094077 1:22.1 2:38.845 3:438 4:1972.5 5:0.006410229 
0.3810589108935888 1:22.1 2:39 3:438 4:1984.5 5:0.006436072 
0.2889907367264113 1:22.075 2:38.8975 3:438 4:1991.75 5:0.006409107 
0.3676916967495061 1:22.05 2:38.9975 3:438 4:1994.25 5:0.006415866 
0.6587992698582412 1:22.1 2:39.045 3:438 4:2008.25 5:0.006443575 
0.8088199562837658 1:22.1 2:39.0425 3:442.5 4:2014 5:0.006443158 
0.4145430670537451 1:22.1 2:38.76 3:447 4:2003.3333 5:0.006396058 
0.4820774107264727 1:22.1 2:38.845 3:447 4:2005 5:0.006410229 
0.7377486254298511 1:22.1 2:38.79 3:447 4:1989 5:0.006401059 
0.04911430236014824 1:22.1 2:38.8225 3:447 4:1993.5 5:0.006406478 
0.6030287416665444 1:22.1 2:38.845 3:447 4:1995.5 5:0.006410229 
0.8052454458944239 1:22.1 2:38.73 3:447 4:1981.6667 5:0.006391057 
0.502594067898458 1:22.1 2:38.863333 3:442.33333 4:1995.3333 5:0.006413286 
0.2540889290475378 1:22.1 2:38.6225 3:436.5 4:1989.25 5:0.006373136 
0.7512870564896618 1:22.1 2:38.6175 3:436.5 4:1950.75 5:0.006372302 
0.6914481495118916 1:22.1 2:38.7 3:433 4:1974.5 5:0.006386055 
0.2976455754882731 1:22.1 2:38.745 3:433 4:1988 5:0.006393557 
0.3589197768715836 1:22.1 2:38.845 3:433 4:1987 5:0.006410229 
0.2896434876750522 1:22.1 2:38.826667 3:433 4:2001 5:0.006407172 
0.5851670419032372 1:22.1 2:38.79 3:433 4:1997.5 5:0.006401059 
0.01766288777510028 1:22.1 2:38.845 3:433 4:1997.5 5:0.006410229 
0.06791593790857481 1:22.1 2:38.95 3:433 4:2001 5:0.006427735 
0.4963586837297839 1:22.1 2:39 3:433 4:2005 5:0.006436072 
0.7466952081784756 1:22.1 2:39 3:433 4:2028.5 5:0.006436072 
0.1390180226986417 1:22.1 2:39.0225 3:433 4:2008.25 5:0.006439823 
0.3242320238331347 1:22.1 2:39.0675 3:433 4:2015.5 5:0.006447327 
0.2135462163861958 1:22.1 2:39 3:433 4:2010.3333 5:0.006436072 
0.364921338485928 1:22.1 2:39.0225 3:433 4:2019 5:0.006439823 
0.05504669915878677 1:22.1 2:39.09 3:433 4:2013 5:0.006451078 
0.101781791978387 1:22.1 2:39.09 3:433 4:2017.25 5:0.006451078 
0.5622093126954333 1:22.133333 2:39.09 3:433 4:2023 5:0.006464333 
0.006264865223350809 1:22.1 2:39.0675 3:433 4:2025.25 5:0.006447327 
0.2823443130166091 1:22.1 2:38.796667 3:433 4:2012.3333 5:0.006402171 
0.8196634686721708 1:22.1 2:38.7225 3:426 4:1984.25 5:0.006389806 
0.8362683089728998 1:22.175 2:38.9725 3:328 4:1986.5 5:0.006461252 
0.8363303198581913 1:22.175 2:38.895 3:397 4:1984.75 5:0.00644827 
0.7234686747244187 1:22.2 2:38.4 3:433 4:1959 5:0.006375165 
0.8261406935790574 1:22.2 2:38.433333 3:429.5 4:1943.5 5:0.006380756 
0.6913336511769402 1:22.125 2:38.45 3:433 4:1926 5:0.006354154 
0.3885325298418805 1:22.125 2:38.3175 3:433 4:1921.75 5:0.006332034 
0.6928589754249068 1:22.1 2:38.29 3:433 4:1917.5 5:0.006317712 
0.8021954176878371 1:22.1 2:38.29 3:433 4:1901.75 5:0.006317712 
0.5970227701341049 1:22.1 2:38.29 3:433 4:1893.3333 5:0.006317712 
0.5090530649387347 1:22.1 2:38.2675 3:428.33333 4:1894.3333 5:0.006313962 
0.8324922426464451 1:22.1 2:38.2 3:433 4:1880 5:0.006302712 
0.821646036516578 1:22.1 2:38.1175 3:429.5 4:1871.25 5:0.006288963 
0.8243254255432453 1:22.1 2:38.145 3:433 4:1863.75 5:0.006293546 
0.7967535080930349 1:22.1 2:38.09 3:423.66667 4:1855 5:0.00628438 
0.7967685016738908 1:22.1 2:38.09 3:429.5 4:1851.25 5:0.00628438 
0.8352550055935577 1:22.1 2:37.975 3:433 4:1839.25 5:0.006265215 
0.7635716956696599 1:22.1 2:37.95 3:426 4:1831 5:0.006261049 
0.7392305815559951 1:22.1 2:37.925 3:429.5 4:1826 5:0.006256883 
0.7774489497276049 1:22.075 2:37.8975 3:433 4:1819.25 5:0.006242684 
0.7013522378419812 1:22.1 2:37.9 3:426 4:1803.25 5:0.006252717 
0.1092331063253739 1:22.1 2:37.8175 3:426 4:1801.75 5:0.006238969 
0.7855361775254572 1:22.066667 2:37.76 3:423.66667 4:1796.6667 5:0.006216617 
0.8362378308387651 1:22.1 2:37.79 3:209.5 4:1788.5 5:0.006234387 
0.8362629955291986 1:20.323333 2:33.23 3:419 4:456.66667 5:0.004905413 
0.8363249957949171 1:20.323333 2:33.26 3:433 4:463 5:0.004909876 
8 1:20.365 2:33.4975 3:419 4:482.5 5:0.004958063 
0.4776921988816741 1:20.39 2:33.5 3:419 4:484.5 5:0.004966159 
0.7494178646969426 1:20.39 2:33.5 3:419 4:490.33333 5:0.004966159 
0.6461436297134308 1:20.39 2:33.5 3:409.66667 4:489.66667 5:0.004966159 
0.6983604625965196 1:20.4175 2:33.5225 3:405 4:487.25 5:0.004978035 
0.8027422225517049 1:20.463333 2:33.663333 3:413 4:499 5:0.005013396 
0.525143994908398 1:20.5 2:33.6725 3:404.5 4:494.5 5:0.005026224 
0.4097830390702944 1:20.5 2:33.7225 3:407.5 4:495.5 5:0.005033748 
0.03570085491032311 1:20.5 2:33.79 3:405 4:495.5 5:0.005043906 
0.5328138514960901 1:20.5 2:33.79 3:405 4:506.66667 5:0.005043906 
0.3851101885255058 1:20.6 2:33.863333 3:405 4:509.5 5:0.005086473 
0.7893638522765887 1:20.575 2:33.925 3:405 4:516 5:0.005087898 
0.8130297124327547 1:20.6 2:33.8725 3:412 4:521.25 5:0.005087861 
0.3149390163790471 1:20.6 2:33.895 3:419 4:525.75 5:0.005091269 
0.5169108449833821 1:20.65 2:33.975 3:419 4:524.5 5:0.005119268 
0.5452674457754684 1:20.65 2:33.975 3:419 4:534.5 5:0.005119268 
0.4249935115541196 1:20.65 2:34.145 3:419 4:532 5:0.005145095 
0.7209957445249969 1:20.7 2:34.4175 3:419 4:568.75 5:0.005202637 
0.7209907299910047 1:20.73 2:34.466667 3:419 4:563.33333 5:0.00521985 
0.8184656838744181 1:20.745 2:34.5675 3:426 4:593.75 5:0.00524013 
0.8182142445180248 1:20.7675 2:34.7175 3:422.5 4:600.75 5:0.00527042 
0.8355614684239598 1:20.79 2:35.09 3:426 4:623 5:0.005334902 
0.7417321848943302 1:20.79 2:34.9725 3:433 4:631 5:0.005316886 
0.7426630337839814 1:20.84 2:35.195 3:433 4:636.75 5:0.005367641 
0.7479374373441665 1:20.89 2:35.3 3:433 4:663 5:0.005400526 
0.04773037275461503 1:20.856667 2:35.096667 3:433 4:665.33333 5:0.005358055 
0.7647806569518598 1:20.89 2:35.32 3:433 4:669.5 5:0.005403613 
0.7187908489891278 1:20.9175 2:35.475 3:433 4:679.25 5:0.005436802 
0.7217141152293401 1:20.89 2:35.4 3:433 4:684.66667 5:0.005415958 
0.7796120713499819 1:20.9175 2:35.7175 3:433 4:706.25 5:0.005474294 
0.7108992325074984 1:20.95875 2:35.68375 3:433 4:712.625 5:0.00548309 
0.7792197851629232 1:21 2:35.65 3:433 4:719 5:0.005491891 
0.828960829972845 1:21 2:35.7 3:433 4:730.25 5:0.005499661 
0.8290470250981349 1:21 2:35.76 3:433 4:739 5:0.005508986 
0.7908653907012384 1:21 2:35.85 3:433 4:756.25 5:0.005522974 
0.7796048564650904 1:21.025 2:35.95 3:433 4:763 5:0.00554711 
0.820584298808488 1:21 2:35.86 3:433 4:771.33333 5:0.005524528 
0.8084465358113065 1:21.05 2:36.05 3:433 4:780.25 5:0.005571307 
0.4176042343248289 1:21.05 2:36.0975 3:433 4:787.25 5:0.005578714 
0.5228438306182346 1:21.05 2:35.995 3:433 4:789.5 5:0.005562731 
0.8326194606394839 1:21.1 2:36.095 3:433 4:798.5 5:0.005595639 
0.8357304847124338 1:21.1 2:36.2 3:447 4:821 5:0.005612064 
-0.81015052243179 1:23 2:27.2 3:0 4:681.5 5:0.004728078 
-0.448581297130657 1:22.945 2:27.29 3:0 4:685 5:0.004727951 
-0.9138035665290106 1:22.89 2:27.39 3:0 4:689.5 5:0.004729506 
-0.3256617154981483 1:22.7 2:27.463333 3:0 4:668.66667 5:0.004687543 
-0.07594768378248444 1:22.7 2:27.5 3:0 4:667 5:0.004693849 
-0.7806080742749547 1:22.666667 2:27.426667 3:0 4:664.5 5:0.004671708 
-0.7264881445866133 1:22.6 2:27.39 3:0 4:672 5:0.004646433 
-0.6722689187991164 1:22.6 2:27.356667 3:0 4:658 5:0.004640736 
-0.6721180712097548 1:22.6 2:27.445 3:0 4:654.25 5:0.004655833 
-0.5545275167396315 1:22.5 2:27.323333 3:0 4:648.66667 5:0.004606763 
-0.4385882371341648 1:22.5 2:27.445 3:0 4:646 5:0.004627429 
-0.698438734125515 1:22.5 2:27.445 3:0 4:641.5 5:0.004627429 
-0.7778380156075037 1:22.39 2:27.34 3:0 4:630.5 5:0.004578647 
-0.7256484878607856 1:22.39 2:27.5 3:0 4:636.5 5:0.004605641 
-0.3657345086206056 1:22.39 2:27.39 3:0 4:626 5:0.004587082 
-0.4004420635666979 1:22.39 2:27.463333 3:0 4:624.66667 5:0.004599455 
-0.8360410626943474 1:22.39 2:27.39 3:0 4:620 5:0.004587082 
-0.3981088457021532 1:22.29 2:27.34 3:0 4:609 5:0.004550673 
-0.7957509271312176 1:22.29 2:27.34 3:0 4:613.5 5:0.004550673 
-0.01992640007146856 1:22.29 2:27.34 3:0 4:611 5:0.004550673 
-0.8293392984196529 1:22.29 2:27.29 3:0 4:605.5 5:0.00454229 
-0.8365640120880251 1:22.2 2:27.29 3:0 4:598 5:0.004517288 
-0.6817986997432929 1:22.245 2:27.245 3:0 4:591 5:0.00452225 
-0.3040950993481162 1:22.2 2:27.29 3:0 4:594.33333 5:0.004517288 
-0.6446811115452149 1:22.2 2:27.2 3:0 4:586 5:0.004502283 
-0.4267622985227767 1:22.2 2:27.2 3:0 4:577 5:0.004502283 
-0.4078010945336987 1:22.125 2:27.2 3:0 4:582 5:0.00448161 
-0.3303184516484837 1:22.2 2:27.2 3:0 4:580 5:0.004502283 
-0.249614305416087 1:22.1 2:27.2 3:0 4:572.5 5:0.004474738 
-0.2062170770599287 1:22.1 2:27.2 3:0 4:567 5:0.004474738 
-0.01216163924162337 1:22.1 2:27.2 3:0 4:568 5:0.004474738 
-0.3293746745285355 1:22.1 2:27.2 3:0 4:574.5 5:0.004474738 
-0.14431819115636 1:22.1 2:27.2 3:0 4:564.33333 5:0.004474738 
-0.3284618898499546 1:22.066667 2:27.166667 3:0 4:566.33333 5:0.004460078 
-0.3912979233492597 1:22.1 2:27.1 3:0 4:562 5:0.004458169 
-0.04489404490421882 1:22 2:27.1 3:0 4:565.5 5:0.004430876 
-0.4613356965166306 1:22 2:27.1 3:0 4:570 5:0.004430876 
-0.2594970951769427 1:22 2:27.1 3:0 4:560 5:0.004430876 
-0.5600190189616494 1:22 2:27.1 3:0 4:557 5:0.004430876 
-0.02184256223454495 1:21.89 2:27.1 3:0 4:551.5 5:0.004401023 
-0.7862865544349956 1:21.89 2:27.1 3:0 4:548 5:0.004401023 
-0.6278387640263466 1:21.89 2:27.1 3:0 4:553 5:0.004401023 
-0.7532931959198758 1:21.79 2:27.1 3:0 4:542 5:0.004374038 
-0.5502702661914176 1:21.79 2:27.1 3:0 4:537.5 5:0.004374038 
-0.06100173510905396 1:21.79 2:27.1 3:0 4:536 5:0.004374038 
-0.1845748605302784 1:21.7 2:26.89 3:0 4:530 5:0.004315936 
-0.5710031707015288 1:21.7 2:26.89 3:0 4:533.33333 5:0.004315936 
-0.4139119415641604 1:21.7 2:26.89 3:0 4:529 5:0.004315936 
-0.02062665544799026 1:21.7 2:26.79 3:0 4:520 5:0.004299774 
-0.1897034810505382 1:21.7 2:26.7675 3:0 4:523.5 5:0.004296138 
-0.477710965887548 1:21.7 2:26.79 3:0 4:525.5 5:0.004299774 
-0.1190543090735457 1:21.7 2:26.7 3:0 4:518 5:0.00428523 
-0.4996805643900447 1:21.6 2:26.7 3:0 4:521 5:0.004258922 
-0.09591533574934208 1:21.65 2:26.65 3:0 4:514 5:0.004264003 
-0.1963245895046896 1:21.6 2:26.55 3:0 4:515.5 5:0.004234832 
-0.381482031530034 1:21.6 2:26.5 3:0 4:517 5:0.004226803 
-0.5272342775051413 1:21.6 2:26.5 3:0 4:512 5:0.004226803 
-0.03675747191972242 1:21.6 2:26.445 3:0 4:508 5:0.004217971 
-0.3324535448716487 1:21.6 2:26.445 3:0 4:508.75 5:0.004217971 
-0.288217251698463 1:21.6 2:26.39 3:0 4:507 5:0.004209139 
-0.06448667706691825 1:21.6 2:26.39 3:0 4:503.5 5:0.004209139 
-0.1880414520699398 1:21.6 2:26.39 3:0 4:504 5:0.004209139 
-0.2953820395029949 1:21.6 2:26.29 3:0 4:500 5:0.004193082 
-0.01239636045643611 1:21.566667 2:26.2 3:0 4:502 5:0.004170059 
-0.4565510172423771 1:21.5 2:26.2 3:0 4:497 5:0.004152962 
-0.4893214738208956 1:21.5 2:26.1 3:0 4:493.75 5:0.004137006 
-0.1216657911903291 1:21.5 2:26.1 3:0 4:504.5 5:0.004137006 
-0.1670756074499777 1:21.5 2:26 3:0 4:503.5 5:0.00412105 
-0.211384307857549 1:21.5 2:26 3:0 4:500.66667 5:0.00412105 
-0.05713029466480629 1:21.5 2:26 3:0 4:492.5 5:0.00412105 
-0.4963656656018187 1:21.5 2:26 3:0 4:490 5:0.00412105 
-0.01351809489555339 1:21.5 2:25.89 3:0 4:496 5:0.0041035 
-0.4127205271998385 1:21.5 2:25.79 3:0 4:487 5:0.004087546 
-0.2463258907294375 1:21.39 2:25.7 3:0 4:484 5:0.004045656 
-0.05676328065251655 1:21.39 2:25.7 3:0 4:481.66667 5:0.004045656 
-0.08761453826711382 1:21.39 2:25.7 3:0 4:485 5:0.004045656 
-0.2018231578290261 1:21.39 2:25.7 3:0 4:483 5:0.004045656 
-0.2029203018378551 1:21.39 2:25.7 3:0 4:477 5:0.004045656 
-0.0945782339424828 1:21.39 2:25.7 3:0 4:477.5 5:0.004045656 
-0.09091629069656254 1:21.39 2:25.7 3:0 4:479 5:0.004045656 
-0.3740428116150007 1:21.39 2:25.7 3:0 4:471 5:0.004045656 
-0.2059419837067173 1:21.39 2:25.7 3:0 4:475 5:0.004045656 
-0.1675286858345402 1:21.2 2:25.29 3:0 4:468 5:0.003934293 
-0.02086994410027807 1:21.2 2:25.29 3:0 4:467 5:0.003934293 
-0.05823805807084476 1:21.29 2:25.29 3:0 4:458 5:0.003956216 
-0.3162784250354164 1:21.245 2:25.2 3:0 4:465 5:0.003931113 
-0.02445235934254136 1:21.29 2:25.2 3:0 4:459 5:0.003942048 
-0.08769174098135873 1:21.29 2:25.2 3:0 4:451 5:0.003942048 
-0.2437345765692369 1:21.29 2:25.2 3:0 4:461.66667 5:0.003942048 
-0.1529361414505926 1:21.29 2:25.2 3:0 4:457 5:0.003942048 
-0.05196067540800813 1:21.29 2:25.2 3:0 4:461 5:0.003942048 
-0.007762246207652076 1:21.29 2:25.2 3:0 4:460 5:0.003942048 
-0.0138295246912726 1:21.29 2:25.2 3:0 4:456 5:0.003942048 
-0.1170887726196704 1:21.29 2:25.2 3:0 4:454.5 5:0.003942048 
-0.2128778286796861 1:21.29 2:25.2 3:0 4:448.5 5:0.003942048 
-0.006250040775841572 1:21.29 2:25.2 3:0 4:453.5 5:0.003942048 
-0.09932801862354827 1:21.29 2:25.245 3:0 4:453 5:0.003949132 
-0.2179281280412685 1:21.2 2:25.2 3:0 4:444.5 5:0.003920204 
-0.05082900147781522 1:21.2 2:25.1 3:0 4:439.5 5:0.00390455 
-0.3656245072874936 1:21.2 2:25.1 3:0 4:436 5:0.00390455 
-0.1196078237287025 1:21.2 2:25.1 3:0 4:440.5 5:0.00390455 
-0.109347061843291 1:21.2 2:25.05 3:0 4:439.5 5:0.003896723 
-0.03370802710033066 1:21.2 2:25 3:0 4:443 5:0.003888897 
-0.2766409594577772 1:21 2:24.89 3:0 4:432 5:0.003824119 
-0.416674573445406 1:20.89 2:24.89 3:0 4:428 5:0.003798181 
-0.007099717995842674 1:20.89 2:23.29 3:0 4:446 5:0.003552629 
-0.2092931718752237 1:20.89 2:23.29 3:0 4:443 5:0.003552629 
-0.135090474318 1:20.89 2:23.1 3:0 4:452 5:0.003523482 
-0.04918163128937383 1:20.89 2:23.1 3:0 4:450 5:0.003523482 
-0.2216768256563346 1:20.89 2:23.1 3:0 4:447 5:0.003523482 
-0.1431453426904361 1:20.89 2:23 3:0 4:454 5:0.003508143 
-0.004627337218422119 1:20.89 2:23.1 3:0 4:455 5:0.003523482 
-0.04206415609530369 1:20.89 2:23 3:0 4:449 5:0.003508143 
-0.0806466538416373 1:20.76 2:22.79 3:0 4:458.33333 5:0.003448077 
-0.1063599961015732 1:20.7 2:22.5 3:0 4:459 5:0.003391335 
-1.031162351335708 1:20.7 2:22.4175 3:426 4:460.25 5:0.003378833 
-1.000764523409514 1:20.7 2:22.5 3:423.66667 4:465.33333 5:0.003391335 
-1.419244458999326 1:20.7 2:22.463333 3:423.66667 4:472.66667 5:0.003385779 
-7.992123534549379 1:22.1 2:26.633333 3:459 4:1044 5:0.004380858 
-4.981126696551202 1:22.1 2:26.6 3:459 4:1036.5 5:0.004375336 
-1.53383026746438 1:22.05 2:26.55 3:469 4:1039 5:0.00435367 
-1.163715869825777 1:22.7 2:26.89 3:539 4:1113.6667 5:0.004588962 
-1.163328165675484 1:22.7 2:26.89 3:545.75 4:1104.75 5:0.004588962 
-1.130603888301906 1:22.675 2:26.865 3:604.75 4:1103.25 5:0.004577664 
-1.130793225662535 1:22.7 2:26.815 3:597.25 4:1102.75 5:0.004576069 
-1.814894345435774 1:22.7 2:26.7 3:528 4:1090 5:0.0045563 
-2.42273484576143 1:22.7 2:26.7 3:521 4:1086.25 5:0.0045563 
-1.908856519763795 1:22.7 2:26.666667 3:535.66667 4:1083.6667 5:0.00455057 
-2.542261530828171 1:22.675 2:26.575 3:533.25 4:1078.5 5:0.00452789 
-1.163811964974446 1:22.65 2:26.55 3:523.75 4:1064.75 5:0.004516692 
-1.163647991564512 1:22.76 2:26.39 3:635.5 4:1022 5:0.004519554 
-1.164672857728924 1:22.856667 2:26.323333 3:676 4:1024.75 5:0.004534741 
-1.164627296628367 1:22.89 2:26.245 3:567.25 4:1020 5:0.004530356 
-1.163790451043585 1:22.89 2:26.2 3:582.5 4:1015.5 5:0.004522532 
-1.163751055076005 1:22.89 2:26.1 3:618.75 4:1007 5:0.004505145 
-1.038370121687827 1:22.89 2:26.175 3:579.25 4:997.5 5:0.004518185 
-1.038464080308195 1:22.89 2:26.1 3:584.5 4:1000 5:0.004505145 
-1.164276028479468 1:22.79 2:25.865 3:38.75 4:979 5:0.004437124 
-0.7907617585590331 1:22.79 2:25.9725 3:26.75 4:961.5 5:0.004455697 
-1.000621160199873 1:22.745 2:26 3:22 4:963.25 5:0.004448207 
-1.163771278286342 1:22.7 2:26 3:13 4:974 5:0.004435995 
-0.6877955371455652 1:22.7 2:26.075 3:31 4:965.25 5:0.004448882 
-0.7385050298631959 1:22.666667 2:26.066667 3:32.666667 4:962.33333 5:0.0044384 
-0.6782569722672642 1:22.566667 2:26.1 3:31 4:950.33333 5:0.004417027 
-0.6179769756201153 1:22.525 2:26.1 3:33.5 4:949.5 5:0.004405783 
-1.043536296512779 1:22.5 2:26.1 3:31 4:944 5:0.004399048 
-0.7131011571015938 1:22.4175 2:26.05 3:33.5 4:934.5 5:0.004368445 
-0.7193334194669357 1:22.39 2:26.1 3:33.5 4:931.75 5:0.004369525 
-1.162020809611433 1:22.39 2:26.1 3:46 4:930.5 5:0.004369525 
-1.162083026679814 1:22.39 2:26.1 3:53 4:923.25 5:0.004369525 
-1.163720734208095 1:22.39 2:26.1 3:71.5 4:921 5:0.004369525 
-1.16223485842657 1:22.323333 2:26.1 3:91.666667 4:912.33333 5:0.004351717 
-1.147695384129285 1:22.29 2:26.1 3:90 4:902.25 5:0.004342837 
-1.149915796227519 1:22.29 2:26.1 3:81.666667 4:903 5:0.004342837 
-1.163640476327905 1:22.29 2:26.1 3:112.75 4:898.5 5:0.004342837 
-0.797138267792332 1:22.29 2:26.1 3:503.5 4:892.5 5:0.004342837 
-0.9187762214280221 1:22.2675 2:26.1725 3:567.5 4:883.5 5:0.004348983 
-0.9186819925543213 1:22.29 2:26.29 3:569.25 4:879.25 5:0.004374674 
-1.023818164597283 1:22.29 2:26.26 3:490.66667 4:887.33333 5:0.004369647 
-1.053482123422664 1:22.29 2:26.2 3:487.33333 4:890 5:0.004359593 
-1.158024826878791 1:22.29 2:26.2 3:500 4:891.25 5:0.004359593 
-1.210157604919011 1:22.29 2:26.2 3:524 4:891 5:0.004359593 
-1.163627820828764 1:22.29 2:26.175 3:545.33333 4:881 5:0.004355404 
-1.25953848889942 1:22.315 2:26.1 3:520.6 4:866.25 5:0.004349495 
-1.163905562278284 1:22.29 2:26.1 3:509 4:864.66667 5:0.004342837 
-1.331411006515957 1:22.315 2:26.1 3:471.5 4:862 5:0.004349495 
-1.071344453431053 1:22.29 2:26.1 3:464 4:857.5 5:0.004342837 
-1.05670053866736 1:22.29 2:26.1 3:464 4:851.33333 5:0.004342837 
-0.9069537124584216 1:22.29 2:26.1 3:459 4:846.75 5:0.004342837 
-0.3705337570449124 1:22.29 2:26.1 3:459 4:844.66667 5:0.004342837 
-1.241102978477405 1:22.29 2:26.1 3:454.75 4:843 5:0.004342837 
-3.445555738760939 1:22.29 2:26.1 3:444 4:840.5 5:0.004342837 
-1.398226643407706 1:22.29 2:26.025 3:456 4:831.25 5:0.004330271 
-1.322369892361417 1:22.29 2:26 3:461.5 4:825.5 5:0.004326082 
-1.197593504864816 1:22.29 2:26 3:464 4:813.66667 5:0.004326082 
-1.362313880664568 1:22.29 2:26 3:476.5 4:819 5:0.004326082 
-1.344961035384104 1:22.29 2:26 3:489 4:819.5 5:0.004326082 
-1.439959667474508 1:22.29 2:25.945 3:489 4:810 5:0.004316867 
-1.842768045916268 1:22.2675 2:25.89 3:449.5 4:785 5:0.004301716 
-0.6655746851640628 1:22.2675 2:25.9175 3:449.5 4:795 5:0.004306317 
-0.1557225195431453 1:22.29 2:25.926667 3:453 4:795.25 5:0.004313796 
-1.129112075568398 1:22.245 2:25.89 3:451.75 4:797.5 5:0.004295788 
-0.966317051855801 1:22.29 2:25.89 3:459 4:797 5:0.004307653 
-0.5251067420097448 1:22.2675 2:25.89 3:459 4:795.5 5:0.004301716 
-3.380249103931393 1:22.2675 2:25.865 3:464 4:784.5 5:0.004297534 
-2.855380326000517 1:22.23 2:25.823333 3:454 4:777.33333 5:0.004280711 
-1.499598251546302 1:22.2225 2:25.8925 3:448 4:775.5 5:0.004290283 
-0.8726167910996312 1:22 2:24.1 3:0 4:844 5:0.003937268 
-0.4224337980327966 1:22 2:24.1 3:0 4:846.66667 5:0.003937268 
-1.075721557967696 1:22 2:24.1 3:0 4:852 5:0.003937268 
-1.162377708343106 1:21.89 2:23.856667 3:0 4:824.66667 5:0.00387103 
-1.109481278629067 1:21.84 2:23.745 3:0 4:813.66667 5:0.003840981 
-0.2976882018133592 1:21.84 2:23.745 3:0 4:805 5:0.003840981 
-0.8128061225094944 1:21.79 2:23.7 3:0 4:807 5:0.003821894 
-1.063250961373174 1:21.79 2:23.745 3:0 4:800 5:0.003829196 
-0.6042459324054081 1:21.79 2:23.7 3:0 4:781 5:0.003821894 
-0.3333937349065988 1:21.745 2:23.55 3:0 4:776.5 5:0.003787066 
-0.9673929796302956 1:21.7 2:23.7 3:0 4:771 5:0.003800801 
-0.04888179608372107 1:21.7 2:23.666667 3:0 4:775 5:0.003795423 
-0.6565515600668109 1:21.7 2:23.39 3:0 4:763 5:0.003750786 
-0.6564861734217408 1:21.7 2:23.6 3:0 4:755 5:0.003784667 
-0.2631197549950052 1:21.6 2:23.55 3:0 4:751.5 5:0.003753433 
-0.1199687377032629 1:21.6 2:23.5 3:0 4:748.5 5:0.003745416 
-0.8753410844984545 1:21.55 2:23.5 3:0 4:745.5 5:0.003733904 
-0.6601514827812504 1:21.55 2:23.5 3:0 4:738.5 5:0.003733904 
-0.7047513801981754 1:21.5 2:23.35 3:0 4:732.5 5:0.003698522 
-0.6833899232698772 1:21.5 2:23.26 3:0 4:725.5 5:0.003684182 
-0.6081488851327288 1:21.5 2:23.23 3:0 4:705.66667 5:0.003679402 
-0.1810509565051335 1:21.5 2:23.05 3:0 4:702.5 5:0.003650725 
-1.040428355538988 1:21.39 2:22.79 3:0 4:698 5:0.003584928 
-0.7536755387570493 1:21.39 2:22.695 3:0 4:677.5 5:0.003569898 
-0.5549245289877155 1:21.34 2:22.55 3:0 4:672 5:0.003536044 
-0.4965771721915397 1:21.34 2:22.395 3:0 4:660.5 5:0.003511601 
-0.827989206814558 1:21.29 2:21.945 3:0 4:650 5:0.003430059 
-0.6041957994350461 1:21.245 2:21.745 3:0 4:634 5:0.003389208 
-0.1905003609454614 1:21.29 2:22.1 3:0 4:640 5:0.00345442 
-0.5956804686811343 1:21.29 2:21.863333 3:0 4:638.66667 5:0.003417224 
-0.1201499496867089 1:21.29 2:21.5 3:0 4:628 5:0.003360128 
-0.4699319631361559 1:21.29 2:21.34 3:0 4:617 5:0.003334989 
-0.05181377197388319 1:21.2 2:21.566667 3:0 4:609 5:0.003351944 
-0.4681643884135284 1:21.2 2:21.195 3:0 4:611.5 5:0.003293872 
-0.1486147022936102 1:21.2 2:21.2 3:0 4:600 5:0.003294654 
-0.8088222023508026 1:21.2 2:21.2 3:0 4:586 5:0.003294654 
-0.3749405130014158 1:21.29 2:21.1 3:0 4:592.5 5:0.003297283 
-0.267593968610794 1:21.29 2:20.89 3:0 4:578 5:0.003264294 
-0.1401807654841084 1:21.29 2:20.795 3:0 4:571 5:0.003249372 
-0.3881340498077326 1:21.245 2:20.79 3:0 4:563.5 5:0.003239585 
-0.6452607297062912 1:21.2 2:20.495 3:0 4:560.5 5:0.00318453 
-0.6383271076755068 1:21.2 2:20.226667 3:0 4:547.66667 5:0.003142625 
-0.8138487715311991 1:21.1 2:20.245 3:0 4:542.5 5:0.003126138 
-0.107022147667653 1:21.15 2:20.245 3:0 4:539 5:0.0031358 
-0.1132540673255949 1:21.15 2:20 3:0 4:534 5:0.003097662 
-0.07895455988663619 1:21.15 2:20 3:0 4:538.5 5:0.003097662 
-0.08952920739798863 1:21.2 2:19.895 3:0 4:531 5:0.003090838 
-0.1668787947067916 1:21.2 2:20 3:0 4:526.5 5:0.003107232 
-0.1768690210520058 1:21.2 2:19.963333 3:0 4:522 5:0.003101507 
-0.0899301963596881 1:21.2 2:19.79 3:0 4:516.33333 5:0.003074445 
-0.09402315797252185 1:21.15 2:19.65 3:0 4:520 5:0.003043188 
-0.05406085321839366 1:21.175 2:19.79 3:0 4:514.75 5:0.003069708 
-0.06858883445758115 1:21.2 2:19.63 3:0 4:510 5:0.003049466 
-0.1621831320203564 1:21.1 2:19.29 3:0 4:503.5 5:0.002977965 
-0.4236818220817292 1:21.15 2:19.55 3:0 4:506.5 5:0.003027626 
-0.2419781858555831 1:21.15 2:19.445 3:0 4:500 5:0.003011286 
-0.4628807444531436 1:21.2 2:19.39 3:0 4:495 5:0.003012003 
-0.2174836118291851 1:21.2 2:19.29 3:0 4:490 5:0.002996394 
-0.278585487262346 1:21.2 2:19.245 3:0 4:487 5:0.00298937 
-0.1170856596380013 1:21.2 2:19.29 3:0 4:484.5 5:0.002996394 
-0.07122745554402066 1:21.2 2:19.39 3:0 4:481 5:0.003012003 
-0.1230155315590919 1:21.2 2:19.39 3:0 4:481.33333 5:0.003012003 
-0.1652940547833922 1:21.2 2:19.39 3:0 4:479 5:0.003012003 
-0.03597530899403551 1:21.2 2:19.39 3:0 4:477 5:0.003012003 
-0.3234306725202516 1:21.2 2:19.39 3:0 4:472 5:0.003012003 
-0.1521947069129118 1:21.2 2:19.39 3:0 4:475 5:0.003012003 
-0.1588531984551873 1:21 2:19.6 3:0 4:464 5:0.00300743 
-0.9958052412470119 1:20.39 2:18.7 3:0 4:423 5:0.002762411 
-0.3058979161531866 1:20.39 2:18.5 3:0 4:428.5 5:0.002732736 
-0.571709305392396 1:20.29 2:18.39 3:0 4:432 5:0.002699613 
-0.4331251543556562 1:20.29 2:18.5 3:0 4:442 5:0.002715832 
-0.2812775562289007 1:20.29 2:18.5 3:0 4:439 5:0.002715832 
-0.09784465679860456 1:20.29 2:18.5 3:0 4:435 5:0.002715832 
-0.1058643386427718 1:20.245 2:18.5 3:0 4:438 5:0.002708254 
-0.2914838916405692 1:20.2 2:18.5 3:0 4:427.5 5:0.002700696 
-0.3566335033433582 1:20.2 2:18.5 3:0 4:436 5:0.002700696 
-1.160430101036335 1:20.2 2:18.6 3:260.33333 4:434 5:0.002715358 
-0.8446489619646319 1:20.175 2:18.675 3:422.5 4:440.75 5:0.002722124 
-0.7283670823185731 1:20.2 2:18.7 3:419 4:442 5:0.002730021 
-1.107499090358016 1:20.175 2:18.7 3:419 4:448.5 5:0.002725784 
-5.044508456041425 1:20.133333 2:18.7 3:409 4:458.66667 5:0.002718736 
-4.900281617133714 1:20.175 2:18.7225 3:411 4:456 5:0.002729078 
-1.98252335593746 1:21.7 2:20.5 3:479 4:813.25 5:0.003284903 
-3.731094102324628 1:21.7 2:20.39 3:474 4:806 5:0.003267184 
-6.876621558814408 1:21.7 2:20.525 3:492.75 4:804.5 5:0.00328893 
-1.163727494723418 1:21.7 2:20.075 3:44 4:754.75 5:0.003216449 
-0.5758470115954273 1:21.7 2:20.075 3:60.25 4:755 5:0.003216449 
-0.6440648811270578 1:21.65 2:20.05 3:60.75 4:753.5 5:0.003202565 
-1.128900533328666 1:21.6 2:20 3:67 4:758 5:0.003184732 
-1.163824303762628 1:21.533333 2:19.963333 3:58.333333 4:732 5:0.003165854 
-1.075058073252863 1:21.5 2:19.9725 3:62.5 4:720.25 5:0.003160825 
-1.075933910053083 1:21.5 2:20 3:68.75 4:719.25 5:0.003165199 
-1.083916555143027 1:21.5 2:19.9725 3:47 4:714.33333 5:0.003160825 
-1.083795732155745 1:21.4725 2:19.945 3:54.5 4:713.4 5:0.003151112 
-1.0640026178799 1:21.445 2:19.89 3:50 4:708 5:0.003137064 
-1.131665026310106 1:21.39 2:19.89 3:57 4:692.5 5:0.003126457 
-1.163887358992542 1:21.39 2:19.89 3:81.25 4:688.75 5:0.003126457 
-1.131904777642488 1:21.39 2:19.696667 3:50 4:689.66667 5:0.003095916 
-1.163888964851407 1:21.29 2:19.726667 3:58.333333 4:671.33333 5:0.00308161 
-1.16376642649627 1:21.29 2:19.666667 3:131.33333 4:665.33333 5:0.003072191 
-1.163891843865373 1:21.5 2:19.39 3:573 4:652.66667 5:0.003068184 
-1.164341963045443 1:21.55 2:19.34 3:560.75 4:663.75 5:0.003069662 
-1.241922857252068 1:21.6 2:19.356667 3:524 4:652 5:0.003081782 
-2.145206981989168 1:21.6 2:19.29 3:537 4:653 5:0.003071115 
-0.6443541591378474 1:21.675 2:20.9725 3:0 4:781.25 5:0.003355863 
-0.6750647855109105 1:21.6 2:20.6 3:0 4:775.5 5:0.003280778 
-0.6069794400508548 1:21.533333 2:20.7 3:0 4:763.33333 5:0.003283294 
-0.7322124980245625 1:21.5 2:20.6 3:0 4:758 5:0.003260653 
-0.7137519185610454 1:21.5 2:20.7 3:0 4:750.5 5:0.003276565 
-0.7131915682360751 1:21.5 2:20.7 3:0 4:740 5:0.003276565 
-0.6966260783715713 1:21.39 2:20.5 3:0 4:730.66667 5:0.003222838 
-0.1031936873466941 1:21.39 2:20.5 3:0 4:725.5 5:0.003222838 
-0.8517131982085012 1:21.39 2:20.5 3:0 4:722.5 5:0.003222838 
-1.068820570440655 1:21.323333 2:20.5 3:0 4:711 5:0.003209626 
-0.3584774754431802 1:21.323333 2:20.5 3:0 4:703.66667 5:0.003209626 
-0.2676419235748038 1:21.29 2:20.393333 3:0 4:704.33333 5:0.003186287 
-1.11894263827507 1:21.29 2:20.29 3:0 4:689 5:0.00317006 
-0.5775185613695739 1:21.2 2:20.245 3:0 4:674.5 5:0.003145488 
-0.8128037452455689 1:21.175 2:20.2 3:0 4:664.75 5:0.003133625 
-0.4382013759052507 1:21.1 2:20.2 3:0 4:661 5:0.003119155 
-0.3092915723990672 1:21.1 2:20.1 3:0 4:647 5:0.003103636 
-0.7528835008251602 1:21.05 2:20.05 3:0 4:644 5:0.003086335 
-0.6794444925877841 1:21 2:20 3:0 4:630.5 5:0.003069109 
-0.9565681697389483 1:21 2:20 3:0 4:625 5:0.003069109 
-0.2409216351667389 1:21 2:19.89 3:0 4:614 5:0.003052146 
-0.4602710874445535 1:20.89 2:20 3:0 4:616.5 5:0.003048317 
-0.8052892542354774 1:21 2:19.893333 3:0 4:607.5 5:0.00305266 
-0.7135716248614707 1:21 2:19.89 3:0 4:602 5:0.003052146 
-0.5047952286098236 1:21 2:19.89 3:0 4:598 5:0.003052146 
-0.1318309577629249 1:20.89 2:19.79 3:0 4:595.5 5:0.003016154 
-0.5665108932502279 1:21 2:19.79 3:0 4:593 5:0.003036726 
-0.5997074784498854 1:20.89 2:19.79 3:0 4:582 5:0.003016154 
-0.3548598821580188 1:20.89 2:19.745 3:0 4:578.5 5:0.003009263 
-0.6908529756853931 1:20.963333 2:19.633333 3:0 4:574.33333 5:0.003005753 
-0.8488054589828143 1:21 2:19.5 3:0 4:569 5:0.002992012 
-0.2730961432122694 1:20.89 2:19.5 3:0 4:562 5:0.002971745 
-0.8996812436883271 1:20.79 2:19.6 3:0 4:551.66667 5:0.002968643 
-0.6433134240816808 1:20.79 2:19.5 3:0 4:537 5:0.002953425 
-0.5179048060383016 1:20.7 2:19.39 3:0 4:532.5 5:0.002920377 
-0.1076656457952401 1:20.7 2:19.426667 3:0 4:530 5:0.002925925 
-0.2543525279312054 1:20.7 2:19.39 3:0 4:521.5 5:0.002920377 
-0.3985409971596617 1:20.7 2:19.5 3:0 4:528.5 5:0.002937022 
-0.4313548824545728 1:20.6 2:19.29 3:0 4:525 5:0.002887311 
-0.08866979663251724 1:20.6 2:19.34 3:0 4:523 5:0.00289483 
-0.4523746928023027 1:20.6 2:19.29 3:0 4:517.5 5:0.002887311 
-0.1327259648694316 1:20.633333 2:19.39 3:0 4:519.33333 5:0.002908347 
-0.582956775967427 1:20.65 2:19.29 3:0 4:513.5 5:0.002896266 
-0.5340533737994666 1:20.6 2:19.29 3:0 4:509.5 5:0.002887311 
-0.4538748582023139 1:20.5 2:19.29 3:0 4:503 5:0.002869474 
-0.03438537881519838 1:20.5 2:19.29 3:0 4:501 5:0.002869474 
-0.4896760925425804 1:20.34 2:19.29 3:0 4:498 5:0.002841138 
-0.3886990762113762 1:20.445 2:19.245 3:0 4:492 5:0.002853004 
-0.1450810886299 1:20.39 2:19.29 3:0 4:490.5 5:0.002849966 
-0.1014986878721913 1:20.445 2:19.29 3:0 4:488 5:0.002859706 
-0.3043286178841128 1:20.39 2:19.245 3:0 4:485.5 5:0.002843287 
-0.1595892403956478 1:20.5 2:19.245 3:0 4:483 5:0.00286275 
-0.2995177706514114 1:20.5 2:19.2 3:0 4:481 5:0.002856025 
-0.4244939028497723 1:20.39 2:19.2 3:0 4:477 5:0.002836609 
-0.2132787357612487 1:20.39 2:19.2 3:0 4:474 5:0.002836609 
-0.2403266503249664 1:20.39 2:19.2 3:0 4:471 5:0.002836609 
-0.3465713057845424 1:20.39 2:19.2 3:0 4:468.5 5:0.002836609 
-0.01774399226919674 1:20.39 2:19.1 3:0 4:463.33333 5:0.002821768 
-0.3445345035602414 1:20.39 2:19.1 3:0 4:458 5:0.002821768 
-0.4777168777821778 1:20.29 2:19.1 3:0 4:466 5:0.00280431 
-0.5649761493040646 1:20.2 2:19.1 3:0 4:461.5 5:0.002788679 
-0.4624074558097555 1:20.2 2:19 3:0 4:455 5:0.002774013 
-0.5233544662285898 1:20 2:18.7 3:0 4:451 5:0.002696288 
-0.3617535407908349 1:20 2:18.7 3:0 4:448 5:0.002696288 
-0.4307508621460748 1:19.89 2:18.7 3:0 4:445 5:0.002677892 
-0.7939103629585622 1:19.6 2:19.5 3:14 4:451.33333 5:0.002742927 
-0.2609623998440498 1:19.6 2:19.5 3:14 4:456 5:0.002742927 
